/**
  ******************************************************************************
  * @file    weights/conv1d.cc
  * @author  Pierre-Emmanuel Novac <penovac@unice.fr>, LEAT, CNRS, Université Côte d'Azur, France
  * @version 1.0.0
  * @date    24 march 2020
  * @brief   Template generating plain C code for the implementation of Convolutional Neural Networks on MCU
  */

#include <stdint.h>

#define INPUT_CHANNELS    32
#define CONV_FILTERS      32
#define CONV_KERNEL_SIZE  2
#define CONV_GROUPS       1


const int16_t  conv1d_31_bias[CONV_FILTERS] = {-234, -246, -715, 300, -250, -111, -11, -303, -102, -20, 447, -247, -246, -165, -259, -246, -246, -411, -246, -341, -328, -246, -246, -389, -243, -245, -100, -293, -247, -246, -246, -572}
;

const int16_t  conv1d_31_kernel[CONV_FILTERS][CONV_KERNEL_SIZE][INPUT_CHANNELS / CONV_GROUPS] = {{{-107, 87, 26, 663, -464, 654, 977, 477, 511, 1403, 589, 720, 804, 1051, -3, 67, 70, 1620, -654, 472, 594, 613, 123, 592, -706, -308, 286, -250, 1135, -507, -483, -387}
, {-128, -1101, -620, -368, -143, -287, 1592, 33, -624, 792, -222, -86, -114, 284, -144, 294, -501, -510, -384, -359, 533, -459, -843, -728, 1234, -1008, -150, 9, -712, -670, -632, 30}
}
, {{286, 447, 223, -704, 620, -446, 307, 540, 76, -669, 294, -84, -190, -400, 450, 130, 581, -502, -55, -85, -938, -774, -789, 242, 364, 342, 101, -947, -254, -778, -21, 227}
, {478, -135, 8, -595, -813, 396, 453, 184, 422, 187, -320, -102, 433, 224, 374, 803, 320, -477, 114, 590, -1054, 565, -310, -385, -38, 342, -489, 310, -312, 247, 137, 553}
}
, {{-299, -1118, -225, -2598, -838, -2193, -2542, -687, -570, -1821, 128, -819, -368, -1682, -973, 771, -206, -2333, -1161, 383, -629, 799, -2203, 466, -1321, 479, -644, -804, -1441, -819, 6, 330}
, {-579, -1086, -889, 1056, -282, 1497, -773, -678, 1314, 984, -312, 853, 674, 686, 1889, 717, -210, 1310, 906, -471, 1342, -453, 386, -558, 940, 88, 327, 1924, 415, -162, -760, -877}
}
, {{88, 687, -645, -1637, 1029, -442, 1127, 146, -205, -118, -116, -76, 384, -92, -993, 847, 107, -97, -336, -538, -137, -231, -265, 95, -538, 350, -524, -491, -1147, -463, 321, -257}
, {755, 791, -83, -897, 500, -1026, 1302, -163, 730, 422, -424, -311, 701, 148, -490, -601, 338, 155, -339, -591, -970, -605, -500, 59, 761, 322, -107, -646, -239, 542, 231, 65}
}
, {{-622, -1236, -1081, 148, -878, -549, -611, -977, -431, -315, -596, -822, -537, -14, -311, 272, 505, -1164, 593, 325, -767, -370, -425, 743, -946, 25, -164, -435, -415, 231, -223, 229}
, {-292, -389, 479, 140, -705, -89, 717, -993, -1148, 341, 270, -855, -691, -26, 803, -366, -731, -530, 632, 169, 91, -295, -473, 759, 295, 534, 350, -688, -1000, 549, 186, -602}
}
, {{856, -25, -294, 498, 405, 734, -129, 662, 87, -860, -1, 198, -177, -189, 36, -669, -642, -608, -3, -611, -310, -853, 411, -113, -493, -635, -341, -350, 268, -10, 738, -322}
, {496, -365, -272, 59, -954, 503, -560, 4, -390, -307, 73, 701, 94, -897, -480, 750, 362, -850, -13, 583, 410, 251, -437, -348, -549, -512, -91, 218, 12, 597, -547, 1093}
}
, {{29, 410, -72, -74, 721, 626, 1651, 385, -760, 1827, 858, 155, 424, -470, -435, -668, 420, 1461, -866, 624, 1290, 353, 990, 745, -600, -617, 514, -706, -455, 697, 245, 1198}
, {435, 1034, 815, -1181, -272, 48, 2107, 645, -334, 820, 1010, -549, -308, -1014, 4, 919, 90, 544, 100, 495, -642, 276, -127, -571, 296, -176, 504, -840, -479, -650, -111, -299}
}
, {{-262, 124, -181, -603, 370, -161, 1042, -12, 32, 238, 308, 276, 638, 317, -102, 150, -236, 158, -1031, 147, 65, 846, 475, -622, -275, 337, 819, -571, 493, -771, -244, -126}
, {71, -615, -119, -109, -795, 1044, 781, 322, 898, 1301, -112, 795, 32, 846, 193, 261, -59, 827, 609, -412, 1072, 683, 1351, 814, -1073, 55, 907, 334, 1087, 850, -165, 67}
}
, {{121, 741, 4, -754, -126, 761, 527, 253, -691, -780, 963, 755, -486, -740, 110, -1, 566, 76, -461, 553, -669, 757, 332, -446, 779, 396, -114, 377, 514, -508, -224, 965}
, {728, -849, -544, 702, 195, 478, 617, -439, -354, -357, -109, -555, 290, -930, 419, -916, -552, 475, -937, 282, -840, -876, -839, -325, -106, 172, 430, 763, 2, -650, 903, 697}
}
, {{-240, -1123, 602, 848, -729, 71, -1384, 93, 610, 1096, 356, -421, 127, 404, 1249, -578, 54, 299, 205, 8, -399, -332, 983, 814, 460, -205, -955, -138, 813, 48, -616, 553}
, {-590, -1618, 504, -288, 224, -198, -1042, -215, -277, -352, 338, -250, 135, -258, 288, 587, 1000, 303, 146, 988, 670, -582, 816, 492, 97, -463, -44, 578, 706, 831, 893, 937}
}
, {{-285, 637, 648, 927, 994, 374, 747, 153, -413, 664, 214, 549, -158, 267, -867, 474, 356, -234, 760, -577, -635, -689, 1033, -551, -3, 509, -94, 428, 899, 30, -48, 499}
, {772, -634, -105, 565, 1040, -367, 627, -95, -536, 599, 210, 288, 810, 688, 40, 486, 485, -273, -194, 980, 59, -205, 35, -420, 1334, 242, 601, 23, 641, -486, -872, 681}
}
, {{-424, -923, 169, 256, -179, -137, 560, -406, -464, -812, -230, 64, -833, -746, -244, 574, 79, -850, -825, -838, 238, -433, 596, 449, 103, 84, -825, 658, 61, 858, 546, -997}
, {-787, 436, -663, -168, -720, -694, -342, 610, 386, 412, 95, 13, -214, 147, -308, -273, -671, -245, 539, -879, 64, -724, -110, 249, -472, -187, 410, 114, -638, 350, -807, -54}
}
, {{459, -46, -39, 191, -1092, 82, -458, 420, -624, -766, -296, 452, 503, 487, 261, 283, -824, -370, -209, -968, 260, 189, -704, -410, -482, -726, 81, -354, -273, 219, 788, -551}
, {727, 84, 534, -308, 604, -50, -279, 244, -1099, 779, 739, 844, -326, -210, 121, -126, 78, 10, 160, -440, 373, -974, -188, 417, 282, -718, -326, -516, -216, 364, -830, 494}
}
, {{154, -485, 390, 837, -1069, 357, 762, -894, 195, 461, 1139, -70, -96, 1331, -1347, 335, -481, 1150, -543, -98, -254, 450, 609, 813, 83, 344, -670, -41, 857, 659, -232, -118}
, {535, -407, -629, 356, -1073, 1101, 373, 66, -633, -13, 1156, 25, -244, 1080, 287, -227, -112, 583, 698, -483, 138, -169, 1104, -312, -124, 750, -302, 130, -320, -312, 81, -431}
}
, {{-498, 801, -547, -428, -1321, -821, 38, -466, -759, 263, 708, 152, -99, 270, 390, -23, -825, 229, 268, -466, -1097, -717, -177, -875, -771, -1, -274, -659, -317, 458, 689, 660}
, {-696, -163, -165, -1049, -683, 246, -985, 232, 43, -1119, -291, 54, -519, -923, 214, 206, -296, -516, -341, 332, 266, -796, -1028, 179, 16, 518, 522, -853, -33, 781, -389, -236}
}
, {{117, -848, -296, -335, -790, 438, -18, 713, 166, 812, -482, -728, 326, -198, -12, -513, -688, 130, 292, -89, 262, -736, -877, -141, -362, 63, 688, -778, -643, 591, -806, 645}
, {-580, -803, -262, -135, 411, -280, 272, 567, -17, -239, 692, 865, -160, -871, -357, -590, 633, 814, -43, 61, -865, 526, -495, 731, -832, -230, 476, 754, 513, 413, 404, -695}
}
, {{83, -157, -289, 181, 465, 366, 250, 322, -498, 701, -777, -644, -101, 672, 58, 382, -236, -737, 614, 289, -902, 368, -518, -632, -114, 310, 693, -651, -558, 463, 25, 568}
, {-455, -563, -857, 15, 333, 227, -391, -532, 332, 77, -368, -523, -142, -851, 247, -24, -29, -373, -112, 371, -591, -780, -395, 224, -230, -669, 653, 827, -249, -622, 770, 747}
}
, {{196, -1122, -188, -421, -1095, -734, 464, -761, -152, -580, 295, -694, -62, 370, -27, -780, 269, -744, -360, -570, -239, -376, -658, -379, 389, -250, 297, 62, -293, 752, 426, 274}
, {-586, -1095, -630, 184, -167, 625, 481, 114, 1069, -316, -205, -346, -652, 556, 1095, 848, -120, 708, 67, -888, 541, 373, 929, 247, 355, -1, 617, 85, 242, 175, 744, 893}
}
, {{60, -233, 233, -301, -859, -804, -171, 583, 400, -191, -864, 147, -143, -889, 638, -594, -384, -881, -4, 501, 55, 649, 661, -71, 553, -615, 49, -164, 401, -319, -382, 190}
, {-799, -213, -793, 9, 599, 404, -881, -442, 213, -502, 43, -284, -200, -899, 707, 444, -101, 566, -992, -859, 22, 299, -349, -236, 444, 255, 233, -152, -199, -714, -697, 147}
}
, {{836, -721, -486, -409, -430, -1055, 573, 576, 245, -151, -400, -25, -27, 444, 765, -207, -54, 440, -772, -342, -426, 320, -189, -518, -26, -993, -284, 103, 303, -331, 139, 388}
, {520, -54, -995, 29, -523, -319, -320, 434, -591, -229, 652, 458, 207, 176, -129, 59, -238, -58, -1108, 4, -396, -453, 220, 461, 659, 23, -683, 347, 213, 486, -92, -1012}
}
, {{-109, -425, 579, 694, -776, 390, 1703, -924, 584, 1307, 133, 516, -513, 884, -204, 418, -122, 235, -234, 22, 769, -459, -143, -862, 525, 416, -873, 375, 1174, 305, 652, -415}
, {-136, -1730, -126, -548, -572, 1307, 1400, 246, 156, 925, -234, 250, 818, 1447, 99, -415, 42, 750, -155, -471, 1222, 425, 876, -443, -473, 698, -154, -366, 983, 22, 14, -278}
}
, {{-321, -201, 110, 244, -879, -562, -820, 8, -127, -445, 550, -660, 870, 422, -572, -37, 145, -593, 385, -798, -283, -36, -100, 574, 830, -637, 555, -779, -37, -209, 602, -689}
, {-758, 218, 296, 277, 44, 55, 452, 574, -261, -431, -332, 153, -524, -185, -306, -21, 167, -536, 335, 175, 693, -566, -426, -791, -889, -915, -660, -16, -229, 735, -24, 269}
}
, {{26, -196, 269, 247, -909, -803, -847, 397, -805, -536, 445, -583, 269, 481, -592, 622, 508, 90, 595, 565, -229, 36, -795, 719, -407, -950, 537, 29, -516, 290, 419, -801}
, {-694, -119, 359, -636, 262, -959, -643, -735, -846, 207, -572, -125, -670, -850, -666, 134, 546, -713, -865, 609, -733, 8, 263, 494, 301, -231, -90, -611, -250, -99, -911, 374}
}
, {{-560, -814, -179, 34, -873, 141, -685, 751, 111, 251, -404, -660, 579, -579, 521, -418, -551, -610, -552, 829, 11, 509, -887, -472, -844, 222, -579, 158, -93, 122, 591, -344}
, {198, 484, 91, 159, -918, -927, -114, -3, -620, 540, -351, 646, 596, -38, -750, 272, -16, -710, -506, 166, 551, 341, -674, -32, -665, 117, 291, 278, -386, -243, -617, -502}
}
, {{-573, 365, -714, -473, -162, 725, -688, -537, -247, 565, 744, -841, -827, -838, -848, -185, -531, -434, 404, -571, -886, 114, 287, 208, 726, 383, 621, -62, 304, 328, 761, 4}
, {-138, 174, -309, -110, -424, -229, -368, -77, 105, 233, -595, -564, 406, -615, 265, -74, 326, -178, 631, 397, -633, 544, -127, -56, 99, -584, -334, 601, -120, -649, -860, -218}
}
, {{-710, 567, -801, -377, 141, -261, -158, -590, 760, -826, -459, -406, -555, -637, -302, 38, 51, 777, 330, 755, 810, -417, -904, 568, -411, 203, 1, 89, -194, -496, 46, 122}
, {-496, -520, 866, -131, 132, -129, -320, -787, -599, 807, -155, -715, -775, -249, 212, -670, 536, -656, -784, 461, 65, -633, -602, 656, -9, -790, -76, -199, 114, 53, -12, -316}
}
, {{385, -128, 149, -60, -769, 272, 1007, 44, -590, 988, -597, 897, 665, 273, 253, 1096, 101, 912, -504, 514, 305, -354, 776, -596, -93, -889, -620, 786, -371, -333, 587, 856}
, {-421, -1620, 753, 548, -983, 1235, 1151, -388, 1090, 1391, 92, -180, -451, 761, -379, 236, -223, 771, 1061, -549, 183, 377, 576, -368, -171, -935, 607, 670, 591, 236, -328, 1216}
}
, {{408, -552, 711, 726, 348, -690, 1271, -258, 208, 754, 780, 1013, 392, 685, -1207, 398, -10, 518, -550, 225, -197, 849, 772, 15, -1005, 623, -82, -362, 201, 313, 495, -486}
, {-786, -1082, 333, 108, -803, 726, 1314, -952, -1135, 1010, -419, 630, 1023, 847, -1080, -199, -422, 525, -240, -272, -474, 212, 886, 814, -596, 245, 498, 462, 670, 662, 40, 399}
}
, {{-742, -552, -1085, 283, -786, -452, -155, -216, 594, 53, 448, -238, 755, 79, 314, -688, 659, -401, -897, -34, -31, -422, -269, -573, 593, -43, -446, -45, -315, -844, 528, -945}
, {613, -322, -651, 514, -479, 430, 331, -323, -857, -23, -487, 721, 237, -769, -345, -636, 805, -380, -287, 376, -756, -417, 169, 635, 541, -679, -353, -302, 657, -327, 745, -729}
}
, {{-642, -328, 258, -920, 776, -640, -512, 484, 46, 354, -788, 727, 517, -945, 756, -302, -365, 278, 654, -592, -871, 423, 73, -759, -289, -850, 796, -447, -167, -8, -98, -682}
, {67, 435, 543, -874, 77, -690, -751, 555, -99, -681, -149, 643, 577, -484, -312, -390, 159, -1067, -103, 696, -26, 724, 218, -89, 88, 388, -808, -871, -362, -568, -412, -752}
}
, {{389, -588, -257, 512, -795, -147, -453, -638, 83, 672, -884, 852, -953, 477, -220, -361, -691, -933, -622, -68, 202, 263, -899, 55, -179, 562, -165, 159, -21, -328, -483, -163}
, {319, -68, 408, -892, -60, 210, 255, 100, -686, 282, 579, 108, -17, 577, -221, -184, 735, 558, 50, 333, -741, -78, -985, -845, 151, -815, -619, 298, 340, -624, 541, -370}
}
, {{29, -635, -811, -477, -350, -208, -732, 70, -627, 188, 427, -848, -276, -158, 743, 796, 452, -569, -844, -250, 352, 831, 247, -246, -634, 494, -592, -596, 312, -62, -328, -580}
, {-856, 212, 322, -1156, -21, 478, 167, 229, 798, 102, 242, 324, 163, -987, -53, -271, -179, -1171, 691, 567, -941, -65, -331, -289, -773, -338, -727, -566, -1231, 815, 234, 842}
}
}
;

#undef INPUT_CHANNELS
#undef CONV_FILTERS
#undef CONV_KERNEL_SIZE
#undef CONV_GROUPS