/**
  ******************************************************************************
  * @file    weights/conv1d.cc
  * @author  Pierre-Emmanuel Novac <penovac@unice.fr>, LEAT, CNRS, Université Côte d'Azur, France
  * @version 1.0.0
  * @date    24 march 2020
  * @brief   Template generating plain C code for the implementation of Convolutional Neural Networks on MCU
  */

#include <stdint.h>

#define INPUT_CHANNELS    32
#define CONV_FILTERS      32
#define CONV_KERNEL_SIZE  2
#define CONV_GROUPS       1


const int16_t  conv1d_15_bias[CONV_FILTERS] = {-379, 613, -162, -301, -132, 84, -556, -553, -246, -200, -193, 110, 2357, -532, -246, -367, 530, 770, -331, 286, -249, -48, 38, -248, 1260, -257, 796, -1727, -463, 220, -380, 345}
;

const int16_t  conv1d_15_kernel[CONV_FILTERS][CONV_KERNEL_SIZE][INPUT_CHANNELS / CONV_GROUPS] = {{{-627, -751, 632, -713, 60, 751, -1076, 425, -211, 502, -540, -659, -601, -413, 276, -1334, 233, -958, 297, -514, -470, -46, -902, -266, 833, -963, -32, -139, -829, -400, -794, 436}
, {240, 55, 254, 488, -649, -316, -1172, -348, 577, -278, 19, -243, -867, -877, 542, -156, -274, -1212, -645, 690, -210, 395, 422, -140, -710, -1270, -88, 222, 75, -1446, -761, -358}
}
, {{205, -450, 452, -674, -429, 1216, -2873, -549, -790, 158, -42, -3109, -1750, -2771, -822, -2109, -1523, -2336, 599, 119, 1963, -529, 127, -717, -1177, -2093, -1020, -2229, -879, -1365, -2287, 870}
, {199, -60, -386, 614, 562, 102, 98, -3, 776, 1088, -836, 1670, 532, 2247, -572, -3987, -2063, 420, 166, 1072, -2096, -879, -582, -888, -53, -581, -4361, 273, -836, 1890, -251, 1431}
}
, {{-610, 534, 907, 355, -498, 172, -2033, 494, 257, -268, -777, -1247, -400, -933, -170, -1692, -960, -2594, 1115, -1529, 2021, 116, 150, -1433, 500, -1245, 1561, 337, -20, -307, -1413, -749}
, {345, -156, -421, 827, 236, -383, 1983, 52, -637, -356, 118, 1298, 1988, 2417, -415, -1535, -1054, 2216, -345, -81, 154, 489, -488, 538, 219, 958, -1947, 407, -398, 1218, 2347, 444}
}
, {{163, 768, 26, -388, -843, -482, -1042, -560, -496, -439, 364, -392, -564, -617, -636, -283, 95, -476, -1335, -464, -58, -131, -456, -742, -768, -781, 508, -682, -348, -990, 7, -342}
, {-175, 900, 886, 501, -595, 112, -235, 513, 218, -309, -267, -1167, 4, -1267, -830, 763, 280, -609, -1262, 286, 48, -889, -715, -29, -72, -977, -751, 291, 295, -615, -965, -76}
}
, {{389, -707, -782, -96, -391, -471, 773, -61, 221, 4, 158, -143, -478, 1834, -139, -396, -3942, 2297, -1082, 30, -7165, 1627, -853, 1871, -1297, 1423, -573, 1049, -161, -322, -30, 706}
, {-417, -860, 717, 289, 229, -435, 890, -478, 582, 126, -254, 227, 1250, 1471, 383, 499, -3197, 2733, -389, 485, -7139, 1861, -252, 2297, -1279, 220, -394, 978, -379, -50, -1376, -7}
}
, {{-577, -239, -624, 675, -379, -1252, 26, 90, 551, 707, -906, 1178, -1758, 1430, 440, 202, -970, 627, 585, 388, 250, -143, 302, -32, -835, -1403, -1381, -653, 561, -1623, -498, -1987}
, {-54, -819, 151, -504, -641, -1361, -33, 435, -365, -339, -563, 587, -428, 239, -688, 36, 356, 270, -659, 342, -1611, 141, -104, -61, -945, -1540, -1974, -159, 405, -1720, -937, -945}
}
, {{-507, -79, 395, 181, 888, -585, -551, -719, 833, 523, 24, -2599, -453, -2962, -350, -1056, -350, -1326, 258, -201, -1974, -318, 684, -818, -978, -946, -1601, -629, -230, -1892, -78, -1299}
, {-586, -179, 907, -780, 373, -164, -494, 712, 149, 116, -875, -1293, -266, -207, -347, -2552, 14, -1715, 189, 275, 420, -1277, -622, -1878, 348, 49, -2096, -989, -719, -489, -767, 827}
}
, {{-51, -79, -440, -755, -607, -746, 221, 575, 254, -811, -215, -267, -725, 248, -151, -607, -1095, -305, 193, -740, -704, -261, 362, -1342, 676, -562, -382, -369, -561, 374, -543, -802}
, {-788, 311, 382, 179, -555, 482, 486, 668, 199, -893, 56, 391, 198, -520, -805, -387, -1411, -1036, -1137, -587, -458, -407, -13, -665, 198, -500, 127, -1013, 298, 254, -826, -414}
}
, {{494, -936, -541, 270, -393, -683, 358, -583, -454, 110, 392, 152, -914, 459, 233, -522, 141, -722, 65, -667, 240, -428, 504, 420, -372, -732, -724, -421, -788, 348, 85, -919}
, {-590, -38, 555, -617, -585, -241, -960, -942, 641, -701, -488, 665, -157, -440, -551, -551, 91, -1041, 13, 527, -1003, -968, -320, -962, 257, 303, 692, -54, 314, 630, -137, -356}
}
, {{594, -999, -217, -868, -234, 179, -3149, -424, -257, 647, -957, -191, -1444, -3440, 199, -1904, -3270, -1400, -2907, -671, -3486, -3969, 94, -3874, -652, -2217, -2899, -3340, -63, -1618, -61, 878}
, {753, 1411, 194, 203, 176, 453, 124, -516, 979, -337, 578, -413, 360, 1693, -550, 3218, -1382, 751, 3638, -288, -767, 3022, -1403, 1180, 2148, 1208, 2538, 126, -115, 596, 180, -239}
}
, {{451, 363, -761, -706, 509, 169, -768, -395, -144, -489, -366, -705, -298, -830, 445, 29, 136, -330, -1192, 512, 71, -34, -516, 194, -900, 574, 558, -817, 336, -249, -149, 132}
, {395, -877, 536, 603, 238, -660, -665, 510, -234, -675, -955, -297, 523, 459, 311, 423, 196, -804, -621, 873, -133, 54, -55, -48, -390, -239, -517, -576, 782, -629, -389, 38}
}
, {{-24, 2998, 880, 840, -463, -1936, 1274, -473, -442, -147, 990, 1250, 477, 852, -268, 1061, 225, 790, -1056, 840, -1904, -466, 1793, 265, -422, 1190, -3333, 124, -849, 237, 750, 1268}
, {-472, -1147, 500, -669, 717, -1684, 429, 811, -366, 116, -57, 613, 1002, 1115, -167, -1523, -739, 1568, -1878, -1280, -2730, -448, 1167, 372, -974, 199, -5426, 747, -57, 673, 84, 1301}
}
, {{63, -338, -622, 310, -519, -542, -355, -117, 158, 484, -906, 179, 12, 404, -391, -823, -2229, 617, 4471, 470, -2381, 3410, -150, 2380, -2422, -421, 1575, 267, 311, -1615, -1829, 1843}
, {-138, -751, -449, 648, 287, -755, -1014, 727, -830, 106, -904, 908, -140, 410, -566, 66, -1529, 119, 631, -107, -386, 2162, -970, 2332, -2783, -930, 63, 504, 400, -634, -904, 3332}
}
, {{363, -509, 214, -119, 381, 515, 325, -13, 410, -660, -47, -30, 541, -837, -587, 527, 486, -1173, -230, -797, 1219, -446, -427, -945, -285, 747, -1274, -265, 92, -384, -716, -93}
, {496, 270, 207, 660, -409, -298, -449, -105, -100, -611, 600, -414, 312, -1070, 627, -430, -1160, -126, 751, -482, -255, -581, 165, -5, 55, -1078, -1421, -950, 306, -653, -885, 120}
}
, {{890, -317, 200, -430, -244, 25, -468, -89, 636, 459, 168, -354, 319, 245, -507, 1, -999, -918, -594, 243, 552, -631, 186, -751, 697, 280, -332, -857, -147, -584, 110, -50}
, {-577, 165, -423, -215, -407, -410, 68, -857, 248, -878, -859, -124, -811, 269, -663, -544, 333, 259, 398, -102, 567, -330, 90, -28, -378, -573, 187, -714, 383, 281, -854, -91}
}
, {{413, -940, 463, -7, -824, -288, 2042, 729, -589, 218, 329, 1022, -87, 2139, 198, -3287, 846, 1754, 4064, 418, 1705, 2727, -1847, 1449, -3310, 1901, 566, 1080, -472, -39, 1862, 1326}
, {58, 862, 92, -502, -474, 470, -2850, 6, 707, -21, -665, -3720, -4501, -3174, 797, -6025, 193, -2942, 2433, 815, 8553, 56, 227, -2322, -1602, -1996, -908, -1886, -338, -3786, -2782, 328}
}
, {{-247, -1651, 303, -588, -86, 775, 2481, -500, -206, -365, 300, 1577, 88, 137, 363, -4940, 1119, 2405, 430, 880, 1604, 538, -1594, 2021, -17, 2332, -2028, 1635, -800, 1014, 2559, 2455}
, {1006, -652, -456, -321, 106, 578, -4195, -256, 318, 643, -395, -4833, -3586, -4394, 206, -5391, -583, -5644, 399, 898, 1114, -2535, -637, -4266, 386, -3078, -6114, -2721, -838, -1861, -1738, -14}
}
, {{1073, -59, -306, -441, 280, 984, -3143, -435, -6, 631, -239, -3432, -1729, -2813, 128, -3720, -907, -4049, 561, 552, 3863, 497, -816, -1366, 1948, -2252, 1136, -1405, -488, -2444, -2586, -237}
, {872, -2669, 33, -513, -453, 851, 689, 995, 556, -685, -372, 681, 1156, 2156, -866, -3532, -1421, 168, -678, 237, -4047, 49, 253, 480, 394, 1518, -3675, 1447, -844, 1584, 847, 998}
}
, {{217, -746, 727, 552, 527, 514, -107, 981, 104, 313, 318, 1399, 1297, 931, 637, -2820, 618, 1559, -1362, -275, 969, -1394, 955, -331, 925, 1362, -3897, -610, -313, 1490, 2199, 842}
, {329, -872, -416, 98, 215, -756, 1205, 289, -845, -573, 553, 2534, 2760, 2378, 835, 481, -2211, 1580, -1858, 375, -4023, -820, -380, 70, 2536, 286, -2818, 973, 956, 1766, 496, 707}
}
, {{181, 49, -15, -560, 29, 826, -1997, 583, 632, 423, 562, -2191, -2077, -1454, -45, -695, -2453, -2043, 2758, -258, 3056, -1150, 693, -528, -2397, -2915, -2522, -2025, -494, -2371, -3005, 2150}
, {-34, 697, -253, 757, -206, 468, 518, -624, 561, -807, -56, -771, 773, 965, -782, 412, -2061, 987, 1964, 684, -1809, -722, 65, -887, 650, 444, -3636, 4, 136, -74, -400, 3337}
}
, {{559, -873, 309, -802, -812, 164, -1252, 303, -422, -859, 555, -484, 119, -65, -841, -96, -638, -916, -419, -603, 711, 198, -839, -701, 140, -1053, 140, -114, -34, -1306, -922, 202}
, {176, -345, -264, -181, 774, -79, -623, 606, 143, 107, 220, -1422, -866, -127, -432, 190, -445, -146, 224, -105, 63, -897, -19, -7, 155, -827, -783, -580, -797, -1458, -416, -569}
}
, {{79, -79, 793, -626, 276, -784, 402, 650, 373, 697, 712, 1774, 371, 894, -420, -1688, -739, 960, -667, 670, -1037, -564, -130, 59, 172, 663, -3393, 407, 121, 942, 449, 229}
, {-148, -815, 511, 97, 245, -796, 504, -490, 767, 355, -227, 669, 1454, 2512, 501, 738, -1594, 420, -1061, -112, -3228, -724, -112, 387, -83, 199, -3661, 133, -479, 1329, 154, 1906}
}
, {{192, 3030, -160, 376, 445, -474, 1497, -476, 136, -287, 805, 5, 1405, 749, 222, -1514, -732, 899, 895, 1117, -23, -260, 29, 139, 2264, 1922, -5245, 792, 231, 734, 1440, -364}
, {-63, 2829, -212, 694, -646, 166, 328, -185, 351, 530, 1350, -439, -2134, -2809, -154, -1202, 1407, -1208, -3, 148, 3512, -2344, -6230, -797, 2307, 608, -4020, -1660, -1574, -1398, -205, 900}
}
, {{-153, -944, 46, 278, -895, -548, -1282, -585, -763, -555, -957, -565, -801, -860, 470, -278, -96, -1103, 532, 643, -566, -376, -508, 76, -348, 58, -381, 437, -91, -1166, -1194, -491}
, {-769, 58, 392, 335, 563, -530, -136, 260, 538, -163, -907, -135, 214, -389, -156, -518, 370, -15, 308, -712, 385, -122, -431, -293, -529, -1093, 39, -738, 388, -369, 217, 106}
}
, {{204, -2855, -423, -67, 266, -173, -1949, -383, 781, 444, 149, -1063, -1141, -2354, -231, -5329, -191, -3276, 1393, -348, -5421, 198, -1794, -1392, 2701, -991, 1440, -634, 469, 992, 702, 1685}
, {-469, -3335, 601, 781, -44, 569, -2250, -368, 42, 440, 116, -1139, -456, -2772, -200, -5310, -1165, -2919, 438, -562, -4301, -1992, -1249, -2758, 2410, -263, -1637, 108, -1020, 1440, -107, 1191}
}
, {{-264, -384, 386, -427, -850, -608, -1351, 125, 823, -255, -676, 146, -879, -1338, -782, 116, -1568, -230, -623, 717, -193, -357, -720, 857, -547, -1364, 403, -446, 587, -1041, 95, -263}
, {-287, -1052, 729, -503, 193, -664, -1120, 40, -878, -181, -897, -1138, 17, -1566, -63, 799, -422, -147, -1432, 470, -189, 621, 227, -538, 110, -1108, 584, -598, 394, -743, -1206, -277}
}
, {{-207, 396, -5, -478, -694, 1018, -3003, -186, -454, -687, -1228, -1795, -3217, -3262, 296, 596, -766, -4731, 867, 211, 690, -209, 197, -3062, 605, -3272, -2751, -1038, -479, -409, -2523, -565}
, {573, 550, 182, -710, -428, 4, -346, -18, -527, -249, -286, 493, 913, 1871, -48, -5517, -1326, 104, 75, 1310, -37, 705, 878, -831, 1862, 123, -3177, 575, 414, 2043, 1338, 1721}
}
, {{-561, -666, 350, -227, -463, -795, -1763, -193, 336, 97, -160, -505, 275, -81, 497, 1216, -179, 386, 2320, -319, -5268, -657, 1015, -162, -6090, -903, -177, -163, 307, -596, -2286, 376}
, {-814, -21, -628, 387, 523, 733, 1627, 746, 400, -428, -1168, 886, 1937, 1644, -683, -1578, 987, 2024, 3359, -544, 2306, 2861, 399, 1461, -6833, 1560, 2143, 871, -1620, 915, 1297, -337}
}
, {{-785, 497, 661, 39, 756, -326, -410, 8, -690, -326, 420, -426, -711, -228, -778, 85, 239, -725, -721, 0, -185, -25, -723, 72, 409, -1074, 260, -935, -322, 53, -829, -246}
, {-789, 677, -259, 491, 123, -775, -348, -117, 220, 136, -77, -632, 136, -833, 303, 509, -141, 79, -783, -182, 770, -977, -468, -182, 280, -301, 490, -848, -656, -17, -743, -1148}
}
, {{1055, -3185, -188, -463, -297, -493, 1900, 235, -81, -281, 414, 800, 1061, 2344, 64, -4996, 823, 3069, 1674, -28, -2014, 1093, -740, 1350, 684, 2757, -3178, 1551, 75, 1570, 2412, 1901}
, {67, 653, -258, -467, 634, -117, -3425, -866, 245, 380, -641, -5081, -5110, -4039, -252, -3099, -1289, -3939, -326, 262, 360, -1714, -447, -2855, -3173, -3409, -4450, -2669, -229, -3274, -2704, 143}
}
, {{42, -176, -193, 703, 145, -162, -313, 452, -399, -535, -865, -415, 923, -1013, -177, -611, -479, -1066, 144, -407, 334, -315, 1106, -1383, -4, -556, -427, 406, 966, -664, -161, -43}
, {-641, 746, -256, 39, 92, 418, 402, 138, -389, -844, -12, -1660, 726, -688, 172, 407, 275, -506, 639, -197, -205, 459, 740, -673, -77, -670, -540, 731, 638, -779, -134, 326}
}
, {{-229, -1688, 254, -241, 56, 331, 1031, -119, -90, -285, 43, 726, -1076, 1076, -363, -1810, 1055, 631, 2287, 565, 2302, 1304, -1907, 792, 621, 145, 839, 295, 257, 201, 1063, 1598}
, {-611, 1619, -58, -714, 412, 1574, -2045, -162, 170, -196, -879, -2115, -2127, -4354, -575, -4461, -164, -3165, 881, -221, 39, -3678, 1081, -4836, 2050, -2578, -6121, -1882, 552, -1645, -161, 1418}
}
}
;

#undef INPUT_CHANNELS
#undef CONV_FILTERS
#undef CONV_KERNEL_SIZE
#undef CONV_GROUPS