/**
  ******************************************************************************
  * @file    weights/conv1d.cc
  * @author  Pierre-Emmanuel Novac <penovac@unice.fr>, LEAT, CNRS, Université Côte d'Azur, France
  * @version 1.0.0
  * @date    24 march 2020
  * @brief   Template generating plain C code for the implementation of Convolutional Neural Networks on MCU
  */

#include <stdint.h>

#define INPUT_CHANNELS    16
#define CONV_FILTERS      16
#define CONV_KERNEL_SIZE  3
#define CONV_GROUPS       1


const int16_t  conv1d_106_bias[CONV_FILTERS] = {-2225, 1153, 944, 178, 1793, -1768, 688, -504, -493, -295, -703, -176, 883, -96, -24, -1245}
;

const int16_t  conv1d_106_kernel[CONV_FILTERS][CONV_KERNEL_SIZE][INPUT_CHANNELS / CONV_GROUPS] = {{{-818, -4942, -2036, -1, 707, -3159, -16952, -1690, -463, 13429, -8831, -11407, 4056, 1284, -139, -898}
, {-619, -1030, 201, 1120, -1006, 2657, -8786, -555, -896, 10897, -6952, -1675, 5083, -1532, 790, -230}
, {1557, 6736, -2127, -2815, 1549, 7454, 6824, 1614, 647, 6998, 4928, 7301, 2319, 735, -505, -2438}
}
, {{-30, -10891, 422, 867, 489, -6305, -5502, -1841, 983, 2956, -6137, -9595, 3687, 1671, 457, -2117}
, {1599, -12180, 1584, 3313, -1325, -5851, -5104, 8, 1656, 4313, -6546, -11597, 5026, -1511, 851, 186}
, {-604, -11907, 1258, 1777, 1364, -6264, -4225, -1518, -2187, 7047, -7069, -9933, 8800, 1652, -1444, 444}
}
, {{-895, 4791, 981, -1386, -299, 2157, 3776, 2091, -301, -3741, 2430, 2027, -7438, -360, 914, 334}
, {1004, 4237, 1879, -1856, -441, 529, -73, -87, -682, -4602, 3291, 4847, -7306, -442, 1372, 1682}
, {18, 3102, 86, 1634, 2211, 2695, 3240, -365, -1267, -4715, 3559, 2397, -5576, 115, 1542, -1402}
}
, {{1037, -2332, -2013, 703, -431, 1396, -1073, -1615, 574, -654, -139, 1270, -423, 843, 1222, -1962}
, {719, -645, 1163, -1627, -1139, -1722, 539, -1965, 189, -1217, 171, -851, 621, -1196, 80, -235}
, {1980, 46, -1043, -2408, -1582, -2328, -412, -1687, -1071, -1675, -2100, 776, -1340, 1675, -1687, -2051}
}
, {{-1025, -7741, 2050, 2167, 93, -2867, -3939, 889, -549, -127, -4410, -5992, -402, 1252, -706, 1790}
, {-1623, -9671, 394, 1516, -1337, -5228, -1603, -1843, -787, -916, -5767, -7820, -3276, 1125, -1602, -115}
, {-151, -8706, -1047, 1849, 414, -4269, -3464, -999, -730, -1252, -6311, -6362, -1226, 1582, -1541, 1343}
}
, {{2153, -2619, 382, -875, 560, -930, -2610, -1000, 1400, 783, -2265, -1035, -1418, 622, 911, 1181}
, {1996, -2372, -1857, -12, 1732, -1958, -2571, 2128, 1697, -933, -1564, 83, -1785, -1933, -1176, -860}
, {780, 1794, -1767, -872, 1696, -816, -61, -1942, -521, -1398, 357, -1131, -1120, 1812, 1910, 871}
}
, {{-1417, 2444, -1478, 870, 642, -1337, 5103, 380, 354, -7994, 1653, 6676, -8826, 1950, -16, -184}
, {-61, 3279, 60, 1015, -1401, -704, 6502, -421, -980, -8062, 5057, 3871, -9079, 835, 552, 2392}
, {-1221, 298, 536, 2337, -1619, -2797, 3324, 901, 1041, -5161, 834, 4038, -5437, -1489, 1139, 2328}
}
, {{-427, -1238, -769, -1598, -1048, -906, -2090, -13, 82, -649, 389, 902, -1241, 1271, -256, -708}
, {1584, -254, 881, -1788, -418, 107, -1198, 1341, 888, -2637, 1205, -987, 253, -352, 1317, -2104}
, {470, -1458, -13, -31, -42, -2119, 1628, -2265, -2194, 990, -2372, -191, 744, -937, -1885, 606}
}
, {{1725, 410, -305, 1518, 2009, -2327, -42, 816, 358, 15, -584, -1285, 260, 331, -1968, -1258}
, {1374, 1356, -1804, -808, -583, -1781, 394, 172, 1049, -2053, 402, 1469, 807, 953, 229, -697}
, {1604, -2397, -317, -1719, -1538, -572, 559, -2262, -646, 1326, -2170, -936, -1037, 1512, 1607, 1474}
}
, {{-257, -2595, -2405, -1005, 500, 1350, -769, -1945, 632, -1056, 1111, -2172, 1313, -16, 2356, -1056}
, {1168, 642, 825, 1354, -911, 336, 167, 1111, -1214, -880, -2517, -1615, -2227, 1227, -190, -2315}
, {-249, -767, 531, -1292, 952, -19, -2090, 4, -421, 968, 1461, 326, -806, 1468, -60, -2311}
}
, {{1273, 1446, -233, -1431, -587, 931, 625, 925, 395, -863, -247, -1439, 922, -343, 623, -1358}
, {-1317, -2071, 862, -131, 1222, 1818, -76, 1487, -383, -58, -1159, -2007, -231, 1853, -583, -120}
, {2095, 1464, -1561, -1999, 1232, -1665, 2011, -1109, -1625, -667, 825, -1948, -138, -217, 2209, -1209}
}
, {{-577, 897, -1714, 254, -607, -1854, -1534, 2057, 1862, -2390, -1884, -1611, 1313, 1173, 139, -2374}
, {-1121, 332, 425, -2476, 2072, -814, -1795, -1363, -1861, -15, 981, 1067, -360, 443, -617, 271}
, {-1484, -664, 467, -2068, -1038, -2413, 1060, -1330, 1359, -887, 4, 516, -991, -1323, 1353, -609}
}
, {{-1516, 3737, 1610, 421, -100, 1379, 2738, -543, 2001, -5148, 2198, 3884, -4904, 904, -129, 72}
, {187, 4003, 115, 823, -535, 1594, 1817, -140, -936, -3587, 1845, 3194, -7817, 434, 787, -609}
, {1040, 3500, -671, 1816, 1533, -116, 2378, -1296, 2396, -3838, 3015, 2722, -5781, 1521, -986, -262}
}
, {{686, 4212, -1010, -4934, 509, 4786, 2458, -1743, -1649, -16386, 2316, 5848, -8272, 689, 846, -1926}
, {-461, 3560, -685, -4570, 1207, 3891, 3265, -407, -1538, -15746, 2561, 4049, -9360, -239, 2146, -891}
, {-1181, 2197, 486, -3290, -1309, 933, 5177, 1834, 742, -14856, 5894, 5008, -6075, -73, 159, -1845}
}
, {{407, -1116, -1894, -1873, -392, 292, 1433, -1142, -1601, 582, -429, -1254, -1979, 1488, 1906, 997}
, {407, -2059, -2066, -2153, 339, 703, -819, -851, -422, -912, -151, 313, 1064, -769, 700, 1245}
, {300, 1338, -997, -2102, -1285, -2173, 1405, -1574, -781, -1734, -890, -475, -1311, -902, -66, 229}
}
, {{-73, 674, 1270, -3235, -740, -2230, -2487, 2440, -1269, 1424, 1221, 901, -751, 1107, -1784, -1294}
, {37, -139, -1726, -3051, 647, -1805, 556, -1250, -1399, -897, -334, -758, 216, -187, 336, -183}
, {-1012, 182, -2011, -3361, 530, 1030, -1768, -474, 1925, -2259, 959, -239, -1361, -926, -1827, -1583}
}
}
;

#undef INPUT_CHANNELS
#undef CONV_FILTERS
#undef CONV_KERNEL_SIZE
#undef CONV_GROUPS