/**
  ******************************************************************************
  * @file    weights/conv1d.cc
  * @author  Pierre-Emmanuel Novac <penovac@unice.fr>, LEAT, CNRS, Université Côte d'Azur, France
  * @version 1.0.0
  * @date    24 march 2020
  * @brief   Template generating plain C code for the implementation of Convolutional Neural Networks on MCU
  */

#include <stdint.h>

#define INPUT_CHANNELS    16
#define CONV_FILTERS      32
#define CONV_KERNEL_SIZE  3
#define CONV_GROUPS       1


const int16_t  conv1d_107_bias[CONV_FILTERS] = {744, 0, -729, -312, -236, -605, -536, -3629, -508, 1339, -373, -1006, 2385, -287, 572, -360, -552, -492, -1355, -591, 2255, -266, -3034, -450, -439, -789, -4, -704, -377, 3, -105, -1809}
;

const int16_t  conv1d_107_kernel[CONV_FILTERS][CONV_KERNEL_SIZE][INPUT_CHANNELS / CONV_GROUPS] = {{{5047, -897, 2949, -820, 853, 2581, -485, 219, 1345, 254, 26, 171, 759, -1933, 1175, 502}
, {-8220, -3152, -27, 31, -3100, 3394, 1606, -259, 1051, -1566, -130, 2108, 2969, -2824, 456, 978}
, {-143, 2108, 1920, 337, 548, 1185, 161, 48, 1444, 982, -835, -1153, 683, -1708, 903, -1407}
}
, {{12966, 3056, 4474, -169, -1562, 175, 5856, -1005, -331, 265, 598, 1718, 4661, 1465, -1509, -1276}
, {818, -11490, 954, -696, 2902, -2778, 3564, -473, 1803, -549, -1116, -710, 1451, -3767, 1468, -1101}
, {4004, -32768, -10550, -109, -14408, -1053, -12014, 452, -71, 693, 1913, 1147, -8936, -13937, 396, 112}
}
, {{-2947, -2897, -1432, -1160, -627, -555, -1361, -1375, 1153, -257, -564, -724, 730, 475, 255, 892}
, {-1087, -2994, -982, -877, 772, 197, 652, 851, 87, 21, 814, 147, -1702, -604, 566, 1546}
, {-184, -1584, -1266, -329, -1519, 1536, -1729, 797, -518, -1626, 1112, -4, 788, 290, 1171, 798}
}
, {{-1558, 313, -1464, -274, -234, 134, -1250, 370, 822, 154, 745, -817, -1735, 659, -384, 507}
, {475, -349, -1806, 1172, -1836, -933, -145, -1520, 259, -1332, 638, 598, -171, 792, 782, 862}
, {-745, -259, -683, -1090, 654, -821, 857, -637, -1185, 871, 10, -1211, 195, -1585, -911, -979}
}
, {{811, -1280, -733, -326, 157, -287, -876, 1037, 703, 575, -1666, -1367, -2590, -772, 900, -486}
, {-1448, -1798, -2398, 0, 921, -1350, 646, 977, 123, -964, 1149, -357, -1507, 434, -1247, -556}
, {316, -614, -3345, 494, -1611, -278, -394, 148, 912, 229, 705, -2006, -802, -2222, -1322, -1161}
}
, {{-15650, 1936, 4883, -1372, 8589, 2543, 1007, 1540, -1208, 119, -838, -1521, 2996, -12707, -1000, -1166}
, {-7953, 5943, -6981, -849, 12829, 626, -8139, -1344, -1104, -1328, -355, 600, -15841, -10193, 163, -2320}
, {-8685, 5335, 2743, 979, 11233, 2221, -167, 553, -461, 1202, 850, -144, -3665, -2897, -1624, -614}
}
, {{55, -699, -1249, 1405, -1574, -5, 1048, 1184, -1751, -258, -526, 28, -1696, 1483, 218, -1056}
, {1207, -2122, 706, 1505, -24, 526, -1451, -1390, 1053, -894, -643, -876, -641, -694, -1668, 350}
, {525, -1679, -139, 1514, -905, -818, -1181, 442, -899, 1246, -482, -1402, -1621, 333, 777, 583}
}
, {{-17608, -9330, -767, -762, -7816, -341, 669, 924, 1890, 752, 1309, 1269, 1860, 645, 794, -1652}
, {-4873, -5267, 1615, -451, -1645, -2202, 1312, -293, 361, 789, 1258, -1608, -325, 3577, 17, 1114}
, {-19573, -13209, -138, -1103, -8177, -1378, 1531, -323, 1351, 1774, -1455, -1101, 2349, 223, 1238, -28}
}
, {{1465, -1188, 979, 1455, 938, 142, -1554, -4, -372, 842, 1251, 55, 388, -15, 893, -177}
, {-1223, -1536, -713, 1237, 372, -146, -1033, 157, -231, -1133, -1293, 276, -7, -736, 1452, 847}
, {173, -848, 390, 1182, 939, -281, -858, -840, -898, -1094, -843, -1502, -1551, 467, -753, -482}
}
, {{13336, 1823, 2407, -1688, -1390, 4002, 1376, -995, 1016, 581, 1961, -36, 643, -3850, 55, -44}
, {2898, -3725, 3414, -23, -2109, 3849, 2354, 1386, 1738, 583, 37, 578, 1697, -2463, -824, -484}
, {-3484, -1596, 2858, 416, -115, 3529, -4, -301, -634, 1011, 658, -727, 1615, -3054, 1323, -486}
}
, {{-1576, -1995, -246, 1608, -1063, -473, -1475, 1652, -287, -1389, 653, -1119, 913, 637, -1879, -1041}
, {-208, -275, -295, 1760, 255, 727, 159, 1057, -498, 338, -777, 857, -583, -119, 217, 538}
, {-801, -831, -2258, 1612, -1248, 1672, -2241, -158, -305, -1760, -801, -83, -746, -134, -465, -812}
}
, {{-2053, -2298, -3304, 290, -2600, 722, -2620, 1117, -191, 578, 145, -246, -998, -1466, -454, -1759}
, {-2560, -464, -2638, 1154, 986, -862, -1672, -64, 459, -751, 271, -573, -1654, -3731, 1026, 1029}
, {268, -2155, -1806, -1351, -2774, 1166, -1576, 1418, -742, 675, 887, 999, -3274, -1586, -292, -1040}
}
, {{3654, 6390, 1973, 593, 5556, -3850, 1709, 767, 268, -893, 423, -220, -406, 8375, 1263, -954}
, {396, 174, -830, 17, 4401, -727, 1046, -1610, -1671, 747, -1549, 1700, -572, -2899, -637, 302}
, {-4421, -2111, -2884, -1048, 3555, -1756, -1358, 599, -1175, -1447, 1059, -443, 219, -6829, -674, -2964}
}
, {{-2584, -705, -1097, -628, -1080, -133, -799, 21, -1813, 761, -837, -775, -1231, 735, -981, -1743}
, {-239, 149, -1193, -18, -1080, 911, -608, -363, -1554, -1874, 1120, -1501, -1432, 659, -2088, -693}
, {-197, -2270, -2055, 1443, -2442, 436, 170, -390, 888, 642, -1842, 507, 286, -1596, 275, 442}
}
, {{5836, 563, -47, -1430, -249, 1935, 1029, 1081, -167, -728, -307, -567, 2088, -1529, 889, 1126}
, {-2695, -1370, 2534, 1015, -696, 1608, 1683, 1388, 1710, -466, 688, 1936, 486, -2714, 205, -873}
, {-5670, -1192, 2315, 572, -1993, 1129, 1237, 1124, -1128, -983, 1359, 619, 3054, -3510, 419, -876}
}
, {{-5305, -1705, 1518, 299, -786, 516, 657, 1380, -1088, -217, 498, -307, 1967, -8209, 1052, -401}
, {-13446, -4936, 4310, -136, -5262, 660, 168, -442, 1308, 715, 1144, -936, 3070, -10871, 1873, 89}
, {-13033, -2571, 3728, -1674, -3817, 1419, 2256, -1273, 1630, -948, 380, 570, 1909, -4183, 1494, -23}
}
, {{-261, -770, 450, -1360, -685, -444, -862, -684, -464, 980, -124, -1511, -73, -2021, -1078, 143}
, {-1604, -18, 1417, 1508, 739, 576, -2037, -415, -1251, 1026, 1369, -1473, -1574, -1249, 1161, -959}
, {-1724, 2, 1257, -1444, -1560, 16, 175, 1266, 966, 507, 1387, -13, -703, -1944, -1122, -150}
}
, {{68, -1256, 710, 1066, -139, 1544, -1191, 661, -174, -348, -439, -915, -621, -1196, 40, -911}
, {664, -572, -1760, 1502, 1634, 617, 494, 128, 621, 1140, 1232, -1374, -75, -1287, -456, 1042}
, {-799, -569, -1779, 191, 106, -426, 1005, -884, -885, -287, 1469, 1075, 140, -398, -817, -485}
}
, {{989, -532, -3012, -1399, -250, 210, -2816, 1270, -1251, -744, -448, -1225, -3450, -301, -932, -3}
, {49, -2007, -604, -1478, -3174, -259, 236, -1320, 1051, -1069, 81, -194, -268, -1813, 4, 1534}
, {-816, -2985, -2272, -814, -246, -759, -1360, 391, -1053, 678, -738, -539, -2269, -2832, 987, -842}
}
, {{-1565, -312, -979, -1130, -586, 1007, -347, -993, 1672, 1623, -813, 1717, 602, 392, 334, 835}
, {520, -1961, 529, -822, -2484, 1660, -1583, -892, 7, 1981, -351, 2054, -887, -923, 19, 878}
, {-646, -1114, -1896, 116, -1981, -499, 274, -939, 357, 229, -1671, 560, -1326, 1063, 1350, -1274}
}
, {{-1388, 6147, -2273, 298, 8465, -529, 745, -1506, 1088, -73, 2505, -643, 1415, 9450, -1559, -785}
, {-179, -1636, -2639, 1923, 3411, -392, -1165, -644, -451, -1356, -146, 582, -2861, -1668, -1117, -1074}
, {-12200, -3403, -3284, 507, 2922, -2172, 1623, -731, -644, -373, -797, 257, -1853, -5714, -189, -490}
}
, {{100, -673, -506, -285, 545, -1534, 109, -265, 1079, 51, -1017, -673, -1835, -562, -1366, -304}
, {-968, -1835, -311, 120, 779, -1535, -938, 787, 150, -51, 1041, -5, -544, -1576, 736, -1080}
, {-931, 532, 49, 11, -879, 429, -1086, 735, -285, 353, -788, -541, 181, -1056, 309, -521}
}
, {{-1186, -3626, -2346, 327, -1903, -1205, -488, -1496, -506, 1371, -1451, 1181, -2080, 251, -1573, 695}
, {1653, -1723, -2214, -1316, -3448, -4047, -2383, 84, -1395, 606, -712, 1013, -2945, -389, 44, 61}
, {861, -672, -4237, -1132, -661, -1498, -4401, 1168, -564, -1058, -437, -1299, -2352, -1897, -1559, 401}
}
, {{805, -3914, -1521, 939, -1947, -801, -494, 282, -795, -2081, 706, 392, -2425, 347, 337, -529}
, {-2913, -2950, -1961, -34, -1604, 217, -664, -1438, -918, 232, -1615, 527, 336, 637, -226, 609}
, {-717, -2037, -1577, 1190, 524, -874, -2357, 204, 908, -487, 1277, -1803, -1534, -1962, 315, 1762}
}
, {{-516, -708, -1313, 1388, 223, 524, 194, 1230, -1147, 211, -539, 1214, -1100, -758, -132, -579}
, {1186, -489, -168, -1445, 1164, -56, -1028, 737, -1520, -679, -614, 1193, 622, -232, -572, -765}
, {-1538, -2119, -1924, -532, -1071, -512, -1383, -946, 1394, 1107, -968, -754, -2220, -1811, -1105, 696}
}
, {{-1811, -2664, -2962, -1560, -709, 285, -1228, -656, -759, -98, -815, 1228, -3489, -5, -946, -258}
, {-730, -2289, 619, 704, -1399, -1611, -1038, -307, 627, -1448, -678, -1355, -489, -2249, -936, 622}
, {413, -1530, -584, -437, -317, -578, -674, -199, -562, -77, -454, 214, -1177, -270, -963, -1651}
}
, {{165, -1626, -1547, -1324, -534, 371, -2149, -825, 519, 1213, -1699, 1169, -3060, 954, -949, -1616}
, {512, -491, -890, 1289, -800, -662, 413, 854, -1148, -666, -118, -865, 1149, -1158, 614, -818}
, {-79, -480, -613, 19, -779, -89, 225, -902, -1830, 1138, -748, -685, -1775, 557, -305, -1367}
}
, {{-981, -1446, -841, -1133, 413, 475, -334, -1580, 58, -681, 304, 108, 440, 376, 1395, 1336}
, {-1348, -2990, -18, -1421, -857, 541, -669, 1445, -928, 1583, 128, -484, -1796, -841, -546, -1659}
, {-1103, -3649, -1399, 42, 137, 422, -136, -1485, -905, -1010, -521, -1490, -633, -781, 1212, 1322}
}
, {{428, -1626, -1140, -1164, -1754, -1006, -2004, -1253, 747, -159, 901, -1280, -566, -1443, 1791, -338}
, {-631, 159, 487, 1562, 443, -190, -1522, -321, 312, -1081, -815, 1492, -2291, 280, -272, 213}
, {-258, -570, -1350, -776, -141, -1367, -985, -1557, 345, 1508, 750, -782, 280, -1630, 1983, -1115}
}
, {{-385, -638, -1563, -1064, 82, 1044, 1224, -215, -1158, 878, -1134, 234, -1329, -471, 1111, -985}
, {959, -1182, -2274, 1244, -1682, -415, 1146, -1626, 797, 639, 655, 933, -1936, -118, -1010, 1144}
, {-326, -1718, -434, -1300, 905, 351, 785, -70, 467, -892, 89, 1024, -1866, 289, 468, -365}
}
, {{3278, 886, 3355, -1292, -1431, 1418, 35, -49, 1607, 18, 415, -1195, 3473, -1657, 1022, 209}
, {-3553, -1736, 3533, 111, -1724, 2749, 523, 1444, 1071, 1513, -250, -1526, 2714, -2204, -631, 1318}
, {-4657, -343, 2735, -1063, 476, 2417, 782, 1090, -506, 1359, -1357, 65, 2576, -1720, -741, 627}
}
, {{-277, -2038, -1257, -1416, -1402, 982, -2095, 887, 1022, 913, 839, -155, 218, -671, 1138, 16}
, {-874, -1390, -1865, 1166, 633, -1168, -1189, -1204, -755, -1178, -157, -3, -767, -775, -1509, -517}
, {-335, -335, -65, 603, -691, -238, 913, -99, 563, -481, -1859, -1008, -2638, 1276, 565, 123}
}
}
;

#undef INPUT_CHANNELS
#undef CONV_FILTERS
#undef CONV_KERNEL_SIZE
#undef CONV_GROUPS