/**
  ******************************************************************************
  * @file    weights/conv1d.cc
  * @author  Pierre-Emmanuel Novac <penovac@unice.fr>, LEAT, CNRS, Université Côte d'Azur, France
  * @version 1.0.0
  * @date    24 march 2020
  * @brief   Template generating plain C code for the implementation of Convolutional Neural Networks on MCU
  */

#include <stdint.h>

#define INPUT_CHANNELS    32
#define CONV_FILTERS      32
#define CONV_KERNEL_SIZE  2
#define CONV_GROUPS       1


const int16_t  conv1d_111_bias[CONV_FILTERS] = {161, -416, -1572, -969, -668, -414, -1648, -573, 2259, -456, -1612, -2082, -695, 2445, 1927, -2023, -1053, 945, -469, -192, 306, -244, -244, -342, 122, -716, -510, -361, -2027, -537, -693, -1724}
;

const int16_t  conv1d_111_kernel[CONV_FILTERS][CONV_KERNEL_SIZE][INPUT_CHANNELS / CONV_GROUPS] = {{{215, 12460, -14, -5082, 456, 1203, 373, 1319, -1258, -1423, -676, -491, 682, 1614, -3325, 1422, 9742, -3226, -424, 2848, -12700, -1667, 2319, 336, -430, 113, 40, -1197, -235, 2805, 5110, -2935}
, {-1661, 6644, -1694, 1252, 258, -1038, -667, 1643, 3469, 694, -2545, -1203, 114, 91, -2060, -102, 5089, -11780, 432, 1341, -2116, 3380, 2891, 673, -1534, -84, 1633, 2480, 1691, 3024, 3247, 5042}
}
, {{1222, -1703, 253, -584, 1101, 1501, -237, -1500, -1720, -699, -2622, -368, 583, -442, -1727, -867, -2253, -341, -580, -564, 948, -1152, -685, -40, -1033, -438, -1223, -164, -1390, 200, -577, -586}
, {-1746, 1191, -1737, -652, 914, 1712, 238, -93, 460, 1207, 723, -2096, 365, -2054, -1989, -1762, -712, 120, 834, -1721, -514, 384, -114, 623, -244, -371, -543, 1165, -900, 97, -2285, 208}
}
, {{484, -2983, -1226, -1639, -596, -1843, -2107, 821, 984, -300, -2781, -548, -1083, -2020, -1969, 225, -2529, -4768, 756, -443, 299, -2856, -1185, -1662, -3096, 596, -1202, -2208, -62, -20, -266, -1351}
, {-355, -2918, -1595, -13, 916, 427, -1572, -875, 852, -1225, -1958, 1078, -1752, -1014, -3718, -740, -561, -2207, 1390, -1094, -2898, -394, 776, 408, -2611, -2216, -1695, -1528, 98, -1135, -1876, -2952}
}
, {{-346, -435, -384, 5099, 150, -554, -149, 26, -2589, -1141, -6473, 141, 1110, -287, 63, -1121, 1898, 4454, 1102, -891, -1135, 18970, -1429, -1232, -4068, 700, -2715, 598, 1041, 4197, 2759, 1518}
, {769, -1449, -336, 2862, 297, 1168, -1666, -700, -1216, -1179, -2773, -584, 170, -325, -4956, -1700, -3769, 1070, -502, 1901, 2030, -13216, 1299, 1465, -1942, -388, 1149, -365, -873, -5112, -6258, 3778}
}
, {{-1928, -2506, -3250, -2724, -864, 417, 773, -955, -1211, 1793, -3158, -818, -712, 392, 800, 567, -2984, -2048, -1032, -3137, -1598, -3904, 1681, 503, -2023, 1335, -1372, 1130, -2546, -2142, -3627, 607}
, {677, -1271, -2465, -2202, 219, -1093, -457, 1442, 1601, 179, 149, 939, -290, -1706, 3064, -770, -1820, -1707, -26, -1212, -1590, -893, -84, 631, -1949, -1301, -1674, -1386, -1238, -2530, -3438, -1856}
}
, {{-614, -1952, -1720, 2019, 585, -1549, -1966, 870, 1343, -1345, -313, 282, 1075, -568, 517, 696, -598, -1390, -1563, -1553, -35, -1934, 301, -292, -1322, -1092, -714, -881, 1428, -1070, -366, 756}
, {-234, 909, 623, -1054, 808, -295, 619, 341, -379, 847, -1219, -385, 563, -191, 651, 1099, 552, -607, -1426, -2417, -1858, 694, -1372, -9, -669, 1311, -1658, -105, -9, 315, 805, -8}
}
, {{1359, -9640, -344, -7227, 315, -1053, 1490, -336, 305, -740, -6088, -130, 497, 1429, 1666, 1280, -8720, 5983, -350, -1828, 5623, -11243, 492, 2829, -3242, 1588, 1281, 1566, -216, 10566, 8238, 1392}
, {-1647, -1093, 2104, 4487, 486, -195, -665, -957, -249, 2621, 2785, 715, -895, -1083, -9233, 922, 1357, -4847, -391, -4870, 2062, -9767, -365, -60, 1237, -2087, 1074, -2252, 4035, 3575, 2002, 11}
}
, {{-32, -351, 304, -772, -674, -1574, -124, -312, 1394, 109, 591, -1047, 91, 813, -1374, -1426, -1547, -295, -1376, -1394, 43, -374, -846, -1480, -1424, 531, -82, 280, 482, 1139, -1433, 723}
, {-952, -1945, -2162, 113, 1118, 1234, 495, -289, -645, -1548, -1578, 227, 963, -262, 1003, -1492, 1028, -1260, 462, -406, -475, 909, 417, -1643, -681, -647, -2491, 331, -2311, -936, -1318, 412}
}
, {{1388, -4438, 1388, -10672, -128, 710, 323, -795, -1493, 716, 150, 768, 1600, 695, -3325, 841, 4318, 3996, 915, -359, -635, -897, -713, 1059, -240, 1023, 3228, -192, 3649, -3999, -2509, -7567}
, {-38, 2974, 926, -5623, -1335, 903, -109, 1499, 1059, -1070, -6698, 977, -97, -1303, -7861, -106, 3159, 349, -1999, -3004, -3578, 2859, -1245, -1403, 1107, -965, 2673, 739, 1321, -3827, -2962, -10704}
}
, {{-416, -4042, 3207, -2122, 911, -864, 733, -1562, 172, 798, -2258, 121, 571, -101, 109, 777, -2164, 1143, -1320, 1869, 493, -87, -642, -1338, 2159, -98, 2317, -902, 1360, 1189, -772, -1871}
, {-1248, -7495, 2978, -1635, 737, 1805, -1108, -672, 558, -423, -591, -812, -108, -874, -3003, 611, -3069, -4299, -1867, 872, 1004, -3388, 1316, 1785, 2177, 412, 2622, 1274, 697, -3863, -11406, -192}
}
, {{1410, 5350, 3728, 4573, 642, 342, -1031, 933, 1231, 1073, 2838, 1272, -1439, 323, -210, -1121, -5006, -4614, 520, 1668, -4348, -5420, 3148, 1029, 1583, 173, 3380, 848, 2708, 9540, 918, -7556}
, {-1310, -3220, -1923, 3006, 141, -74, -1258, -265, -2410, -512, -3800, -31, -875, 914, -2741, -722, -11552, -746, 981, 189, 2380, -24957, 689, 848, -1079, 1140, -1429, 1714, 217, -11538, -21542, -6257}
}
, {{-296, -1278, -804, -415, -1180, 1788, -687, -1690, -64, 586, 881, -1684, -66, -491, -1090, 1631, -2572, -1226, -1215, -142, -1021, -25, -1511, -1394, -2967, -278, -1346, 299, -1531, -1929, -287, -2070}
, {624, -1599, -457, -2285, 964, -927, -613, -219, 78, -723, -2188, -1164, 1150, -554, -1400, 1833, -2806, -537, 1154, -2710, -1140, -1835, 18, 1009, -1808, 567, -1966, -269, -864, -1514, -1301, -1341}
}
, {{-84, -919, -1575, -49, -1334, -1139, 74, 956, 637, -144, 423, -1336, -760, -1292, 78, 1531, -875, 664, 405, -1144, 1047, -2422, -1325, 502, -399, 1782, -1220, -2026, 1096, -1324, 767, -1230}
, {-1696, -1274, 40, -1475, -213, 752, 388, 1006, 1325, -673, 773, 1487, -2053, -1498, 332, -1548, -1773, 244, 3542, -1201, -1279, 542, 772, -1209, 603, -627, -481, -1133, -878, 1460, -1629, -2963}
}
, {{-1884, -9937, -610, -856, -132, -1846, 281, -356, -494, -390, -6270, -1927, 48, 902, 1320, -1156, -2943, 2254, -407, -1665, 3290, -2995, -1205, -984, -2859, 2067, -2419, -616, 2402, -1577, -5910, -5142}
, {220, 5472, -11405, 997, 699, 39, -811, -1255, -107, -1151, -17245, 1284, -1285, -232, -63, 139, -9494, 1423, 40, 4234, 841, -12017, 1459, 412, 2128, 306, -11631, -100, -16891, 7008, 1184, 4811}
}
, {{1551, -9311, -351, -2409, 1177, 1168, 61, 1370, 1223, -821, -859, -1157, 863, -1724, 1754, -768, -1288, 7326, 1319, -2844, 2931, 1089, -325, 395, 696, -182, 1761, 2472, 2694, -5130, -861, -7290}
, {-317, -7017, -195, -2610, 806, -188, 1889, -65, -1120, 2066, -5496, 239, 999, 878, -5874, 1028, 615, -2318, -167, -6425, -3200, 2691, -682, 186, -1231, 2557, 1253, -909, 2047, -6126, 1328, -8038}
}
, {{-1966, -1090, -186, 697, -1077, -1263, 238, 840, 26, -764, -570, -2088, 156, -1562, -1313, 1459, -1019, -3745, -965, -4605, 2281, -2288, -1664, -501, -2208, -783, -1057, -789, -591, 1499, 1726, -2071}
, {894, -521, -1238, -2015, 15, 921, -1068, 968, 1868, 928, -186, -13, -1225, 138, -3212, -1402, -417, -1391, -164, -699, -3843, -812, 2125, 957, -801, 152, -1650, 651, -1068, 80, 2109, -3687}
}
, {{-1410, -150, -1328, -233, -715, 5, -478, -1062, -305, -1386, 302, 1114, -932, 820, -199, 346, -2707, -1504, -230, -862, -471, -2419, 416, 973, -2568, 1133, -1278, -411, -593, -1266, 1197, -2093}
, {-755, -3021, -1626, -1798, 23, 118, -1251, -1378, -584, 535, 1377, 1354, 65, -50, 693, 794, 110, -1822, 43, -190, 467, 25, 801, 1207, 729, 1201, -273, -570, -495, 19, 1429, -1923}
}
, {{176, -136, 1850, -4217, -469, 1454, 742, 1467, -1954, 502, -2831, 861, -151, 31, -2760, -12, 2238, 1788, -880, 2047, -1449, -5173, -650, -1426, 730, -2632, 233, 1688, 1484, -3093, -11215, 3466}
, {-977, -334, 2534, -3213, -916, -94, 560, 1063, 365, -690, -1124, -609, 709, 1040, -3212, 869, 2772, 1024, 1675, 727, -436, -3150, -1417, 1676, 2659, -217, 1829, 617, 2256, 2622, -5566, 2894}
}
, {{-2103, -1646, 885, 469, -1552, 458, -420, -714, 2249, 979, -1445, -1386, -189, -1634, -746, 297, -787, 795, 144, -1138, -448, -1863, -408, -692, -2207, 1157, -878, 1106, 1046, -1016, 404, 309}
, {914, -1899, -611, 534, -656, -58, -687, -510, -1084, -163, -103, -657, 543, -1376, -7, -1561, -825, 920, 899, -147, 198, -379, -1698, 663, -1842, -1047, 89, 77, -1402, -357, -739, -2036}
}
, {{-2318, 1017, -536, 689, -1003, -184, -713, 1717, -1375, -806, -1804, -981, -838, -1222, 293, 1202, -879, -977, 1538, -1130, -785, -1850, -470, -1073, -850, -1130, -2010, -8, -1507, 821, -241, -1828}
, {1143, -252, -818, 1260, 662, -570, -14, 1659, 1195, 170, -1419, 748, 1416, -1950, -113, 221, -413, 1039, -209, 101, 218, -560, -215, -414, -2508, 686, -275, -2291, 257, -2049, -394, -1699}
}
, {{-902, -3513, 2223, -3352, 1391, 815, -541, 1273, 174, 280, -2127, 1347, -59, 1363, -1364, -1043, -1271, 3027, 1377, -1141, 2931, 3984, -19, -276, -754, 1240, 2248, 35, 2084, 7414, 1398, -1008}
, {658, -3247, 1177, -1039, 137, -411, -383, -796, -1057, 70, -1020, 2099, 1296, -1016, 2163, -82, -2104, 4195, 8, -1217, -4586, -1693, 1163, 1509, 982, 1656, 825, 430, 2711, -4137, -5853, 1324}
}
, {{-1139, -1059, -1587, 670, -803, -140, -136, -227, 1339, 1630, -737, -1904, 1499, 1105, -2024, -1039, -1659, 948, 1142, -2002, 342, -343, -566, 1216, -2235, 1, 875, -669, 1356, 610, -883, -1330}
, {-1277, -817, 82, -794, -1088, 370, 1106, -101, 379, 485, -2291, 856, -1131, 219, 170, 42, -265, -1089, -535, -1431, 378, -913, 551, 814, -2010, 404, -994, 1307, 674, 699, -755, 1009}
}
, {{-918, 157, -513, 568, -1321, 1075, 1055, -98, -717, -1559, -1168, 465, -915, 875, -695, 408, -2347, 473, -596, -159, -962, 511, -559, 253, -388, -960, 69, 808, 167, 806, -1806, -61}
, {-920, 690, -589, 292, -1286, -399, -1453, 100, 686, 84, -942, -1259, 94, 826, 241, -1833, -2363, -469, -1261, -1753, -154, -2296, -1410, 896, -1776, 1980, 684, 1035, -1994, -2034, 365, -1160}
}
, {{-603, -586, -689, -109, -673, -607, -1972, -281, 1154, -121, -200, 586, 899, -1471, -194, -431, -3333, -1494, 44, -3318, 1047, -1804, -841, 498, -717, 857, -2875, -1918, -1246, 494, -1562, -1676}
, {365, -2634, -2120, -1739, 1082, -758, -469, -1, 320, 1079, 645, 890, -100, 166, -2022, 1061, -3389, 80, 944, -1785, 208, -2515, 1872, 1767, -1394, 256, -377, -1062, -426, -265, -681, -222}
}
, {{204, -1474, 627, -2474, -648, -1159, -2148, 1262, 954, -2643, -2452, 662, -612, 1050, -5794, -57, -1667, 625, -542, -2426, -3516, -7396, -839, -1407, -2416, 2074, -156, 626, 914, 12276, 1756, -5086}
, {436, 4506, 573, 3746, -1069, -797, -582, -1388, 171, 104, 2626, 1250, 562, -1474, 285, 1137, 3728, -3203, 1193, 1219, -2412, -4833, 101, 1097, 1919, 443, 3875, -778, 4311, 4834, -896, 2018}
}
, {{-933, 12285, -2691, -4, -1220, 1627, 808, 1379, -1534, 1188, -1600, -822, -1260, 266, -6654, -659, 10112, -3909, 1519, 2697, -5896, 411, -84, -157, -1964, -895, -1013, -2648, -3116, 2649, 3589, -3587}
, {-507, 7008, -1282, 5313, 1432, 858, 981, -1038, 981, 1446, -684, -1359, 1044, -90, -5250, 361, 8518, -8974, -1094, 997, -1707, 5753, 1958, -552, 1152, 865, 1444, -343, 2201, 1379, 1956, 3960}
}
, {{812, -3196, -264, -1567, -540, -1611, -74, 1213, -1480, -912, -641, 22, 1586, -1691, -1570, 1350, -1280, -1076, 1538, -794, -1248, -2475, -742, 1360, -1032, 1191, -633, -907, -5144, 432, -1599, -2972}
, {-2327, 432, -1507, -878, -175, -1334, 666, -567, 591, -412, -2998, 664, -716, 613, -1757, -882, 279, 404, 919, -862, -995, -179, -137, -1775, -2354, 1819, -505, -941, -2448, 829, -1873, -3224}
}
, {{862, 845, -2553, -896, -1723, 346, 828, 1462, 329, 1104, -1386, 1221, -125, -1379, 1162, -1847, 503, -126, -1137, -411, -1603, -1636, -1088, -904, -1194, -138, -2245, -650, -345, -464, -1551, 614}
, {-1106, 902, -1370, 1334, -1300, 425, 859, 1030, -917, -2023, -1126, -1146, 1090, 933, -1104, -834, 585, -535, -1165, 117, -21, -2477, -461, -1273, 61, -920, -1412, -642, -459, 392, 144, -1976}
}
, {{-1492, -6843, -5239, 1978, -1419, 100, -1962, 1678, 356, -1501, -8276, -1272, -1357, -792, -595, 1211, -7796, -419, 1589, 4583, 9634, -8139, 407, 1330, -3729, 284, -5293, -1593, -4458, 435, 1223, 3403}
, {-330, -3269, -6119, -4447, 598, -654, -1065, -1107, 2825, 124, -6273, 634, -819, -2072, 499, -1295, -4124, 7842, -567, -3468, -5629, -1801, -1361, -1030, -5252, -1513, 1203, 653, -1100, 6962, 4924, -3244}
}
, {{-1929, -2139, 455, 777, -479, -1663, 674, -797, -815, -755, 603, 1272, 1474, -382, -128, 1133, 1010, 423, 174, -458, -824, -2372, -227, 526, -672, 704, -1259, -827, -1663, -2315, 792, -1447}
, {-1113, -479, -200, -1788, -479, 1045, 1425, 248, -219, -1269, -855, 151, 1599, 1119, 597, 1051, 451, -233, -80, -1940, -1619, 26, 976, 1323, -2625, -1364, -768, -1373, -2156, -482, -229, -2435}
}
, {{225, -2707, -2773, 1984, 209, -1747, -1711, 253, -491, 255, -1789, -2191, -1551, 318, 584, 435, -1389, 660, -1690, -2500, 50, -190, -728, 1026, -938, 2046, 392, -12, -598, 1752, 433, -1605}
, {-1397, -327, -1471, -1160, -1881, 534, -169, 809, -93, 300, -804, -359, 497, -2294, -298, -1466, 922, -673, 1539, -828, -340, 867, 1014, -203, -391, -1311, -47, 323, 1132, -1260, -3781, -1701}
}
, {{-741, -1491, -2460, 5731, -1619, -97, 339, -1328, -2982, 685, -575, 38, -946, -658, -8020, -529, 2399, -908, -225, -1525, 1989, 18117, 581, 896, -4041, -610, -1695, 181, -1182, 4886, 6017, 779}
, {972, 185, 58, 2576, -3375, 653, 796, 435, 11, -728, 3924, 713, 3352, -84, 2213, 88, -5883, 1750, 479, 632, -309, -6665, 978, 249, 555, 1451, 1187, -2215, -1573, -9632, -7565, 3585}
}
}
;

#undef INPUT_CHANNELS
#undef CONV_FILTERS
#undef CONV_KERNEL_SIZE
#undef CONV_GROUPS