/**
  ******************************************************************************
  * @file    weights/conv1d.cc
  * @author  Pierre-Emmanuel Novac <penovac@unice.fr>, LEAT, CNRS, Université Côte d'Azur, France
  * @version 1.0.0
  * @date    24 march 2020
  * @brief   Template generating plain C code for the implementation of Convolutional Neural Networks on MCU
  */

#include <stdint.h>

#define INPUT_CHANNELS    16
#define CONV_FILTERS      32
#define CONV_KERNEL_SIZE  2
#define CONV_GROUPS       1


const int16_t  conv1d_26_bias[CONV_FILTERS] = {-114, -275, 1106, -3, -248, -408, 306, -246, -90, -248, -253, 192, -301, -539, -429, -391, -662, 278, -345, -253, 406, -550, -107, -149, -280, -251, -186, -291, -195, -549, -91, 798}
;

const int16_t  conv1d_26_kernel[CONV_FILTERS][CONV_KERNEL_SIZE][INPUT_CHANNELS / CONV_GROUPS] = {{{-3535, 2851, -686, 1179, 1337, 2625, 3284, -3334, -498, 562, 2642, -922, 3132, -2693, 1400, -521}
, {-3047, 1034, 1787, -1674, -916, 141, -543, -2917, 2273, 1109, -720, -378, -587, 2971, -782, 734}
}
, {{-494, -1158, 755, -362, 1028, 123, -753, 255, 232, 408, -706, -477, -168, -722, -223, 59}
, {591, -13, -352, 239, -850, -1087, -805, 485, -1302, -283, -386, 332, 645, -818, 111, 424}
}
, {{-109, -1868, -5376, 1710, -939, -128, -2382, -3919, 2868, -8156, 2333, 193, -175, 1833, -6507, -790}
, {379, -2457, -5180, 2566, -525, -455, -1688, -2289, 2336, -7676, 1782, -2045, -1495, 1135, -5272, -182}
}
, {{-4511, 648, 202, 1736, -14, 812, 2366, -4210, 440, 697, 2239, -2015, 2755, -2450, 1362, 1088}
, {-5564, 1981, 2604, -586, -682, 1005, 1931, -4157, 1085, -113, 391, -1903, 302, -2812, -280, 3176}
}
, {{-213, -355, -167, -558, 497, -14, -1002, -884, -893, -535, -317, 815, 585, 417, -71, -299}
, {733, -828, 125, -285, -546, -1049, 99, -303, -240, 213, 653, -701, 122, -696, 667, -569}
}
, {{-3843, -232, 573, 550, -415, -302, 263, -5042, 290, 337, 71, 1282, -292, -971, 385, 270}
, {-2376, 2244, 3381, 39, 776, 2492, 4686, -3818, 1852, 2397, 3565, -378, 4091, -778, 2034, 4239}
}
, {{-3267, 1373, 679, 2066, -314, 417, 1978, -4411, 967, 1031, 1856, -944, 2153, -2888, 1681, 261}
, {-4610, 2120, 2071, -1139, -304, 958, 734, -3481, -541, 2148, 567, -690, 474, -4200, 713, 3004}
}
, {{-52, -1008, 510, -470, 43, 218, 223, -680, 691, 427, -277, -292, 342, -443, -516, -429}
, {-616, 542, -347, -991, -451, 341, 669, 474, 152, 109, -996, -216, -745, -892, -32, -209}
}
, {{-2678, 1999, -1436, -264, 341, 1180, 2525, -7248, 1173, -1565, 2160, 979, 1653, -1137, -1029, 485}
, {-5316, 2829, 1993, 510, 1219, 3615, 4710, -6175, 706, 826, 5951, -702, 2364, 36, -786, 2155}
}
, {{296, -739, -512, 346, 911, 336, -794, -753, -944, -195, 143, -335, -379, -271, 106, -33}
, {785, -1304, -512, -692, -344, 273, -1038, 810, -215, 547, -239, 424, -499, -1115, -249, 362}
}
, {{-1262, -216, -849, 160, 154, -818, -1201, -181, 199, 544, -100, 348, 577, -1185, -912, -1130}
, {-207, -966, -528, -785, 463, 69, -176, -198, 193, 465, 305, 204, -493, -1464, -514, 653}
}
, {{1656, 522, -1626, 2307, 131, 1948, 1215, 3032, 2064, -156, 1736, 192, -1837, 1975, 981, -1593}
, {-5163, 855, -900, -543, -629, -1368, -75, -6271, -2995, 1442, -2040, 969, -1391, -3863, 1988, -2016}
}
, {{-225, -892, 1280, 443, 1376, -177, 1325, 67, 449, 152, 778, -706, 982, -1394, 441, 2723}
, {-1152, 3264, 1896, 344, -146, 2831, 3166, 293, -643, 2315, 3447, -71, 3482, -2459, 962, 2188}
}
, {{-1729, -483, 364, -164, 899, -399, -1355, -323, -370, -331, -1552, 557, -1598, 174, -768, -885}
, {-1051, -667, -1261, 356, -361, -845, -1776, 104, -1456, -441, -297, 814, -599, -237, 239, -115}
}
, {{-1353, 1193, 1691, 2036, 217, 2412, 2914, -1206, -416, 1220, 2458, -362, 3727, -2432, 1765, 1578}
, {-2316, 2341, 1982, 292, 100, 766, 974, -719, 248, 1270, 1658, -411, 897, -2241, 809, 3497}
}
, {{-2967, 2533, 1004, 1696, 1232, 1777, 3599, -4690, -13, 1142, 1693, -235, 2019, -2769, 1194, 234}
, {-4002, 1755, 3084, -998, -1274, -626, 2278, -3140, 499, 2224, 387, -247, 1148, -1031, 1338, 3907}
}
, {{-383, 1474, -134, 403, -136, 2458, 701, -4462, 1200, 1939, 1349, 1337, 1037, 1481, 287, 830}
, {1133, 2469, 1746, 1658, 461, 1857, 2307, -2282, 3817, 171, 2141, -848, 878, 3569, -1181, 2135}
}
, {{1009, -1546, -2430, 3096, -1133, -1206, -1410, -1400, 3258, -4912, 2483, -403, -1894, 2796, -5403, -339}
, {1074, -848, -1320, 2383, 322, -1084, -1439, -2118, 2992, -4030, 3371, -1262, -1578, 2605, -7026, 2007}
}
, {{-223, 1409, -1695, 828, -650, 1819, 2078, -4691, 335, 52, 1062, -667, 1520, -1297, 450, 426}
, {-1694, 2182, 3248, 1108, 496, 1434, 1229, -3661, 74, 982, 3163, 207, 2050, 192, 1163, 5224}
}
, {{491, -985, 178, -908, -403, -462, 350, -1218, -754, 510, -526, 508, 365, -763, 134, -40}
, {-205, -992, 534, -1047, -770, 568, -1029, -1120, -763, 355, -1230, -227, 458, -723, 399, -4}
}
, {{252, -1237, -729, 476, 1068, 1409, 128, -2870, 3215, -1531, 1996, 664, -1602, 1296, -1482, -638}
, {2214, -290, -2444, 432, -733, -119, -1174, 844, 2100, 72, 244, -461, -1173, 1417, -1971, -1605}
}
, {{-133, 406, -396, -933, 208, 1023, 1039, -920, 370, -1824, -1616, 81, 687, 982, 3539, -2319}
, {1384, -973, 277, -219, -95, -936, -1784, -652, 2355, 312, -2517, 350, 99, 3736, 5045, -1370}
}
, {{-2947, 1743, 2026, 2087, -494, 1585, 3263, -3938, 457, 1465, 3113, -1064, 2465, -1308, -704, 2920}
, {-2342, -230, -273, -617, 363, -60, 1022, -2121, 1768, -368, 107, 2032, 335, 221, -10, -635}
}
, {{38, 135, -9, -632, -899, 137, -634, -350, 119, -138, -1134, 436, 79, -415, 252, 404}
, {-1061, 265, -19, -500, 589, -540, 291, 331, 245, 450, -348, -1005, -189, -285, 427, -512}
}
, {{371, -295, -135, 439, 3, 341, -1062, -459, -145, 231, -901, 254, 667, -194, 405, -13}
, {-1557, 34, 539, -391, -693, -1085, -14, -885, 66, -411, -850, -1143, -269, -494, 161, 708}
}
, {{271, 312, -184, -517, 24, 157, -79, -276, 94, -879, -1038, 356, -145, -690, -668, 536}
, {-296, -338, -338, 898, 539, 418, -206, -17, -491, 131, -806, -397, -954, -947, 72, 139}
}
, {{185, -161, -501, 146, 784, -1265, 586, 716, -1363, -1, -1233, -23, 124, -540, -319, -531}
, {-1218, -5, 406, 115, 584, -65, 393, -151, -400, -89, 394, -195, -812, -784, 91, -41}
}
, {{25, -777, 727, 1687, -165, -891, 49, -1652, 142, -245, -1227, 1572, 379, -231, 782, 333}
, {-1824, 2909, 3080, 690, 798, 1672, 2863, 338, -1414, 1436, 2139, -879, 2771, -1461, 1229, 3323}
}
, {{-673, -43, -879, -126, -372, -662, 445, 717, -375, -1093, -218, -988, -1202, 169, -956, -207}
, {-935, 52, 420, 196, 777, -982, 276, 71, -276, -422, -648, 738, -150, -1231, -961, 515}
}
, {{-1732, -1409, 99, -1469, -858, 3, -911, -786, -72, 428, -1327, 159, -804, 430, -1383, 320}
, {-2013, -1759, 622, -413, -26, -566, 7, -957, -493, 346, -203, -943, -1325, -639, 981, -693}
}
, {{-343, 382, -1045, -922, 665, -340, -940, 204, -304, -1003, -632, -610, -905, 187, 203, -468}
, {-501, -595, -962, 858, 282, -518, 859, 575, -62, 262, -1068, 714, -78, -972, -506, 177}
}
, {{-964, -1393, -4531, 2632, 950, 820, -410, -3882, 2510, -3627, 3214, -1183, -669, 1153, -5155, 89}
, {409, -1650, -2154, 2388, 316, -1570, -551, -1684, 1856, -3825, 2243, -1393, -2166, 1560, -3928, 588}
}
}
;

#undef INPUT_CHANNELS
#undef CONV_FILTERS
#undef CONV_KERNEL_SIZE
#undef CONV_GROUPS