/**
  ******************************************************************************
  * @file    weights/conv1d.cc
  * @author  Pierre-Emmanuel Novac <penovac@unice.fr>, LEAT, CNRS, Université Côte d'Azur, France
  * @version 1.0.0
  * @date    24 march 2020
  * @brief   Template generating plain C code for the implementation of Convolutional Neural Networks on MCU
  */

#include <stdint.h>

#define INPUT_CHANNELS    32
#define CONV_FILTERS      32
#define CONV_KERNEL_SIZE  2
#define CONV_GROUPS       1


const int16_t  conv1d_35_bias[CONV_FILTERS] = {601, -326, -169, -110, -246, -246, -367, -246, 573, -325, -406, -241, -247, -312, -28, 511, 23, 125, 30, -126, -247, -82, -246, -140, -440, -247, 0, 167, -410, -366, -292, -325}
;

const int16_t  conv1d_35_kernel[CONV_FILTERS][CONV_KERNEL_SIZE][INPUT_CHANNELS / CONV_GROUPS] = {{{66, 13, 646, 20, -915, 431, 768, 412, 120, -860, 211, 766, 275, 353, 518, -870, 447, 84, -30, 116, 99, 587, 324, 490, 825, -257, 738, -396, -148, -565, -155, 9}
, {108, -472, -452, 176, 520, 816, 488, -635, -57, -40, -9, -339, -163, 15, -218, -775, -279, 112, 173, 647, -194, 665, -632, 146, 180, 185, 17, -575, 132, -429, -935, -38}
}
, {{-459, -631, -833, -835, 124, 323, 345, 453, -150, -574, -95, -591, -701, -775, 713, -979, -738, 532, -753, 701, -359, 312, 822, -519, -584, -245, -872, 250, 1075, -453, -556, -274}
, {845, -80, -282, -342, -469, 1107, -488, -479, -1145, -582, 342, -492, 185, 672, 349, 133, -160, -510, 691, -640, -659, 845, -540, 82, -464, 259, 828, 574, 685, 1037, -387, -10}
}
, {{263, -362, 401, 421, -4, -570, 155, 916, -276, 658, -54, -961, -548, 399, 423, -356, 710, 820, 191, 379, 39, -198, -445, -426, 153, -963, 164, 1, -991, 164, -192, 987}
, {820, 115, -699, -798, 478, 215, 565, 890, 319, 557, -680, -712, 104, -1081, 656, -335, -110, 611, 1009, 28, -669, 1039, -381, -841, 40, -395, 66, 409, 361, -486, 966, -154}
}
, {{495, -528, 861, 520, -694, -311, 420, 1044, -159, -595, 430, -218, -392, 776, -550, 213, 385, 8, -594, -817, -393, 178, -173, -409, 148, 527, 225, 528, -271, -58, -249, 586}
, {-798, -164, 558, 1115, 1029, -660, 415, -627, 982, 944, 380, -974, -649, -16, 460, -197, 652, 599, 108, -1115, -727, 216, 177, -147, -329, -909, -638, 266, 114, -41, -293, -648}
}
, {{412, -409, -452, 889, -137, -191, -443, 879, -417, -543, -21, -848, -400, 111, -753, 811, -133, -829, 509, -738, -860, -789, 70, 169, -300, -620, -277, -118, -597, 713, -852, -633}
, {532, 67, 327, -819, 613, 338, -646, -7, 672, -475, -870, -84, -376, -520, -738, -287, 629, -527, 586, -748, -165, 385, 444, 467, -629, 168, 739, 64, -710, -485, 321, -201}
}
, {{-319, -765, -667, -834, -895, 77, -392, -426, -799, 442, -529, 94, 344, -333, -863, -253, -735, 348, 707, 151, 5, 81, 231, -102, -933, -218, 107, -236, -172, -246, 456, 455}
, {762, -694, -620, 820, -681, -716, -243, -980, -340, 72, -79, -633, -286, -604, -580, -449, 425, -857, 368, -307, -630, 149, 329, -278, 352, -1032, -553, 460, -551, -866, 335, -258}
}
, {{-841, -1131, 137, -352, -97, 475, 727, -841, -177, -787, -386, -971, -414, -561, 356, 126, -457, -893, -798, -119, 709, -366, 349, 227, 331, 547, -867, -568, -719, 488, -902, -336}
, {380, -16, -833, -890, -649, -1064, 417, -981, 921, 121, 437, 603, -667, 111, 60, -602, 133, 501, 435, 163, -657, -604, 878, 184, -859, -745, 486, 862, 493, -831, -381, 279}
}
, {{114, 738, 524, -209, -535, 806, -758, 335, -720, 369, -101, -850, 575, -9, 342, -463, 127, -321, 448, 451, 627, -459, 349, -903, 711, -480, 213, 288, -122, -869, -509, -161}
, {-284, 681, 283, -780, 808, -433, 803, 810, -587, -406, 897, 258, 340, 805, -727, -795, 715, -717, -206, 275, -111, -832, -150, -396, -731, -77, -404, -351, -812, -454, 849, 330}
}
, {{329, 634, -318, -31, 791, -532, 258, 146, -78, -319, 1226, -809, 702, -132, 134, 1047, -165, -311, 42, -6, 750, -887, -180, 756, -332, 801, 677, -58, 870, -590, 617, -1061}
, {683, 145, -212, -457, -765, -269, 233, 320, -21, -933, -469, 188, 695, 537, 557, 557, 615, 383, -563, -824, 956, -802, -150, 153, 424, 115, 355, -620, 302, 574, -536, -1093}
}
, {{-854, 446, 147, -427, -951, 440, -772, -404, 128, 288, -312, -417, -152, -416, -441, 43, -399, 612, -283, -653, -601, 302, -518, 137, -1087, -311, 298, -141, -406, -550, -601, 326}
, {703, -725, -780, -437, 756, 87, 361, -698, 400, -56, 243, 284, 150, 912, 202, 90, -706, 803, 403, -112, 77, 429, -64, -369, 342, -855, -852, 715, 586, 596, 296, -752}
}
, {{636, -653, -507, 374, 779, 49, -372, 11, 838, -807, 286, 156, 804, -367, -218, -819, -1030, -429, 693, 46, 590, -103, -322, -523, 1026, 816, 1352, -23, -896, 377, -566, -345}
, {614, -53, -563, 53, -395, -784, -591, -781, -203, 861, 891, 514, -624, -263, -215, 472, -1072, -865, -199, -458, -958, -790, 515, -835, 33, -685, 238, 557, 774, -251, -6, -1086}
}
, {{329, -741, -46, -69, -594, 213, -827, -773, -374, 1066, 540, -1044, 186, -191, -559, 198, -721, 274, -239, -523, 1204, 601, 741, -816, 495, -472, 438, -844, 149, 1098, -68, 1131}
, {527, 116, 99, -539, -205, 184, 542, -525, -40, -877, -520, 100, -876, 124, 408, -115, -428, -550, 23, -796, 476, -381, -902, -526, -604, 100, 685, -20, -381, 25, 487, -214}
}
, {{213, -1101, 819, 645, 378, -28, -842, 601, 124, -905, 2, -639, -819, -506, -468, 462, 105, -889, -882, -153, -612, 69, -508, -394, 510, 359, 538, 698, -649, -525, -373, -46}
, {738, -331, -430, 289, 728, 442, 30, -341, 361, -378, -349, -178, 268, -228, 301, -392, -854, -128, 422, -765, -604, 330, 216, -662, -570, 751, -461, 717, -734, -184, -301, 403}
}
, {{-799, -597, -61, 260, -752, -316, -586, 477, -168, -470, -601, -230, -855, 568, 555, -375, 694, -884, 756, 484, 553, 541, -467, 123, -517, -1008, -655, 347, -887, -423, 679, 429}
, {410, 230, -446, 908, 293, -1240, 346, 869, 631, 180, -748, -807, -311, 879, 585, -854, -74, 218, 695, -147, 657, -598, 842, -1013, -812, -162, -396, -663, -644, -692, -12, 144}
}
, {{444, -224, -539, -540, -400, -281, -57, 548, 1177, 307, -391, -1, 359, 178, 38, 412, 282, 792, -695, -80, -227, 545, -39, 1174, 1222, 41, -1497, -363, 815, -237, 467, 301}
, {409, 687, 811, 388, 132, 899, 178, 337, -15, 1604, -389, 2, 820, -113, 426, 657, 711, 297, 105, 190, 235, -94, -104, 781, 1658, 1048, -827, 479, 535, 106, 136, -1154}
}
, {{586, 3, 472, 1039, 205, 813, 223, -342, -537, 781, 979, 490, 352, 616, 54, -467, -613, 527, -352, 500, 1080, -355, 199, 383, -315, -532, 712, -584, 522, -332, 971, 242}
, {131, -241, 864, 3, 574, -320, 725, -329, 71, -182, 325, 31, -70, 237, 68, 752, 864, -695, 1024, 183, -327, -307, 26, -374, 226, -461, -129, -600, 969, 470, 214, 522}
}
, {{624, -1081, 0, 675, -255, -1283, 225, 417, -1913, -1464, -462, 158, 564, 705, -483, -325, 140, 595, 913, 199, 314, -20, 388, -196, -582, -1194, 41, -901, -124, -1355, -98, 1381}
, {668, 1313, -418, -588, -449, 816, 538, -378, 396, 96, -406, 1248, 850, -144, 633, -181, -1252, -528, -248, 688, -138, -228, 466, 337, 1360, 1127, -1113, 729, 1111, 1432, 25, -891}
}
, {{593, -102, 571, -565, 158, 777, -1021, 433, 84, 581, 373, 98, -783, 821, -239, -213, 1412, -245, -405, -397, 1107, 814, 435, 560, 1347, 225, -668, -257, 53, 1144, 233, -1297}
, {-58, 221, 880, -92, 357, 264, -606, -869, 502, -507, 261, 309, 823, -244, 870, -539, -527, 607, 71, 237, -231, 418, 720, -139, 1149, 443, 51, 744, 119, 236, -840, -1329}
}
, {{231, -513, -113, -659, 84, 539, -813, -361, -156, 524, 21, -1047, -846, -246, -259, 105, 72, 435, 264, -211, -145, 12, -584, -615, -836, 275, 813, 744, 459, 506, -699, -687}
, {619, -545, 905, 262, -373, -441, -763, 718, -403, 965, 36, 342, -648, -111, -683, -938, 588, 226, 468, -1035, 1401, 714, -87, 282, -562, 279, 1067, 296, 149, 205, 74, -688}
}
, {{65, 460, 341, 649, -20, 333, -246, -156, 609, 397, 560, -285, -340, -380, -218, -3, 784, -117, -100, 439, 458, -19, -604, 861, 660, 654, -647, 258, 367, 362, -255, 282}
, {-680, 999, -617, -357, 981, 1024, -367, -107, 945, 481, -652, 991, -560, -503, 392, 760, 234, 626, 696, -640, -557, 93, 931, 1239, 1106, 159, -821, 856, 813, 1074, -409, -962}
}
, {{-396, -595, 326, -95, -443, 223, -66, -249, 749, -804, -798, 568, 307, 68, -660, -563, 103, 129, 794, 813, -630, -51, -600, 12, -1036, 402, -201, -268, -475, 572, -613, -659}
, {-198, -403, -465, -853, 773, -317, 149, 368, 556, 640, 92, -689, 799, -814, -274, 75, -573, 766, 157, -535, 316, -228, -774, -836, 700, 347, -204, 29, -112, -608, -163, 364}
}
, {{-259, 695, 899, 656, -168, 429, 382, 2, 60, 617, 330, 825, -77, -394, 317, 218, 492, 805, 148, 1208, -1008, 48, -593, 779, 1342, 1155, 68, 778, -68, 434, 463, -918}
, {485, 738, 98, 825, 552, 64, 491, 526, 712, -284, -92, 176, 435, 321, 908, -867, -521, -365, 1058, 372, -50, 384, 921, 802, -558, -496, -459, -381, -59, 948, 389, 924}
}
, {{407, 468, 8, -817, 628, -567, -925, 599, 674, -759, -695, -711, -64, -524, 73, 602, 482, -643, -740, -829, -800, -219, -751, -591, -788, -206, 545, 353, 691, 105, -710, -203}
, {-794, -601, -772, -177, 366, 759, 496, 549, -167, -858, 219, -594, 349, -860, -309, -106, -662, -724, 19, -959, -25, -553, 581, 303, 320, -637, -893, 596, -332, 498, 402, 455}
}
, {{-789, 617, 675, 1066, 140, -511, 41, 463, 228, 270, 214, 1177, -763, -227, -681, 1088, -55, 934, -544, 1349, -462, -640, 531, 1355, 1033, 1200, -414, 44, 862, 368, 307, -1221}
, {-666, -405, -502, -254, -515, 1258, -204, 130, 655, 1997, -523, 1205, -130, 841, -497, 797, 373, 854, -529, 631, -943, -426, 296, 1347, 1351, 1862, -953, -141, 1185, 1322, -164, 457}
}
, {{265, 329, 215, 211, 444, -194, 756, -740, 606, -198, -247, -430, -478, -542, 267, -783, -638, -465, -597, 460, -715, 641, -870, -1210, 198, 154, -81, 657, -196, -334, 568, 299}
, {-562, 411, -276, 606, 177, -162, 80, 229, -956, 239, -598, -615, -150, -599, 625, 258, -1096, -642, -376, 102, -800, 653, -639, 534, -447, 56, -200, 631, -754, -491, 289, -754}
}
, {{463, 442, -334, -121, 455, -773, 146, 101, -560, -291, -432, -504, -112, 119, -465, -778, 191, 317, 619, -105, -569, -1000, 524, 556, -1042, -143, -743, -154, -355, 438, 115, 472}
, {-538, -907, 842, -542, -710, 208, 36, 371, -175, -164, 457, -1172, 495, 516, 341, -1013, -305, 885, -744, -731, 313, -190, -780, 282, -259, -877, 381, 160, 236, -693, -536, -390}
}
, {{-850, 451, -584, -22, 701, 639, -806, -256, 614, 247, 815, -280, -307, -592, -490, 174, 428, -661, 485, 691, 1106, 407, 4, 579, 487, 935, 354, 428, -407, 843, -459, -753}
, {650, 368, -362, 900, -630, 92, -166, 1044, 1280, 226, 373, 875, -288, 565, 475, 133, 43, 932, 283, 333, 135, 94, 639, 973, -308, 579, -805, 155, 308, 227, 978, -345}
}
, {{-769, 370, 899, -489, 473, 1262, -378, 277, 2177, 2488, 86, 1357, -308, 711, -535, 2175, -443, 497, 171, 153, -465, 779, -32, 1595, 1181, 1679, -530, 69, 1400, 1550, -554, 41}
, {860, -1792, -653, -27, 485, -2104, 136, -265, -3283, -3155, -492, -2582, 485, -116, 533, -2149, -153, -260, -77, -1127, -636, 170, -766, -3238, -2126, -2818, -1285, -193, -1489, -2193, -882, 1415}
}
, {{577, -331, -361, -486, -650, -271, 694, 488, 288, 321, -87, 523, -752, -361, 422, -1130, 233, 858, 131, 24, 1347, 236, -321, 220, -819, 812, 1163, -588, -833, -431, -99, -1575}
, {753, -459, 172, 274, -738, 834, -590, 563, -936, 628, 647, 242, 600, -398, -668, -697, -158, 563, 148, -272, 1580, 493, 7, -440, 123, 83, 494, 836, -452, 335, -18, -348}
}
, {{-307, 623, -484, -680, 160, 25, -31, -294, -795, -673, 732, 539, -535, -96, -848, -869, -242, 394, 649, 371, 610, -8, 619, 12, -827, 138, 340, -808, -496, 309, 771, -92}
, {-870, 654, -267, -660, 865, -895, 587, -702, 797, 12, 842, -1010, -560, 848, -156, -391, -779, -655, 205, 468, 310, -140, -281, -746, -430, -912, 806, -246, -707, -11, -390, 523}
}
, {{98, -966, 438, -593, -179, -395, 334, -209, -216, -350, -454, 501, 403, -936, -558, 106, 370, -714, -245, -424, -306, 679, -523, -83, -818, -721, -388, -391, -231, 227, -482, 30}
, {-542, -706, -377, 605, -416, 87, -167, -517, 95, -332, -287, 89, 669, 323, -282, -747, -906, 724, -978, 319, -589, 763, -274, 369, 555, -1116, 37, -189, 86, 181, -220, 32}
}
, {{639, -571, 41, -533, 485, -566, 280, 741, 302, -281, 688, -580, -225, 650, 539, -841, 113, -881, -363, -108, -686, -612, -413, -652, -357, -400, -10, -796, -514, -3, -672, 199}
, {-283, -968, 529, -342, -295, 340, -628, 85, 390, -774, -509, -16, -470, 420, -748, 44, -668, 437, 690, -665, -588, 309, -213, -1031, 186, 229, -517, 532, 0, -962, 651, -519}
}
}
;

#undef INPUT_CHANNELS
#undef CONV_FILTERS
#undef CONV_KERNEL_SIZE
#undef CONV_GROUPS