/**
  ******************************************************************************
  * @file    weights/conv1d.cc
  * @author  Pierre-Emmanuel Novac <penovac@unice.fr>, LEAT, CNRS, Université Côte d'Azur, France
  * @version 1.0.0
  * @date    24 march 2020
  * @brief   Template generating plain C code for the implementation of Convolutional Neural Networks on MCU
  */

#include <stdint.h>

#define INPUT_CHANNELS    16
#define CONV_FILTERS      32
#define CONV_KERNEL_SIZE  2
#define CONV_GROUPS       1


const int16_t  conv1d_30_bias[CONV_FILTERS] = {-345, 575, -333, -218, 580, -252, -423, -241, -638, -312, -160, -182, -175, -254, -371, -72, -190, -334, -254, -246, -442, -246, -266, -246, -254, -427, -123, -244, -231, -334, -246, -104}
;

const int16_t  conv1d_30_kernel[CONV_FILTERS][CONV_KERNEL_SIZE][INPUT_CHANNELS / CONV_GROUPS] = {{{-399, -44, -527, -9, -758, 146, -762, -556, -122, 706, -14, -839, -811, -418, -964, -1001}
, {669, 362, -471, -698, -987, -989, 747, 522, 154, 336, -51, -208, -367, 164, -437, -1021}
}
, {{-1330, -699, -247, -270, 494, -346, -179, 576, 416, -569, 151, 697, -599, -622, 408, 111}
, {-1406, -841, -464, -527, -413, -138, -342, 1570, 953, -401, -79, 187, 503, 362, 696, 241}
}
, {{-258, -645, -411, 295, 551, 359, -597, 697, -935, 606, -317, -164, 337, 525, -88, 591}
, {-16, -636, -119, -1007, -10, 800, 472, 402, -235, 61, 288, 96, -505, -569, 803, -624}
}
, {{200, 869, -749, 1462, 968, 783, 1790, -751, 406, -191, 1287, -981, -230, 890, -258, 839}
, {1464, -324, 800, 1189, 849, 639, 492, -2132, -8, 163, 920, 676, 723, -168, -629, 207}
}
, {{65, 301, -815, -289, -191, -735, -1435, -330, 651, 831, 43, 523, 693, 714, 982, -154}
, {699, 1025, -410, -33, -720, -478, -968, -63, -945, 228, 1142, -1013, 145, 316, 1261, 260}
}
, {{2169, 1458, -941, 1161, -598, 938, 2766, -1994, 447, -395, 1048, -373, 1293, -763, 400, 260}
, {2191, 156, -562, 45, 1227, 1287, 2095, -781, -576, -632, 8, 563, 1255, 390, 1513, 30}
}
, {{2703, -224, 3687, -814, 200, -16, 1577, 1997, -908, 650, -174, -922, 489, -614, -471, -1090}
, {1044, 300, 3705, -1168, -248, 49, 2579, 1558, 247, -867, -123, -143, -656, 479, -589, -705}
}
, {{381, 552, -1092, -44, -255, 62, -767, 680, -961, -16, -923, -844, -996, 159, -725, -559}
, {371, 478, -633, -168, -436, 762, -902, -385, 358, 237, 271, -1202, -677, -587, -780, 543}
}
, {{2214, -183, 648, 401, 1013, 917, -437, -274, -7, -190, 1703, -93, 1698, -143, 1809, 383}
, {1782, 116, -386, 932, 387, -399, -516, 824, -891, 811, 1674, -164, 615, -1023, 2259, -444}
}
, {{3937, 209, 3162, 312, 1031, 1064, 1521, 1179, -615, 218, 1388, 1207, 1722, -846, 443, 516}
, {2407, 10, 2016, 357, -338, 1130, 1126, 1369, -399, -367, 788, -736, 604, 642, 1683, 155}
}
, {{432, 750, -944, -1142, -329, 787, 282, 282, -46, -1277, -1022, -897, -936, -835, -132, -6}
, {-796, -1195, -563, 176, 578, -672, -304, -974, -894, -1186, 491, -129, -742, -640, -247, 142}
}
, {{298, 482, -794, -1220, 291, -276, 35, 810, -653, -385, -697, -419, -1130, -275, 649, -220}
, {346, 39, -134, -38, -73, 151, -341, -820, 757, 72, -399, 419, -1021, -899, -779, -646}
}
, {{212, 54, -888, 721, 637, -1010, -678, -370, 234, -470, 524, -603, -207, -138, 97, -622}
, {-882, -720, -1169, 134, -271, -510, 914, -126, -256, -136, -788, 599, -750, -618, 23, -929}
}
, {{2406, 1361, 694, 554, 613, 1998, 2364, -981, 750, -447, -180, -756, 826, 763, -521, 325}
, {1867, 1321, -934, -334, -497, 538, 1822, -1336, -389, 473, -110, 566, 1193, 641, -352, 214}
}
, {{-545, 1009, -1239, -175, -1095, 1391, -594, 715, 301, 177, 999, -302, -185, -1014, 568, -719}
, {963, 240, -853, 1009, -348, 2231, 196, -758, 118, -569, 2204, 929, 649, 156, -518, -806}
}
, {{-570, -969, 183, -1079, -57, -629, 807, 387, 855, -867, -235, 75, 28, 0, -293, -1034}
, {-56, 556, -496, -244, 282, 232, -1020, -1162, 339, -1085, -603, 152, -574, -982, -640, -156}
}
, {{-990, -304, 45, -225, 20, 566, -753, -1110, -929, -1167, -116, -373, -1063, -1010, 385, -1121}
, {-936, 372, -92, -848, -1018, -881, 609, 205, -766, -375, -823, -871, 190, -906, -279, 361}
}
, {{2871, 787, 434, 193, -107, 1011, 2960, -738, -324, -801, 322, 2, 1081, 777, 1246, 198}
, {4268, 1318, -318, 1033, 22, 2789, 3383, -1529, -689, -1146, 1867, 694, 754, 57, 814, -816}
}
, {{633, -286, -239, 1065, 315, 758, 780, -1500, -16, 162, -404, -135, 342, 425, -152, -878}
, {-113, 1224, 772, 335, -145, 883, 373, 143, -562, -886, -363, -730, -447, -1173, 911, -800}
}
, {{146, -362, -1172, 195, -182, 328, 53, -353, -610, -977, 0, -464, -695, -885, 257, -668}
, {474, 151, -949, -650, 501, -79, -1071, -832, -875, 567, 308, -1006, -716, -56, 663, 725}
}
, {{2045, -616, 46, 572, 116, 1287, 3225, -496, 876, -680, 657, 605, 461, -160, 873, -198}
, {2863, -579, -1111, 1106, 176, 1695, 3438, -1282, 694, 657, 1106, -425, 741, -956, 1726, -178}
}
, {{-157, -444, -446, -80, 523, -658, -1149, 876, 82, 259, -1000, 538, 176, -532, -846, 109}
, {-913, -418, 352, -602, 180, 593, 530, -910, -682, -478, 457, -241, -558, -15, 543, -548}
}
, {{1193, 766, 907, 549, 716, 1254, 2460, -187, 562, -557, 1454, -44, 1119, -480, 1579, -139}
, {2365, 679, -149, 45, 920, 2050, 2405, -1941, 1027, 665, 1393, -451, 1214, -652, 1678, 768}
}
, {{-329, -250, 696, -207, -912, -853, -1023, -1024, 266, 555, -572, 536, -514, 369, -105, 260}
, {-423, -277, -626, 947, -493, -877, -868, 680, -310, -955, 244, 177, 590, 230, -546, -869}
}
, {{-601, -490, -891, -740, 345, 587, 604, -529, 573, 484, -128, -487, -956, -35, -558, -1072}
, {992, 994, 608, 558, -865, 291, -75, 186, -473, -737, 551, 315, -405, 676, -284, -943}
}
, {{443, -728, 243, -279, -673, -800, -1044, 80, 974, -427, -233, -131, -32, -147, -714, 427}
, {-423, -791, 439, 446, 315, 55, 191, -835, 559, 286, -407, -940, 632, -499, 612, -558}
}
, {{-110, -743, -320, -736, -54, -624, -930, -275, -691, -1171, -858, 366, -1050, 358, -574, -27}
, {-929, 241, -625, -1193, 287, -623, 518, -124, 643, 142, 591, -208, -237, 887, 742, 558}
}
, {{-104, 637, -1062, 1265, 93, 1056, 1474, -423, -954, 286, -179, -1178, 114, 1119, 239, -494}
, {1201, -601, 801, 596, 436, 220, -421, -1364, -179, -952, 595, 25, 166, 620, -973, 864}
}
, {{1270, 745, 274, -528, 557, 1640, 3589, -569, -254, 664, 500, 375, -663, -751, 1295, -928}
, {1676, 1095, -366, 620, 911, 1611, 1038, -1773, 386, 62, 1366, -93, 1058, 678, 1962, -687}
}
, {{-117, -775, -1025, -817, 233, -890, 267, -480, -597, -157, 603, 227, 778, 883, -750, -927}
, {470, -148, -641, -1050, 548, 694, -1052, 352, 585, 508, -1060, -227, -926, 250, 370, -615}
}
, {{291, -37, 439, -1125, 408, -264, -311, 374, -564, 252, 815, 412, -289, -860, 545, -140}
, {257, -1078, -167, -799, -615, -1033, 121, -599, 439, 544, 181, -59, -644, -893, -247, -197}
}
, {{-1008, -960, 18, -1334, -48, -688, 65, -695, 603, 271, 579, -138, 8, 828, 0, 39}
, {-462, -614, -1027, -159, -725, -36, -563, -414, 138, -567, 822, -614, 105, 565, -98, -1007}
}
}
;

#undef INPUT_CHANNELS
#undef CONV_FILTERS
#undef CONV_KERNEL_SIZE
#undef CONV_GROUPS