/**
  ******************************************************************************
  * @file    weights/conv1d.cc
  * @author  Pierre-Emmanuel Novac <penovac@unice.fr>, LEAT, CNRS, Université Côte d'Azur, France
  * @version 1.0.0
  * @date    24 march 2020
  * @brief   Template generating plain C code for the implementation of Convolutional Neural Networks on MCU
  */

#include <stdint.h>

#define INPUT_CHANNELS    32
#define CONV_FILTERS      64
#define CONV_KERNEL_SIZE  2
#define CONV_GROUPS       1


const int16_t  conv1d_50_bias[CONV_FILTERS] = {-528, -493, -549, -279, -564, -1080, -172, -492, -577, 898, 2337, -206, 1866, -401, -3512, -464, -1854, -550, -193, 456, 817, -118, -495, -747, -1703, -539, -1358, 37, -819, -2104, -773, -574, 2023, -474, -297, -616, -76, -1611, -492, 242, -505, -565, 2613, -2100, 744, -359, -2808, -962, -2048, -493, -929, -1473, -592, -1625, -492, -505, -724, -266, -835, -503, -269, -1937, -233, -886}
;

const int16_t  conv1d_50_kernel[CONV_FILTERS][CONV_KERNEL_SIZE][INPUT_CHANNELS / CONV_GROUPS] = {{{-1285, -998, 87, 558, -948, -1973, -236, 15, 121, 1048, 417, -355, 158, -86, -295, 129, -1315, 218, -142, 832, -2122, -1820, -194, 417, -579, 760, 1042, -1869, -1864, -119, -948, -1290}
, {-2048, -458, -699, -1506, -1180, -310, -1917, -233, -1441, 1155, 765, -453, -1160, -928, -541, -123, 1072, -641, -725, -739, -2377, -714, -1480, -995, 997, 1228, 573, -856, -1684, -2149, -1635, -211}
}
, {{13, -1413, -1236, -309, 657, -1677, -1421, -365, -68, 628, 892, -646, -1488, -1584, -1728, -641, -1329, 127, -536, -41, -278, 145, -1075, 285, -575, 619, 529, 939, 176, -325, -1363, 302}
, {582, 823, 410, -1332, 309, -653, -319, -1030, 730, -892, 223, -1654, -1029, 338, 281, 1066, 995, -1131, -292, 144, -1276, -809, -1460, -1497, 63, -248, -782, 458, 886, 261, -503, 495}
}
, {{1898, 1191, -170, -1077, -1444, 1092, 2859, 4144, -719, 1036, 774, 329, 1712, 2563, 9924, -1022, 263, -984, 1477, 1578, 1923, 2932, 3191, 398, -258, -1316, 1162, -153, 1047, 1453, -571, 1091}
, {-4301, -3233, 1629, -408, 498, -2819, -1678, -943, 224, -965, 390, -2200, -236, -587, -8562, -293, 667, -442, -2641, 580, -2878, -2881, -923, -882, 1980, -631, 1156, -926, -743, -1469, 322, -242}
}
, {{-7028, -4771, -728, 659, -1220, 2209, 1284, -11400, -207, 1163, -1188, -7972, 1531, 2801, -10891, -782, -1248, -1145, 478, -1345, 112, -4714, 3371, 461, -549, -1072, 2359, 1827, 1155, -1036, -1201, 1394}
, {-6152, -6606, 912, 280, -424, -1557, -2741, 2044, -658, -876, -1004, -4062, 382, 477, -15639, 171, -41, -1512, -5504, -55, -345, -5023, 1879, -306, 1585, -1099, -413, 51, 795, -4089, -722, -847}
}
, {{-441, -532, 31, -39, -995, 1071, -747, 943, -1096, -1134, 777, -1189, -445, 855, -1361, 956, 641, -1017, -381, -297, -1077, -962, 162, -722, 89, 1290, -1096, -927, 441, -743, -1337, -949}
, {-1069, -527, 311, 36, 876, -864, 751, -1575, 993, 568, -40, -794, 374, -71, -1378, -677, -574, -1370, 209, 445, -1171, 445, -440, -1581, -32, -679, -659, -2054, -823, -1724, -956, -956}
}
, {{-2409, 1442, -1154, -1221, -1281, -2332, -2079, -2284, 667, 239, 87, -370, -2809, -2721, -1284, -1187, 1312, -1412, -2357, 511, -2644, -413, -1738, 60, -148, 1269, 692, -2286, -2106, -811, 942, 944}
, {387, -110, 1012, 926, 88, -1305, -1368, 886, 1089, 738, -758, -1257, -293, -203, 2110, 1289, 265, -1462, -291, 70, -1423, 371, -1588, 489, 308, -1232, 338, -2561, -900, -964, -130, -707}
}
, {{4914, -1136, -488, -1015, -802, -3683, -1680, -2470, 130, 828, 663, 1307, -5041, -4554, 449, -683, 797, 226, -2382, -342, -4260, 1193, -3461, 182, 866, 321, 1279, -3327, -4860, 539, -141, -254}
, {5590, 168, -1411, 590, -149, -6275, -2495, -3063, -542, -391, -747, 1174, -7455, -7103, 384, -768, -283, 1410, -2986, 1264, -7022, 1840, -8626, -533, -422, -435, 303, -5684, -4893, -3206, -371, 429}
}
, {{-1145, 1304, 94, 288, 880, -1243, -951, -499, 144, -491, -840, -1829, -609, 242, -739, -1446, 1092, -897, -1689, -852, 1023, 1197, -860, 928, 899, 832, -1007, -1311, -955, 164, -1459, 350}
, {-227, 1109, -1312, 331, -20, -92, 725, 167, 164, -989, -30, -1827, -490, -1764, -286, 574, 762, -430, 338, -288, -50, -1227, -665, -1155, 890, -1317, -1492, -242, -436, -223, 188, 212}
}
, {{4968, 1068, -976, -1323, 734, 98, -1976, 7498, 445, 1637, 311, -2530, 620, 177, -6527, 482, -1352, -720, 1520, 1131, 742, 5338, -383, 41, -842, 78, 677, -246, -305, -260, -984, 221}
, {9995, -1340, 533, -1083, -130, -1356, -627, 11337, -356, 1537, 955, -2268, -2157, 909, -7011, -523, 1044, -577, -5973, 336, -177, 6556, -1706, 555, -553, -1253, 1512, -2616, -2013, -7507, 188, 428}
}
, {{-2983, -6148, 148, 1119, 535, -2043, -2330, -12665, -672, -254, -441, 3626, -2003, -3487, 11417, -1257, 2239, -682, -3701, 746, -3509, -470, -4064, 193, -1325, -368, -306, -3730, -3705, -3922, 469, -2066}
, {2985, -3762, 452, -54, 379, 929, 3295, 6852, -1006, 358, -1437, 10246, 1160, 661, 8307, -433, -237, 853, 1855, -47, 2122, 3339, 2272, -719, -686, -1200, 346, 2106, 2695, 4661, 297, 533}
}
, {{1221, -2713, -801, 811, 166, -854, 111, -3968, -10, 982, 1022, -3255, -2955, -2407, -2932, -507, -1406, 339, 1631, 552, -1698, 1301, -1691, 476, -1628, 103, -1330, 14, -21, -1639, 1393, -645}
, {1545, -268, -1009, -844, 938, -686, -698, -3124, -371, -708, -644, -2017, -2082, -489, 93, -7, 551, -207, 2383, -727, -65, 1838, -2927, -192, 147, -976, 1071, 900, -2194, -8669, -607, 274}
}
, {{-1333, 1039, -1616, 195, 1142, 581, 582, -1385, 330, 330, -79, 909, -754, -165, -66, 1045, 465, 998, -692, 300, 254, -633, -150, -715, 295, -167, 650, -1372, -1701, 766, 999, 355}
, {-509, 817, 631, -1337, -975, -1012, 916, -1709, 214, -763, -1040, -336, -1796, -855, 1050, -1041, -1793, 264, 312, -826, -263, -2150, 275, -1451, -461, 669, -1236, -1531, -1199, 912, -1690, 332}
}
, {{70, 535, 696, 762, 1407, -2847, 657, -1209, -95, -1010, -517, -2572, -4136, -2336, -4782, 431, -1052, 218, -1273, -510, -3015, 1108, -3916, -4, 961, -690, 1087, -2115, -2068, -3590, -349, -321}
, {109, 809, -136, 136, 1540, -1195, -1952, -1810, -71, -1326, 511, -2748, -4392, -1720, -5603, 1126, 196, 559, -1760, 572, -2037, 1780, -4897, 574, -859, 1153, 874, -3118, -2502, -2804, 799, 33}
}
, {{-1468, 1417, -1343, -435, -1108, -886, 764, -984, -1352, 487, 7, -1165, -819, 148, 905, -1297, -1672, 412, -962, 145, 249, 595, -603, -60, 695, 1032, 799, 30, -785, -870, -1814, 1063}
, {-48, -1416, 325, -1771, -8, 32, 615, -198, -518, -882, -667, -1487, -896, -1377, 683, -433, -599, -997, 318, -175, 800, -1156, -354, 881, 68, 272, 723, -685, -697, -767, 14, -757}
}
, {{-1171, -2149, -227, 615, 440, -1684, 288, -8437, -904, 1373, 34, 2640, 757, -2132, -4379, 1132, -873, -409, -608, -256, -1272, -8356, -1555, 319, 423, -1153, 1429, -3092, -1708, -271, -426, -540}
, {-2846, -2981, -1316, -503, 533, -1553, -2345, -2619, 1694, 873, -709, -2854, -1413, -861, -4730, 298, 613, -999, 1207, 1231, -1037, -4307, 1171, -1391, 1800, -1308, -307, -680, -1450, 614, 542, -1162}
}
, {{-3771, -9548, -968, 95, -1096, 572, 2462, 62, -1299, 887, 50, -1251, 2795, 3808, 16898, -1088, -1269, -868, -6683, -341, 2057, 1050, 4304, -609, 633, 171, 28, 1441, 728, -4943, -642, 308}
, {-1761, -7293, -1458, -814, -334, -878, -3276, 390, 1366, 152, -1047, 2680, 43, 1248, -1992, 777, -502, 856, -11765, -645, -1861, 1916, 811, 186, 1029, 594, 789, -723, -1215, -14181, -553, -524}
}
, {{-1092, 990, 113, 553, -767, 565, -1637, 553, 652, -241, 1364, 4552, 194, -123, 4984, 999, 920, -107, -219, -727, -1699, -120, -565, 949, -358, -574, 1175, -1406, -1709, -708, 1, -905}
, {-1560, 171, 692, -23, -1228, -422, 81, -3280, 969, -595, 1134, 4768, -1933, -359, 3801, -1364, 284, 562, -234, 808, 302, -1165, -574, -1378, -532, -336, -366, -344, 2, 486, -829, -365}
}
, {{-1536, 91, -913, -732, -481, -1987, -756, -700, -797, 909, 476, -1675, -865, -1553, -1590, -892, 422, 204, -718, 474, -1616, -1649, -110, -1000, 421, -542, -1454, -1461, -1009, -353, -1450, -82}
, {-353, -407, -723, -63, 1204, 785, 1022, -518, 907, 1035, -1090, 527, -916, -2, 192, -914, -1507, -395, 204, 483, -1538, -1008, 26, 71, 420, -754, 958, -1362, -1868, 403, -1009, 644}
}
, {{884, 659, 809, -949, 365, -1138, -900, 52, 1283, 1033, 456, 556, -1241, -1187, 446, 1186, -1849, -515, 1329, -997, -1355, -2380, -15, -936, -544, -129, 548, -1073, 608, -792, -733, -1782}
, {-1435, 889, 59, 693, 1591, -889, 678, -482, 812, 1152, -541, 1518, -545, 46, -556, 85, -1357, 690, -709, 238, -324, -412, -767, 42, 887, 582, -49, -1238, -525, -510, 1227, -1761}
}
, {{-3061, -1600, -642, 1340, -782, 2132, 1480, -2625, -1090, -884, 1416, 2997, 1455, 2098, -5781, -96, -705, -410, -3885, 1633, 1570, -2034, 1346, -938, 1167, 558, 1198, 234, 798, -2669, 1172, -100}
, {-4362, -465, 1179, 1993, -769, 469, 1388, -1808, 895, 1327, 868, 3350, 1422, 1639, 751, 1446, -1037, 1698, -3946, 1042, 165, -2928, 180, -1116, 1066, -456, -1173, 1998, 2607, -4633, -1161, 509}
}
, {{1597, 719, 1189, 1880, -531, -2134, -531, -1195, 427, -757, -429, 582, -2962, -2709, -1294, 956, 108, -599, -839, 93, -4195, -944, -3830, -297, -269, 148, 770, -1632, -1879, -1999, -758, -961}
, {2180, -1287, 291, 96, 134, -2967, 9, -633, 1225, 1044, -476, 529, -3680, -4516, -1136, -1317, 1011, 600, -249, 989, -3973, 605, -3192, -27, 777, -618, 563, -2935, -3908, -1741, -691, 539}
}
, {{-618, -303, 421, 1461, 225, -677, -1828, -890, -733, -676, -33, -912, -1981, -986, -1432, -842, 336, 659, 925, 414, -1828, -1354, 458, 394, -699, 786, 979, -507, -529, -882, 197, 1112}
, {456, 1191, 1349, 47, -713, -246, -1783, 111, -1421, 1170, -1077, -1164, 489, -1270, -1121, 378, 1026, 1384, -816, 687, -1791, -959, -1119, 891, -1130, -587, -636, 909, -976, -731, -51, -1246}
}
, {{694, -1013, 787, -964, 722, 846, -706, -258, -1448, 170, -798, 596, 587, -1463, -856, 858, -137, -456, -646, -1534, -1370, 548, -906, -72, 401, 108, 921, -1481, -621, 1344, 1080, -727}
, {-247, -554, 1148, 720, 1046, 120, 493, -1072, -773, 262, -443, -883, -1002, 326, -1098, -645, -73, 1189, 1005, -176, -177, -1704, -342, -446, -53, -265, -156, -798, 415, -91, 1073, -403}
}
, {{-1632, -567, -1458, 101, 320, -2178, -695, -500, 902, -485, 157, -734, 1209, -1710, 224, -952, -464, -1401, -655, 1192, -1145, 461, 952, 344, -88, 1239, 1467, -1110, 52, 246, 682, 990}
, {-1663, -1153, -52, 910, -522, -1301, -1301, -259, 1680, -325, -422, -345, 735, 851, 393, -66, 234, -277, 1685, 1060, -560, -1600, 756, -476, 462, 44, -730, -456, -1212, -413, 631, -113}
}
, {{-1426, -246, -275, -1409, -1260, -1914, -2172, -1782, 400, -149, -789, -32, -1462, -1670, -1261, 37, -1666, 594, -2490, -431, -673, -1001, -1872, 561, 145, -1216, -521, -217, -1327, -1091, 396, -350}
, {416, 1, -1304, -638, -945, 265, -2227, -2467, -1201, 9, -790, -172, -1609, -152, 689, -322, 1243, 1599, -20, -100, -1064, -1183, -1794, -445, -937, -234, 650, -1210, -923, -1070, -1027, -793}
}
, {{-699, 1432, 1544, 721, -599, -836, -42, 917, -651, -1063, 1044, 618, -147, -1114, -183, -162, -552, -84, 1029, -858, -669, -2020, 175, -726, 1129, 704, -569, -1508, 189, 1014, -349, -84}
, {-1704, 1101, 750, 92, 1292, -1011, 842, -1207, -1111, 359, -1104, 141, -1697, -1471, -783, 84, -347, 675, 130, -1309, -1337, -2050, -2327, -383, -134, 834, -1064, 1090, -1434, -374, -406, -1142}
}
, {{571, -1089, -1396, 1311, 1418, -1520, -1185, 197, -1112, 1232, 394, -357, -245, -482, 1221, 473, 676, -838, -21, 135, -593, -295, -2170, -491, -653, -1235, -601, -912, -331, -1505, -988, -381}
, {-1703, -376, 1263, -202, 15, 251, 269, -1076, 663, 176, 635, 647, -2062, -1989, 515, -37, 487, 515, 475, 98, -1967, -424, -1458, 804, -1157, 230, -1204, -214, -299, -976, 648, -1293}
}
, {{-14321, -677, 420, 772, 792, -968, 618, -99, 789, -1105, 946, -7040, 2103, 1916, -5533, -169, -1657, 86, -285, -610, 1255, -18877, 1743, 555, 706, -1368, 1057, 285, -696, -373, -482, -1219}
, {-14621, -268, 1024, -394, 871, 659, 1306, -8304, 862, 14, -368, -6587, 647, 2269, -3814, -325, -1846, 1083, 535, 524, -432, -15671, 3151, -520, 416, -63, -1363, 1532, 414, 1063, 903, -144}
}
, {{-1469, -775, -588, 397, -1267, -29, -404, 677, 1112, 562, 926, 300, -957, -636, 371, -676, -971, -1581, 414, 1497, -552, -71, 739, -1140, -942, -289, 1560, -1580, 367, -1043, 993, 870}
, {-1404, -1065, -1188, -541, 555, -1045, 304, -1304, -1106, -118, 251, -544, -877, 448, 278, 853, 374, 519, -738, -870, 138, -1334, -1628, -373, -605, 333, -809, 71, -53, 480, -1256, -125}
}
, {{-2311, -2335, 1312, 1321, 101, -1454, -2432, 429, -1382, 113, -1065, 2299, -2462, -2597, -1126, 989, -797, -248, -2726, -931, 941, -2413, -2197, -1105, -974, -430, -1325, -2263, -3734, -1833, -1186, -894}
, {-1589, -2902, -208, -1168, 1236, -2340, -2535, 1042, 444, 1324, -1115, 1040, -1524, -1043, -897, -573, -822, -187, -631, -292, -1, -3093, 231, -876, 581, 760, -1185, -651, -2835, -3324, -201, 169}
}
, {{8394, -3677, 203, 113, -1012, 2666, 1808, 4047, -105, -313, -75, -2617, 2243, 3792, 1882, -1085, 222, -1620, -885, 1266, 2571, 5623, 1234, -1166, 397, -427, 1309, 2488, 2322, 1424, -1684, -86}
, {-7842, -5327, -813, -507, -1223, -2299, -2420, -14887, 704, 931, 1376, -2171, -3724, -1927, -7611, 678, -1829, 846, -4938, -386, -1787, 2310, -2543, -796, 877, -1001, 1038, -3644, -4150, -4264, -515, -994}
}
, {{-1089, 56, -938, 955, -412, -1253, 234, -1364, 237, 1153, 791, -879, 243, -311, 1218, -936, -1471, -1481, -497, -1002, -1051, -2525, -196, -1471, 1352, -1341, 1221, 517, 209, -1199, 5, -1283}
, {-637, 776, -766, 873, 952, -1414, -46, -1162, -243, 937, -253, -135, -788, -500, 875, -1364, -389, -1221, 125, 746, -280, -2501, -1183, -73, -1246, 1013, 1100, 599, 619, -413, 333, 400}
}
, {{-5942, -1109, -1290, -764, -1734, -92, 116, -9751, 912, 893, 388, 1530, 2291, 1023, -10243, -1377, -1111, 776, -6251, 1306, -524, -1739, 1620, -749, 2084, 997, -1741, 1541, 716, -4462, -1201, 774}
, {-7234, -11245, -753, 570, 941, 946, -36, -7736, -466, -811, 511, 1465, 2261, 3513, -9318, 472, 222, 670, -4874, 1256, 831, -1075, 2202, -1346, 1564, 114, -1068, -181, 53, -5744, -1701, -146}
}
, {{-178, 1192, -397, 477, -1031, -1280, -200, -1252, 55, -114, -551, 538, 431, 88, 1181, 905, -872, -394, 147, 1448, -114, -865, -817, -839, 1255, 1147, 71, -782, -37, -1221, -1289, -492}
, {-137, 972, -1408, -1186, 581, -84, -284, 488, -435, 1176, -207, 57, -1012, -1295, -694, -1365, 576, 364, 738, -515, -211, 1094, 70, 917, 686, -1345, 701, -1147, -987, 951, 195, -1376}
}
, {{-901, 360, -1288, -326, 1151, -1169, -767, -979, -697, -145, -834, 1051, -2457, -818, -299, 1008, -164, 1006, -1243, -1319, -316, -609, 198, 1161, 82, -301, 774, 559, -1259, -1706, 606, 964}
, {-617, 192, -100, 518, 645, -1219, -996, -1252, 156, -146, 188, -1200, 368, -1192, -86, 223, -1018, -1277, 356, -490, -393, -69, -1734, -356, 902, -649, -858, -640, -622, -1416, -1014, -997}
}
, {{-205, 1349, -1104, 149, 123, -1959, -1172, -424, -1300, -651, -909, -1211, 615, 1779, -488, -817, -1163, -1659, -1870, 1567, -1522, 743, 493, 348, 1961, 1110, -1181, -2046, -256, -2182, 939, 1718}
, {-845, 232, 701, -435, 516, 236, -1686, 762, 1112, -405, -832, -952, -6, -122, -1043, -1180, -102, 537, -970, -974, -361, -1069, 919, 809, 2110, 680, -624, -391, -1578, -753, 812, -880}
}
, {{-6828, -3858, -838, -1258, -792, 2883, 1734, -651, 1016, 1541, -972, 1191, 5076, 3241, -1591, 1254, 192, -1615, -4443, 949, 1040, -934, 5125, 611, 1038, 1301, 1376, 2442, 3113, -4424, -650, 2178}
, {-3881, -12924, 20, 255, -697, -720, -4220, -106, -829, -89, 864, 1163, 1189, 2922, -11478, 1386, -2358, 336, -16461, 793, 830, 32, 1626, -1372, 2093, 781, 165, -188, 1332, -12771, -15, -274}
}
, {{-318, 972, -679, -1055, -1048, -3937, -2805, 1222, 504, -144, 1072, -2109, -3312, -2120, -1057, -933, 1029, 216, 133, -1267, -398, -1517, -2673, -1289, -1620, -220, -727, -845, -2544, 303, 344, 999}
, {-441, 1242, -396, 917, 200, -3395, -876, -19, 888, -294, -220, -2120, -3234, -1129, -844, 1281, -1640, -1681, -575, -819, -1429, -179, -3278, 680, 402, -541, -1140, -446, -2826, -2208, -1446, 326}
}
, {{-866, -594, -503, -883, -1376, -462, 236, 400, 728, 457, 733, 680, 833, 218, 430, 916, -1009, 452, -1225, 964, -70, 372, -869, -1550, -1462, -733, 697, -1228, 432, -780, -250, 951}
, {-934, -834, 529, -1342, 744, 410, -179, -1168, -1211, -187, -1086, -1397, -1534, -1648, 987, -1239, 395, -679, -191, -1405, 1298, 210, -762, 594, 376, 848, -1365, -1529, -254, -1540, 717, -229}
}
, {{-1429, -2864, 135, -399, 1286, 2861, 764, -1022, 1192, -1021, -400, -478, 1839, 1674, -4513, 627, 762, 932, -3836, -901, 2127, -3330, 3111, 1145, 108, 227, 1253, 439, 1110, -2865, 793, -873}
, {-5654, -1513, 207, -619, 493, 1464, 988, -5034, -195, 979, -741, -181, 1876, 2719, 2248, 292, 821, 493, -3434, 379, 2572, -2022, 3260, 871, 1051, 194, -879, 144, 2005, -3900, 1316, 7}
}
, {{-1154, 559, 1295, -126, -1236, -1236, -1333, -1361, 1345, -747, -254, -29, 1437, -398, -29, 206, 139, -828, 462, 614, 208, -2187, -1012, -45, -530, 679, 1212, -1297, -256, 18, -842, -30}
, {-2462, -318, 1188, 648, 999, 264, -852, 103, -1106, 727, 948, 1155, 1, -873, -1168, 637, -865, -763, 634, 316, -1669, -623, 1118, -774, -1050, -437, 1209, -355, -414, 439, -630, -502}
}
, {{-1868, -785, -1095, 728, 565, -1157, 87, -394, -869, -1308, 1178, 740, 210, -1371, -1191, 13, -1441, -1308, 50, 760, -1039, -971, -1226, -1054, -652, -1260, -1352, 1286, -171, -279, -301, -92}
, {19, 326, 154, -1433, -876, -1491, 680, 487, 76, 355, -617, 1195, -627, -278, 1011, -127, -783, 1077, -804, -1482, -1693, -1061, 54, -16, 627, -369, -56, -1393, -974, 470, -819, 1}
}
, {{2250, -931, 463, 1855, -340, -315, -646, -4969, 246, 403, 1093, -1642, -3449, -1687, -392, -398, 1563, -469, -494, -238, -1180, 1271, -2308, -717, 639, 294, 1454, -139, -1530, -8903, -713, 838}
, {2608, -5458, 1396, -802, 748, -653, -1112, -4555, 424, 823, 1151, -1697, -2952, -319, -2997, 716, 1020, 290, 4429, 1164, -437, 2111, -2338, 997, 2124, -1170, 584, -525, -34, 1241, 834, -887}
}
, {{1198, -567, 1677, 1588, -412, -847, -781, -1236, -252, -235, 932, 4782, -2281, -549, 1031, 863, -494, -731, -1309, 368, -627, 1107, -672, 164, -96, -171, 697, -512, -591, -351, 531, 606}
, {-401, 1028, -704, -540, -148, -877, -1593, -1493, -1157, 558, 631, 6873, -963, -1770, 1221, 505, -107, -848, 654, 1765, -2455, 626, -112, 577, 1464, 126, -980, -2292, -2753, 1226, -94, -437}
}
, {{-6473, -6668, -758, 1047, 1194, 572, 1356, -688, -1035, -1263, 1047, 1401, 1870, 1630, 4385, -308, -1739, -237, -6274, -259, 118, 898, 2385, 397, 806, 796, -172, 1327, 1869, -4734, 606, 675}
, {-4038, -4947, 972, 2192, -795, -807, -2128, 3889, -172, 1489, 61, -772, -942, 215, -8287, -1321, -1306, -755, -7139, 984, -401, -1482, -216, -478, 716, -1192, 1434, -944, -1682, -9081, -1165, 495}
}
, {{-1612, -33, -577, -971, 598, -1821, -1539, -1302, -841, 1294, 393, -1173, -748, 336, 646, 519, 461, -986, 687, -993, 703, 620, -1754, -470, 1249, 819, -1243, -654, -343, 613, 208, -49}
, {312, -1248, -448, -1260, 1093, -1642, 555, 696, -930, -367, 1373, 245, -1164, 309, -1109, 1076, 975, -385, -1384, 1016, -715, -613, -1208, -1588, -674, -366, -1381, -1105, -918, 546, -1395, -1826}
}
, {{2466, 616, 719, -78, -831, 408, 2316, 4690, 111, 1619, -239, -961, 446, 1562, 4398, -914, -560, 109, 1182, 966, -604, 3210, -6, -1645, -373, -587, -615, -258, 615, 1907, -1474, 1069}
, {5213, -580, -1739, -827, 1352, -1769, -2585, 6810, -121, -1090, 161, -1410, -2457, -1473, 2618, 490, -1605, -1231, -2766, -650, -3102, 2868, -674, -1601, 1581, -812, -917, -1264, -1812, -5401, 152, 1241}
}
, {{1074, 420, -1176, -1162, -110, -653, -1611, -668, 467, 579, 40, 560, -1225, -1062, -1341, 637, -243, -1080, -4, -1258, 651, -1353, -1950, 1153, 185, -1326, 1265, -916, 221, 401, -346, 849}
, {-808, 1364, -233, -754, -597, -598, 268, -172, 922, -958, -688, -431, -862, -784, -1552, 20, -1301, -65, 383, 827, -656, 643, -1397, 1324, -214, -830, -244, 213, -914, -1021, 529, -1297}
}
, {{-1626, -856, 896, -675, 252, -2723, -1163, -930, 952, -322, -985, 6674, -2830, -1910, 8349, -206, -254, 820, 410, -540, -523, -734, -426, 530, 439, -6, -852, -300, -241, -267, 938, 886}
, {-164, -2406, 128, -871, -717, -950, -678, -1609, -1179, -399, -433, 8017, -1762, -3929, 8802, -432, -1199, 895, 1621, -852, -31, 358, -3623, 725, 112, -147, 1389, -2362, -1003, -540, 1229, -382}
}
, {{-1102, 968, 1365, 1120, -298, -1462, -550, -1264, 1480, -900, 224, 223, -996, -1312, -1532, -691, 774, -397, -1206, 1081, -445, 577, -4, 772, -34, 518, 600, -535, -330, -944, 938, -287}
, {-944, -535, -785, 28, -564, 596, -306, 192, -457, -169, -760, -83, -1582, -27, -77, 215, -161, 910, -539, -37, -315, 699, -1047, 1167, 863, -526, 706, -2125, -881, -1183, 906, -627}
}
, {{-297, -289, -648, 420, 1215, -1286, -703, -2716, -693, 932, 681, 649, 567, 560, -394, -721, -1085, 925, 1023, -772, 27, -923, -888, -778, 1137, 274, -376, -1637, -1043, 1291, 531, 719}
, {-585, -376, 578, -376, -1393, -116, -1216, -255, -183, 270, -737, -401, 298, 66, -1238, -479, 579, 998, -334, -27, 3, 553, -57, 1209, 886, 993, -159, -281, -811, -1482, -121, -788}
}
, {{7413, -2426, 913, -1241, -1442, -5194, -3221, 12639, 110, 637, 371, -73, -5784, -3759, -4424, -1125, -735, 223, -1301, -707, -2670, 4397, -6047, 19, -580, 788, 1172, -4967, -5769, -679, 90, 874}
, {3813, 6567, -380, 542, -500, 1972, 358, 6189, -511, -308, 906, -2854, 545, -36, -11972, -772, -675, -982, 1633, 930, 3098, 3049, 2322, -1776, 1405, 1146, 353, 778, 101, 2250, -816, -965}
}
, {{-525, -1300, 933, -879, -1330, -1198, 779, 933, -1077, -772, 942, -1411, -1238, 498, 293, 777, -1366, -270, 294, 585, -726, -508, -1031, -32, -767, 526, -343, -1438, -395, 650, -1443, -1263}
, {-268, 394, -985, -502, 1256, -1395, 1359, -1435, -18, -41, 1432, -539, -325, -1052, 818, 927, 1036, 575, 91, 822, -311, -844, -583, 1161, -1391, 200, 860, 91, -293, -1293, 1110, -287}
}
, {{2684, -4021, 80, -216, 73, -1923, -1266, 2132, -157, 1021, 634, -2377, -1321, -1102, -1783, -334, 800, 127, -1503, 1792, -5030, 1534, -2778, -718, 301, 777, -299, -2243, -1560, -853, -1627, 293}
, {2158, -779, 615, 384, -817, -849, -3566, 1666, 837, 738, 700, -1329, -2314, -2033, -3798, -1284, -304, -1552, -3399, 983, -4043, 3280, -2404, -1167, -137, 575, 1381, -2863, -3258, -2957, -1716, 1997}
}
, {{-335, -737, -408, -1291, 1025, -1334, 1507, -373, 337, 279, 1178, -1145, -256, -1208, -1113, -978, -472, 817, -329, -587, 455, 77, 21, -894, 919, 591, 1112, 1145, -246, -688, 825, 152}
, {-1238, -430, -1290, -139, -318, 729, -1213, 581, 208, -378, -689, -1393, -302, 1056, -1145, -716, -1015, -1359, 597, -151, -766, 541, 536, 1141, -1174, 989, -48, -1237, -1367, -103, -909, -298}
}
, {{353, -772, 646, -48, 625, -452, 78, -19, 585, 143, -666, -124, 315, 468, 1334, 521, 307, 360, 620, -331, 467, -909, -1130, 427, 76, -468, 20, -1788, 29, -493, -1267, -452}
, {22, -1119, -13, 636, 694, 178, -80, -963, -651, -44, -743, 366, -747, -1322, -822, -498, -654, 1047, -941, 1639, -965, 55, -1174, 829, 300, -785, 306, -1356, -246, -1548, -1930, 213}
}
, {{25, -971, -1106, -917, 1186, 680, -993, -20, 1395, -1255, 521, 648, -421, -1800, -1009, 1334, -1097, 203, 821, -1433, 728, -1612, 7, -1341, 359, -1130, -378, -453, 346, -1162, 863, 302}
, {-47, -1423, 302, 938, 738, -2272, -81, 245, -518, 471, 115, 1195, -2318, -2330, 663, 1293, -685, -212, -405, -615, -2173, -387, -1399, -652, 497, -738, 48, -305, -2213, 772, -181, -690}
}
, {{-2262, 26, 573, -208, -553, -1758, -370, -1504, 589, -111, 62, 972, 518, -2079, -892, -186, -891, 438, 148, -63, -1073, -2745, 42, 204, -282, 145, 1222, 425, -20, 803, 874, 71}
, {-1251, 903, -898, -1036, -361, -1625, -1554, -2952, 1316, -74, 1301, -1823, 1026, -1401, -1503, 763, 404, -1221, 734, -782, -614, -1489, -1740, -99, 383, -986, -1264, 155, -858, 717, 952, 1637}
}
, {{-324, 422, -590, 898, -1433, -1674, -2268, 215, -160, -1314, -246, 148, 316, -1762, 640, -1405, 888, 551, 925, 1081, -642, -444, -1561, 814, -886, -24, 1083, -860, 123, 548, -1123, -1728}
, {-873, 651, -445, 542, -1478, -820, 17, 242, -34, 217, 1403, 126, -234, 230, -555, 1363, 802, -1815, -1665, -430, -2243, 92, -1214, -831, -294, 75, -577, 95, -1324, -576, -1644, 205}
}
, {{-1747, 642, 150, -922, -1025, 236, -879, -937, -1626, -699, -789, 418, -356, 98, -594, -379, -827, 452, -1063, 412, -618, -2323, -37, 954, -1013, 900, 1132, -784, -319, 502, -1401, 352}
, {-2313, 233, 201, 890, 570, -429, -746, -155, 398, 49, -1312, -873, -1648, -1574, 734, -77, -883, -617, -1573, -869, -222, -2389, 765, 295, 456, 1208, -1371, -451, 367, 987, 63, 302}
}
, {{-23, 1042, 796, -1378, -1205, 304, -291, -1940, -407, 120, 18, -4, -296, -1247, 276, -1182, -1501, 760, -1042, 129, -934, -977, -1703, -1563, -753, 1043, 387, -630, -1496, -1714, -618, -1784}
, {-27, 853, 704, 481, -1172, -1037, 627, -856, -1086, -1215, -1158, -1539, -986, 1285, -1221, -719, -1686, 902, -1130, -8, 795, -1231, -1733, -357, 856, 1330, 266, 458, -1090, 755, -1116, 721}
}
, {{-697, -332, -862, -386, -823, -1597, 104, -941, -660, 883, 462, 3679, 105, -290, -395, -294, -593, -1443, -827, -366, -1215, 708, -1194, 976, -1334, 267, 238, -1888, -2016, -1366, -716, -72}
, {135, -1689, 794, -239, -512, -2032, -1962, -646, -953, 1239, -1101, 3927, -1836, -2642, 1658, -1015, 576, -800, -118, 0, -1341, -2242, -95, 1058, -85, 1181, -1243, -114, -1359, -488, -120, -94}
}
, {{-1450, -768, -401, -192, 175, 968, 375, -1595, 1198, 16, 746, 252, -1016, -558, 673, 766, 867, -615, -630, 826, -700, -251, -160, -127, -587, -687, -774, -833, 142, -661, 667, 430}
, {605, -60, -1692, -1771, 132, 203, -1107, -454, 1442, -1216, -205, 898, -650, 35, -659, 618, -531, -1247, 245, -1127, -992, -991, 432, 769, 1232, -12, 279, -257, -1713, -1216, -543, -402}
}
, {{-1190, -78, -930, -211, 1166, -1240, 474, 226, 130, -212, -1189, -884, -415, -372, 703, -93, 774, 630, 72, 1463, -862, 739, 75, -1072, 703, 1351, 628, -1465, -478, 1039, 693, 1487}
, {-367, -1453, 425, -960, 1369, -1830, -83, -1110, 639, 158, -295, 1435, -986, 1313, -608, -775, -1271, 1032, 484, -488, -987, -724, 464, 1578, 1898, -341, -478, -391, -641, -222, -1042, 1182}
}
}
;

#undef INPUT_CHANNELS
#undef CONV_FILTERS
#undef CONV_KERNEL_SIZE
#undef CONV_GROUPS