/**
  ******************************************************************************
  * @file    weights/conv1d.cc
  * @author  Pierre-Emmanuel Novac <penovac@unice.fr>, LEAT, CNRS, Université Côte d'Azur, France
  * @version 1.0.0
  * @date    24 march 2020
  * @brief   Template generating plain C code for the implementation of Convolutional Neural Networks on MCU
  */

#include <stdint.h>

#define INPUT_CHANNELS    16
#define CONV_FILTERS      32
#define CONV_KERNEL_SIZE  2
#define CONV_GROUPS       1


const int16_t  conv1d_14_bias[CONV_FILTERS] = {-190, -737, -154, -249, -133, -957, -290, -266, -852, -247, -246, -261, -217, -311, -301, -2828, -4, -250, 225, -636, -142, -130, -371, -150, -103, -208, -1373, -241, -495, -160, -208, 525}
;

const int16_t  conv1d_14_kernel[CONV_FILTERS][CONV_KERNEL_SIZE][INPUT_CHANNELS / CONV_GROUPS] = {{{487, -7, -986, -985, -662, -1138, -328, -1174, -718, -1155, -781, -718, 80, -491, 330, -1173}
, {-893, -690, 237, -327, -156, 761, -1242, -173, 582, -289, 485, -185, -187, -214, -1031, 147}
}
, {{-342, -43, -642, 1312, -940, -60, -828, 93, -452, 979, 2202, -402, -559, 3266, -701, 134}
, {-1526, -659, 790, 1057, -454, -1593, -896, 195, 397, 570, 2015, 825, -402, 2197, -758, -680}
}
, {{-1016, 61, 698, -299, 4, -71, -899, -591, -530, -828, -1042, -247, 493, -273, 178, -303}
, {-702, -776, -423, 182, 491, -237, -826, -629, -288, -278, 2, -783, 740, 489, -1166, -1011}
}
, {{-759, -323, 516, 679, -849, -611, 25, -418, -648, -366, -921, -578, -866, 248, -44, -1074}
, {561, -589, 733, 534, -352, -924, 93, 278, 383, -734, -882, -155, 566, 353, -522, -383}
}
, {{-843, 60, 699, 232, 668, 680, 332, -227, -216, -371, -729, 905, 743, 517, 334, -908}
, {545, 494, -853, 636, -798, -188, -474, 106, -581, -129, -186, 404, -652, -881, -912, -139}
}
, {{229, 93, -977, -1615, 903, 430, 209, 804, -471, -119, 68, -969, 701, -598, -947, -345}
, {-379, 332, 769, -598, -314, -386, -1440, -277, 301, -9, -628, -527, 939, -899, -448, -227}
}
, {{4102, -384, -288, 1577, 3361, 2190, 611, -1117, 2400, 623, 977, 298, -1223, 256, 3914, 4835}
, {2183, -258, -210, -32, -1348, -1086, -970, 982, 1345, 1096, -758, -1246, 266, 161, -1332, 1098}
}
, {{-23, 734, -781, 699, -829, -1265, -909, -732, -789, 320, -487, -827, -784, -540, -262, -350}
, {-111, -1109, -473, 687, -1520, 131, -1672, -266, -176, -1053, -621, 638, -1354, -830, 479, -321}
}
, {{-354, -773, 942, -160, -1360, -1372, -577, -862, -1532, -786, -528, 383, -384, -1000, -190, -920}
, {-1246, 848, -362, -700, -864, -316, -727, -797, -1081, -117, -1214, -822, -969, -508, -1041, -321}
}
, {{-237, -923, 37, 177, 492, -190, -1075, 116, -983, 295, -777, -505, 696, 105, -1149, -940}
, {259, 0, 890, 193, -568, 551, 385, -482, 226, 227, -389, 240, 416, 495, 381, -83}
}
, {{365, -709, -539, 731, -1180, -296, -716, -487, 761, 1057, -417, -319, -46, -360, -424, -713}
, {397, 93, -541, -44, -547, -1225, 343, -455, -192, 679, -849, -362, 737, 294, 3, -1070}
}
, {{3281, -1194, -1040, -373, 1323, 835, 75, -2129, 1327, 317, -492, 197, -2881, -2312, 2481, 2383}
, {4001, 1206, -888, -297, 1266, 2246, 59, -2582, 3353, -806, -436, 1075, -2343, -930, 1042, 741}
}
, {{2698, -898, 259, -1027, -721, -577, 316, -333, 462, 539, -974, -1296, 574, -594, -944, 639}
, {3740, -789, 2, 2300, 2721, 1065, -359, -3717, 4900, 647, -600, 270, 590, -1277, 2586, 3363}
}
, {{3533, -2770, 232, -2986, -151, -865, 1394, -14, 418, 523, -1597, 862, -816, -433, -628, 1236}
, {3749, -90, 970, 4007, 3679, 2491, 229, -1982, 3317, 130, 276, 439, -1887, -221, 3589, 4349}
}
, {{-790, 806, -727, -310, -557, -88, -511, -318, -1763, -208, -368, 320, 434, 44, 8, -1588}
, {358, -190, 561, -771, -1014, -54, -877, -885, -1467, 471, -245, 321, -115, -243, -459, -940}
}
, {{-3468, 1407, -814, -303, 1873, 2127, 2494, 4093, 460, 100, -741, 192, 664, -6743, 666, 2079}
, {1770, 2568, 27, 766, 552, 1286, 3330, 2412, 2755, 509, 591, 569, 450, -236, 547, 2158}
}
, {{-425, 196, -1006, 3584, 2110, 1574, 442, 3463, 3464, -288, 3663, -232, -136, 3359, 2130, 1058}
, {377, 1230, 560, 849, -438, -1214, -4421, -3238, 271, 734, 1252, -932, -348, -382, 91, -2879}
}
, {{2383, -850, -547, 1380, 2597, 852, -66, -891, 2843, -550, 7, -38, -2086, -2424, 2783, 4155}
, {4978, -420, 746, -84, -468, -1550, 2456, -210, 992, -353, -3095, -800, -1633, -2078, -287, 183}
}
, {{-838, -1643, 125, -1333, 724, 373, -3278, -4313, -626, 53, 283, 757, 252, 1402, -1652, -1464}
, {-973, 729, 112, -562, -99, -308, 2056, 5074, -400, -184, -2267, 685, -1199, -164, -452, 1148}
}
, {{-321, 118, -196, 97, -705, -1492, -1008, -1741, -1150, 981, 509, 754, 263, 53, 55, -1412}
, {958, 885, -695, -508, 1072, -1101, 1326, -306, -830, 82, -1277, 382, -788, -29, -529, 714}
}
, {{-446, -1595, 377, 2138, 2250, 1269, 1296, 3361, 3711, -299, 720, -663, 1032, 4645, 658, 1883}
, {-2746, -180, -1067, 317, -1794, -537, -1224, -5507, -192, 1002, -1837, 156, 801, 4605, -2611, -2145}
}
, {{2449, -1539, -289, -3556, -217, -1167, 3168, 4055, -1704, -614, -7371, 860, 657, -395, 743, 2257}
, {975, -209, 303, -5045, -837, -1990, 1214, 4119, -86, 233, -3593, 226, -1081, -1992, 357, 2691}
}
, {{-295, -741, -1063, 3429, -170, 191, -117, -1222, 394, -323, 2722, 432, 459, 2855, -103, -856}
, {1168, 145, -801, -5252, -659, 584, 92, 2136, -2367, -759, -3415, -588, -440, -4854, 340, 102}
}
, {{3103, -155, -489, 419, 1044, 107, 3450, 2245, 1595, 455, -3841, 592, -1827, -1635, 1310, 2445}
, {2081, -728, -209, 2069, -1338, 31, 4098, 1916, -173, -808, -2819, -32, -1726, -365, 418, 1938}
}
, {{-1554, 2173, -707, 3183, 1515, -1784, -1344, 385, -850, -206, 6086, -1090, -117, -2009, 111, 1606}
, {-285, 2310, 739, 5323, 646, -2232, -1846, 1278, -3359, 126, 4788, -617, -860, -1853, 112, 1751}
}
, {{1418, -1255, -310, 2876, 3956, 759, -450, -872, 1099, -152, 108, -311, -819, -1302, 3551, 4089}
, {1939, -467, -852, 120, -702, -1294, -1118, 951, 805, -166, -813, 1029, -622, -70, -772, 903}
}
, {{1696, 297, -767, -1023, 1214, -569, 3449, 4740, -934, 645, -4074, -1261, -51, 3128, 1714, 2334}
, {691, -1232, -1034, -2542, 1812, 952, 2357, 6003, -459, 741, -3911, -1316, -441, -1248, 434, 2308}
}
, {{826, -863, 522, 1199, 2308, 1192, -142, 572, 2387, -164, 245, -14, -81, -2439, 1918, 2657}
, {2892, 1655, 183, -1509, -68, 589, 799, 86, 296, 846, -305, 49, 613, -1758, 571, 1761}
}
, {{69, -774, 351, -184, -173, -95, 31, -449, 105, 873, -369, 941, -598, -713, -709, -43}
, {705, 441, 113, 718, -267, 437, -1089, -455, -318, -680, -90, -427, 525, 3, -433, -256}
}
, {{1422, -206, 1214, -2355, -570, -614, 110, -566, -129, 914, -866, -1367, 29, 1206, -848, 1860}
, {1834, 307, -521, 3138, 3458, 2090, -2263, -3064, 3668, -173, 2308, -114, 124, -1066, 2683, 2790}
}
, {{1458, -1615, 441, 2564, 4046, 2342, -2124, -2815, 2238, -414, 2263, -345, 312, -908, 2366, 4506}
, {-755, -231, 140, -2074, -348, 45, -1155, -1314, -816, -430, -46, -995, 421, -828, -130, -98}
}
, {{482, -2098, -37, -2043, 2557, -1145, -18, -1971, -2, -330, 508, -557, 1470, -830, 356, 1104}
, {-313, -53, 500, 1992, 2496, -813, -899, -3905, 721, 562, 2113, 362, 46, -414, -173, 713}
}
}
;

#undef INPUT_CHANNELS
#undef CONV_FILTERS
#undef CONV_KERNEL_SIZE
#undef CONV_GROUPS