/**
  ******************************************************************************
  * @file    weights/conv1d.cc
  * @author  Pierre-Emmanuel Novac <penovac@unice.fr>, LEAT, CNRS, Université Côte d'Azur, France
  * @version 1.0.0
  * @date    24 march 2020
  * @brief   Template generating plain C code for the implementation of Convolutional Neural Networks on MCU
  */

#include <stdint.h>

#define INPUT_CHANNELS    16
#define CONV_FILTERS      32
#define CONV_KERNEL_SIZE  2
#define CONV_GROUPS       1


const int16_t  conv1d_22_bias[CONV_FILTERS] = {-246, -46, -368, -923, -270, -322, -421, -57, 345, -3708, -353, -64, -1328, -345, -148, 558, -635, 2, -532, 545, -3212, 593, -432, -99, -262, -334, -258, -275, -201, -751, -174, -231}
;

const int16_t  conv1d_22_kernel[CONV_FILTERS][CONV_KERNEL_SIZE][INPUT_CHANNELS / CONV_GROUPS] = {{{-75, -681, 45, 729, 384, -548, 108, -616, 88, -883, -519, -736, 425, 691, -617, -1017}
, {-1068, -747, -672, 354, -25, 566, -523, -600, -555, -817, 28, 683, -169, -117, -943, 332}
}
, {{-589, 1004, -674, 798, 494, -882, -690, -469, -401, -1238, -677, -532, -771, -247, -948, 860}
, {-430, 704, -1123, 3583, 2865, -1572, -568, -102, -956, -522, -1196, -772, -507, -72, 3270, 1416}
}
, {{-894, -712, 360, 178, 336, 593, -508, -727, -944, -659, 337, -643, 59, 201, -1145, -500}
, {-346, 934, -999, 739, 683, -492, 661, 17, 878, -560, 139, -447, -954, 66, -1301, -922}
}
, {{531, 97, -29, 1476, 664, -1135, -1440, -204, 832, -1656, -1499, -84, -562, -1296, 379, 913}
, {-1563, -664, -685, -31, -550, -1057, -1186, 1001, -499, 309, -1296, -458, -207, -927, 65, -2154}
}
, {{302, 313, -535, 244, -463, -611, -326, -762, 81, -215, 485, -742, 148, -424, -716, -357}
, {-301, -805, 720, 736, 733, -999, 818, -578, -498, -745, -1133, 989, -1004, -116, -876, 62}
}
, {{4985, 916, 127, 2274, -1780, 4613, 1328, -817, -241, -3527, 3530, 112, 2412, 3687, 2156, 870}
, {1913, -280, -154, -586, -1681, 1840, -470, 730, 710, -3787, 1551, 663, 970, 274, -1890, -1853}
}
, {{-343, 564, 345, -5163, -1354, 2121, 1859, -149, -844, 2660, 2205, -357, 2081, 2424, -5936, -3791}
, {-1253, -383, -678, -3787, 2227, 1014, 1459, -1108, -931, 1914, -326, 236, 401, 2563, -4944, -1928}
}
, {{-1410, -347, -97, 498, 2528, 571, -582, 2164, 68, -1430, -1077, -241, -693, -975, 982, 2392}
, {-1916, -497, -675, 602, 1165, 83, 13, 931, 34, -1353, -1150, -765, -1626, -1380, 876, 1505}
}
, {{-2707, -281, 544, -882, 839, -997, -1494, 312, -377, -849, 30, -613, -587, -1736, -1174, 177}
, {-2742, -654, 647, -3041, 680, -256, -1090, 1112, 436, -2076, -863, 561, -1254, -901, -3245, 254}
}
, {{-563, 390, 367, 2474, 4151, -1368, -1279, 137, 54, 855, -930, 372, -1104, -214, 2318, 1367}
, {561, 980, 953, -1424, 950, 1630, 1833, -285, -527, 2316, 626, -688, 1351, -453, -64, 5113}
}
, {{2832, 805, 760, -1434, -2659, 5316, 1428, -171, 318, -4860, 3144, -308, 2195, 2332, -1741, -3506}
, {3853, 30, -445, 164, -1463, 3106, 1207, -1027, 603, -5421, 2547, -904, -192, 1476, 945, -132}
}
, {{213, 599, -342, -428, -110, -1181, 201, -718, 108, -493, -1213, -619, -441, 813, 326, -283}
, {-1059, 658, 576, 55, -469, 251, -909, 62, -656, -409, 731, 296, 103, 2, -1088, -291}
}
, {{1247, 235, -302, -3866, -2273, 853, 349, -111, 837, 398, 1828, 740, 1108, 1143, -3699, -1721}
, {1369, 264, 180, -4630, -2758, 1251, 1161, 1094, 649, 2154, 801, -958, 1147, 2707, -6985, -4563}
}
, {{-101, 799, -138, 544, -1458, -588, -1541, -1498, 1, 22, -1159, -313, -596, -1383, -916, -570}
, {-1680, -750, -958, -423, 424, -434, -894, -424, 480, -960, -349, -349, -188, 360, -543, -268}
}
, {{1809, 1365, -793, -3173, -1586, 3139, 743, 289, 847, -4839, 541, 378, -166, 2475, -1936, -4618}
, {3997, 467, -540, 191, -2365, 4905, 2049, -401, -158, -6103, 3269, -1009, 2411, 3631, -774, -1324}
}
, {{-1405, -262, 742, -1044, 725, -2245, -443, 491, -138, 1133, -992, 80, -860, -1420, -1076, -46}
, {-1194, 47, 631, -64, 1008, -2049, -861, 892, 425, 1082, -1831, -413, -1103, -481, -998, -229}
}
, {{-1002, -426, -580, 359, 953, -355, -526, -349, 620, -550, -705, -638, -1351, 493, 205, -796}
, {-1280, 95, -845, 176, 813, 377, -92, -375, 994, -431, 106, 597, -1460, -863, 653, -773}
}
, {{-820, -1025, 15, 279, 163, -501, -1074, 460, 480, 945, -450, -788, -319, -1950, -956, 1066}
, {-716, 634, -264, 742, 911, -1242, -1201, -875, 635, -957, -1658, -185, -831, -668, -1026, -347}
}
, {{-494, 290, -310, 3535, -2498, -1096, 571, -68, -920, -5875, -890, -660, -1633, -1785, -1564, -1454}
, {1353, 721, 179, 3560, 776, 3, 1080, -1362, 778, -2821, 210, 18, 364, -865, 3841, 2621}
}
, {{-1614, -746, -915, -91, 486, -1147, -1421, -1023, -181, 1649, -1682, -632, -431, -2290, -1337, -1015}
, {-543, 314, -891, -572, -54, -1509, -2024, 664, -161, 389, -1192, 141, -1394, -1506, -1073, -643}
}
, {{379, 30, -233, 2462, 325, 1619, 328, -424, 650, 1313, 1302, -941, 256, 1365, 1526, 3526}
, {1812, -45, -66, -370, -219, 1710, 992, 814, -89, 1102, 158, -711, 1370, 1521, -1073, 2897}
}
, {{-358, 105, -347, 283, -1430, -1346, -800, -1145, 429, -3185, -1558, 977, -1162, -2083, -4637, -5319}
, {-20, 278, 806, -1509, -2809, -1426, 561, -660, -532, 4658, 240, -819, 1325, -716, -1272, -3723}
}
, {{-1155, -343, 1092, 748, -547, -1564, -1126, -712, 732, 661, -358, 779, -945, 402, -1557, 1296}
, {-1241, -813, -566, -802, -787, -1682, -640, 756, -117, -174, -247, -137, -1195, 466, -1001, 1158}
}
, {{1147, 282, 737, 4403, 3871, 3324, 3713, 214, 840, 895, 2952, -1037, 1815, 2773, 5515, -1262}
, {-4177, 1242, -446, 1402, 851, -3298, -2964, -809, -240, -6976, -5289, -833, -2578, -1126, 2857, -557}
}
, {{-660, 842, -875, -825, 403, 430, -1379, 66, 477, -366, -566, -74, -1064, 709, -650, -678}
, {136, 541, -565, 458, -375, 203, -1438, 862, 170, -640, 399, 192, -225, 229, 856, 259}
}
, {{4594, 1332, -380, 227, -1003, 1047, 975, 423, 284, -4565, 3089, 741, -114, 297, -1185, -2606}
, {2528, 824, 833, 2187, -2226, 3344, 2549, -128, -126, -4464, 2328, -994, 2643, 3018, 430, -142}
}
, {{-2315, -474, -85, -3479, 2614, 249, 1549, -195, 241, 2812, -909, -539, -1084, -85, 687, 2023}
, {1618, 213, 810, -2031, 600, -856, -737, -421, -135, -6268, 765, -143, -2045, -1905, 446, 3355}
}
, {{-329, -294, -37, -727, 700, -889, -391, -219, -594, 250, 284, -981, 692, -912, -1472, -633}
, {-1383, -327, -13, 126, -1127, -882, -440, -235, 934, -981, -237, -674, -1029, -578, -509, -11}
}
, {{-1398, 903, 441, 1025, -401, -473, -1774, 951, 425, 292, -1779, 36, -1713, -599, 297, -667}
, {-264, -73, 303, -159, 887, -931, -600, 577, 232, 72, -1770, -1037, -1488, -188, -155, -765}
}
, {{-1905, -535, 367, 35, -655, -1269, 50, 224, 628, 2501, 352, -334, 133, 75, -1041, -3736}
, {-311, 1618, 736, -360, 3341, -1207, -1834, -30, -46, -153, -1745, -6, -1503, -1769, 2440, 3580}
}
, {{1464, 1149, 690, -1482, 1930, 1269, -12, 280, 56, -6495, 1896, 397, 367, 1805, 1289, -1743}
, {2697, 915, 23, -236, -555, 5410, 1969, 895, 675, -5322, 3653, -151, 1038, 4192, 200, -2537}
}
, {{3642, 549, 94, 722, -1033, 2679, 2423, 698, -154, -2093, 3290, -827, 2150, 2806, 59, -4148}
, {2249, 539, 786, -1233, -416, 2986, 1426, -312, -757, -1608, 2090, 869, 1496, 2424, -1207, -2436}
}
}
;

#undef INPUT_CHANNELS
#undef CONV_FILTERS
#undef CONV_KERNEL_SIZE
#undef CONV_GROUPS