/**
  ******************************************************************************
  * @file    weights/conv1d.cc
  * @author  Pierre-Emmanuel Novac <penovac@unice.fr>, LEAT, CNRS, Université Côte d'Azur, France
  * @version 1.0.0
  * @date    24 march 2020
  * @brief   Template generating plain C code for the implementation of Convolutional Neural Networks on MCU
  */

#include <stdint.h>

#define INPUT_CHANNELS    16
#define CONV_FILTERS      32
#define CONV_KERNEL_SIZE  2
#define CONV_GROUPS       1


const int16_t  conv1d_49_bias[CONV_FILTERS] = {721, -3795, -228, -512, -345, 116, -199, -127, -500, -492, -491, -1021, 5, 116, -493, -463, -1514, -83, -2023, -504, -250, 323, 162, -261, -947, -491, -609, 32, 78, -1195, -228, -1791}
;

const int16_t  conv1d_49_kernel[CONV_FILTERS][CONV_KERNEL_SIZE][INPUT_CHANNELS / CONV_GROUPS] = {{{-596, 606, -6708, -8310, 2124, 1548, -9573, -6216, -331, 6174, 8207, 677, -3447, -6985, -181, -10070}
, {2241, 135, -5314, -5436, -645, 1270, -4769, -9061, -1124, 4705, 7174, 645, -3123, -6578, -348, -6918}
}
, {{-223, -1197, 774, 1193, -1862, 481, 2663, -10182, 796, -14882, 6262, 1029, 1619, 1681, 618, 2955}
, {-1659, -1030, 4164, 3794, 500, -1553, 3563, -4949, 1651, -8168, 2135, -856, 3571, 3442, -1230, 973}
}
, {{2013, -189, -2086, 401, -451, 51, -1422, 869, -1707, -2268, -1006, -1559, -1670, -681, 1301, 689}
, {1875, -1439, 1225, -20, 1002, 1353, 431, -799, 478, -1701, 116, 1892, -760, -1981, -326, -245}
}
, {{-870, -1545, -109, -1968, -616, 375, 489, -463, 926, 159, -774, -1024, 839, 317, 779, 789}
, {1747, 915, -2519, -39, 330, -1668, -306, 655, 451, -1510, 2037, -1726, -990, -2043, -266, -1116}
}
, {{-552, 493, -2092, -425, -1037, 80, 391, -1627, 1526, -496, -1699, 780, -1848, -1864, 892, 602}
, {330, 1702, -1389, 1273, 168, 471, -2091, -870, 678, -1704, -1190, -1625, -648, 1297, 1714, -1451}
}
, {{372, 1482, 3986, 3645, -1358, 665, 4851, -256, 2093, -2994, -3189, -89, 1278, 400, -1426, 1319}
, {2099, 1235, 2813, 2359, -2334, 971, 479, -737, -1191, 229, 3226, 1106, -883, 1510, -12, 4437}
}
, {{-36, -1484, 841, -1933, 2753, -1146, -1164, 909, 174, 994, 6382, -749, -3015, 1044, 754, 288}
, {-1234, 2252, 5218, 2022, 394, -1487, 4943, -1245, -154, -4171, 3840, 1205, 4353, 5255, 1974, 4304}
}
, {{-940, -1758, -2292, -3717, 1836, 819, -5891, 3780, -840, 5735, 20, -318, -3502, -7219, 712, -4343}
, {-1863, 456, -7199, -9067, 375, -57, -6538, -1282, 956, 7435, -976, -880, -7252, -9536, -1551, -6656}
}
, {{693, 8, -1794, -1056, 772, -2059, 1244, 803, 473, -1447, 987, -329, 1045, -1530, -174, -1493}
, {-1065, -1987, 290, 1150, -3, -1832, 1128, -1319, -267, -707, 151, -1963, 565, -2008, -742, -749}
}
, {{-1299, 230, -1716, 1353, 1624, -216, -1558, -1460, 1575, -1102, -1571, -213, -1778, 67, -1126, -399}
, {49, 563, -198, -363, -439, 269, 965, 1845, -1519, -1246, -1719, 172, -785, 506, 93, -2392}
}
, {{1138, 1683, -1761, -435, -1551, 340, -1816, -240, 1628, -1760, 200, -104, -1170, -1237, -1952, -252}
, {826, 785, -528, -1301, 1497, 1556, -1154, -834, -912, -940, -1684, -1982, 136, 285, -587, -306}
}
, {{-1301, -241, -1596, -2699, 2086, 1299, -2476, -1787, 1088, -1032, 16571, 1124, -753, -3823, 1627, -2892}
, {1627, 735, -1088, 125, 900, 416, 623, -1453, 751, 159, 19385, -165, -1270, 1102, 1343, 714}
}
, {{229, 1419, 1987, 4590, 2396, 1002, 5062, -1254, -203, -1641, -1257, 1073, 901, 3578, -197, 3989}
, {759, -55, 2333, 4501, 1709, -192, 2704, 264, -1419, -637, -916, -1515, 1797, 4458, 455, 4587}
}
, {{2034, 1572, 5915, 4722, 2531, 1553, 4375, 7, -689, -1262, -5159, -1057, 3027, 5045, 1796, 2650}
, {402, -849, 1485, 4168, 1029, 1196, 5090, 2411, 968, -1654, -2476, 1634, 2618, 3737, 413, 4059}
}
, {{-616, -1162, -5377, -4655, -92, 1416, -5160, -776, -325, 3855, 12463, -1823, -4710, -4361, 1692, -4045}
, {300, 656, 5202, 4872, -488, -2049, 5685, -6292, 1274, -2981, 24258, 5, 4519, 4217, 1176, 6866}
}
, {{-1200, -1992, -929, 346, 1791, -1827, -727, -89, -342, -1340, -672, -508, 1061, 379, -1889, -1763}
, {-879, 1001, -1467, -530, 418, 99, -1924, -874, -688, -61, -1352, 807, -68, 769, 789, -1804}
}
, {{-242, -462, -855, -1024, -1662, -1116, -1090, 582, -1184, -970, -2055, 1455, -1498, -2825, -815, 1105}
, {-2251, 1238, 1353, -1098, -965, 1067, 449, 1654, -423, -1147, -1705, -1927, 1345, -2843, 1173, 955}
}
, {{-841, 680, 120, -2106, -1393, 1405, 522, 478, 2147, -1055, -1777, -844, -2053, -1682, 577, 327}
, {607, -362, -1872, 617, 1028, 2156, 1369, 188, 2324, 158, 491, 2114, -527, -133, -1617, -1605}
}
, {{345, 763, 1026, 1476, -2631, -1550, 2736, -3786, -1075, -7720, 9743, -1768, 3048, 2052, 216, 622}
, {-1664, 551, 4601, 4933, -2001, 815, 4077, -8970, -1747, -10043, 11906, 512, 4197, 2841, -507, 4998}
}
, {{-567, 1809, 424, -1599, -388, 1121, 1037, -783, 737, -923, 140, 567, -675, 1988, 456, -1073}
, {1700, 1512, -1241, -1998, 1974, -1097, -1007, -144, -1302, -1389, 875, 2220, -2027, 2164, 1690, -1709}
}
, {{-808, 113, 1132, 1500, 212, -261, 3479, 10501, 2073, -914, -854, -821, 1870, 3245, -117, 1657}
, {-197, -397, 2521, 3543, -1092, -1334, 3523, 10817, 707, 1948, 851, 2242, 285, 3233, -1583, 1060}
}
, {{22, -1700, 2990, 4754, -1961, -1646, 3454, -8424, -506, 4274, 2270, 1450, 5914, 3867, -2083, 3506}
, {1398, -1732, -6642, -5748, -569, 1210, -4988, -8384, -409, 4346, 3434, -1646, -2702, -4678, 292, -6383}
}
, {{-1198, 792, 4827, 3138, 1132, -1164, 5234, -1929, 1453, -1693, -2300, -1141, 1077, 4520, 2047, 3981}
, {203, 299, 3416, 4662, 774, -11, 1456, -192, 1287, -2647, -697, 833, 897, 4910, -272, 5235}
}
, {{-1441, -1910, -2054, 110, 383, -1590, 1078, 1327, -1839, -2590, -231, -2014, -923, 745, -220, 1852}
, {1436, 1581, -1997, -361, 1648, -114, -1898, -887, 412, -851, -1538, -229, -1111, -1095, -1641, -742}
}
, {{-973, 1035, -1209, 1626, 340, -1655, 741, 592, -2273, -1331, 494, 1545, -862, 1402, -614, -1487}
, {88, -1324, -273, 31, -218, -747, 858, 384, -110, -331, 169, 719, -770, 146, -447, -1034}
}
, {{-1879, -1462, -403, -624, 1529, 1623, -1825, -1849, -620, 108, 986, 532, 1555, -1186, -867, 403}
, {-622, -671, -1789, -1964, -1947, 1560, 1159, -1052, -367, -1950, -466, 1300, 195, -161, 1166, -250}
}
, {{-891, -1774, -88, -2328, 1040, -2022, -2218, 1766, -746, -1237, -1827, 1617, -2076, -2622, 737, 491}
, {396, 283, -1659, 477, -1478, -1526, 745, -2143, -977, -2051, -76, 842, -1699, -1986, 29, -1048}
}
, {{-44, -771, 4455, 2993, 2239, -885, 5113, 1347, -724, -1637, -4745, -782, 1234, 1745, -1050, 3112}
, {885, -1926, 1057, 2802, -600, -271, 3000, 1263, -1359, -320, -796, 70, -310, 3703, -1973, 3399}
}
, {{2164, -1347, 5516, 4050, 873, 205, 3734, 4520, -1192, 309, 2499, -690, 2260, 2374, 508, 1620}
, {808, -1563, 2175, 4594, 2033, 1518, 5023, -1904, -1233, -3321, 5426, -153, 2247, 3333, 89, 5546}
}
, {{-656, 353, 3419, -447, -883, -38, 3308, 783, 855, -1499, 11917, -1418, 1421, 3451, -674, 4540}
, {-584, -1458, 3638, 2940, 2022, 625, 2696, -12548, 306, -6210, 9952, 1124, 2827, 4979, -586, 4506}
}
, {{-1121, 566, 156, -1351, 2214, -534, -239, -71, 1234, -289, -90, 407, -247, -1489, -1438, 1239}
, {-21, 2395, -1768, -2100, 1439, -400, 96, -944, -1015, -2100, 514, -133, 970, 938, -1325, 1094}
}
, {{1187, 507, 547, -2326, 551, -21, -184, -1199, 313, -1583, 162, -649, 455, -1384, -25, -628}
, {-1584, -456, -3255, 25, 338, -460, -1489, -190, 432, -1263, 1240, -176, 678, -307, -1271, -797}
}
}
;

#undef INPUT_CHANNELS
#undef CONV_FILTERS
#undef CONV_KERNEL_SIZE
#undef CONV_GROUPS