/**
  ******************************************************************************
  * @file    weights/conv1d.cc
  * @author  Pierre-Emmanuel Novac <penovac@unice.fr>, LEAT, CNRS, Université Côte d'Azur, France
  * @version 1.0.0
  * @date    24 march 2020
  * @brief   Template generating plain C code for the implementation of Convolutional Neural Networks on MCU
  */

#include <stdint.h>

#define INPUT_CHANNELS    16
#define CONV_FILTERS      32
#define CONV_KERNEL_SIZE  2
#define CONV_GROUPS       1


const int16_t  conv1d_110_bias[CONV_FILTERS] = {-137, 61, 616, -94, -1492, -525, -310, -492, -1688, -1250, -2203, -276, -1890, -372, 215, -494, 1004, -155, -1805, -1179, 305, 2749, -1357, -1113, 66, -1087, 1033, -444, 1035, 1101, 2611, -897}
;

const int16_t  conv1d_110_kernel[CONV_FILTERS][CONV_KERNEL_SIZE][INPUT_CHANNELS / CONV_GROUPS] = {{{-1051, 26, -1253, 622, -490, -1134, 583, -1323, 1474, -77, 1142, 324, -19, -1222, -1399, -1465}
, {-720, 27, 517, 1168, -2347, -377, -1608, 955, 600, -2379, -2034, 640, -55, -1739, 1356, 1798}
}
, {{-3825, 1553, -1993, 634, 2282, 7588, -3967, 1080, -1453, 2828, -840, -1320, -660, 2744, 861, 3894}
, {183, -5061, -182, 1461, -4114, -6057, 7119, -1529, 493, -2835, -13001, 1165, 379, -5761, 67, -3724}
}
, {{1825, -907, 6929, 986, 2100, -4440, -346, -594, -1910, 2102, -2236, 642, -1292, 1523, -1160, 1700}
, {-2684, 2996, 3646, -59, 372, -4972, 3298, -1232, -993, -656, -5643, 696, -1681, 953, 748, 3413}
}
, {{-7030, -2996, -220, 1736, -4070, -7786, -6407, -2005, -71, -587, -9998, 2566, 1876, -4614, 920, -1238}
, {-6432, 3362, 4266, -1543, 1503, 4921, -4531, -1104, 579, 2644, -9182, 1886, -1007, 2933, -730, 3173}
}
, {{1133, -3220, 1227, -689, -3170, 1365, 940, -639, -128, 237, -2373, 673, -1968, -1728, 1971, -1152}
, {1070, -1691, -1659, -1868, -1131, -1893, 1850, -1383, 1306, -3399, 582, -437, 1606, -2427, -412, -1763}
}
, {{1060, 1598, -796, -442, -2436, -1951, 402, -124, -1907, 698, 1209, -1646, -1500, -1344, 635, 308}
, {-1103, -2473, 596, -1622, 922, -687, 1462, -1385, 1502, 14, -3005, -1692, 640, -556, 1655, -2355}
}
, {{776, -2380, -159, -1839, -1745, -1764, -1488, 1312, -844, 724, 158, -1822, 1938, -1114, -1224, 997}
, {-799, -2330, 844, 612, 732, -1777, -1740, 170, -1093, -292, 1186, 1921, -900, 203, -1626, -994}
}
, {{607, -1608, -1634, -164, -1514, -621, -1679, -549, -1102, 741, -457, 1332, 1322, -358, 1751, -1124}
, {627, 5, 1638, -276, -453, -1681, 381, -1950, -1135, 592, 195, -869, 1444, 1418, -1546, -2117}
}
, {{3246, -1989, -36, -859, -541, -2618, -309, -946, 196, -1192, -2550, -426, -464, -1448, 1112, -682}
, {2583, -2326, -539, -891, 1420, 780, 196, -860, -1405, 248, -39, -1598, -1941, -1993, -118, 985}
}
, {{-494, 933, 2107, -1598, 85, 1284, 1263, -4059, 123, -1732, -1553, 2279, 487, -777, -989, 642}
, {1523, -134, -788, -266, -1992, 128, 1094, -1532, 467, 1643, -3401, 1342, -1081, -1327, -854, -42}
}
, {{-3941, -265, -4592, -2068, -1131, -4284, 2746, -1942, 1679, -2450, -4344, 356, 280, -775, -1541, 643}
, {-1245, 723, 3377, 12, 3033, -9852, 1418, -2416, -52, 2092, -3710, 1628, 2404, 1624, 322, 4456}
}
, {{500, -2128, 1202, -1112, -1018, 126, 1642, -2146, 1408, -1045, -1157, 298, -1988, -1452, 450, -2504}
, {1707, 516, 1645, 1307, 408, 469, 415, -2135, -1349, -3555, -1993, -932, 935, 150, -1063, -265}
}
, {{-1104, -2741, -644, 460, -2702, 438, -914, 1732, 1829, -2202, -1564, -297, -828, 417, -782, -917}
, {368, -1586, -83, 1928, -925, -1612, 878, -1015, 584, -4398, -1312, -1493, 168, -2213, 1655, -969}
}
, {{-203, 538, -1171, 1365, -1639, -1847, -1886, -2373, -2044, 233, -1000, -377, 1347, -1697, -426, -767}
, {-1326, -87, -220, -2029, 1273, -27, -434, -107, 65, 859, -227, 439, 254, -2494, -377, -500}
}
, {{-1404, -1361, -5835, 35, -885, -2136, -4384, 996, -1125, -2459, -8697, -1177, -379, 642, -1671, 644}
, {-10613, -2331, -363, 554, -1497, 7064, 4363, -2374, -163, 1755, 6986, -1917, 394, 554, -952, -1925}
}
, {{219, -2471, -1688, 615, -2771, 69, 1681, -490, 1610, -2308, 32, 218, 268, -552, -929, 159}
, {-568, 366, 887, 933, -2066, -1567, 492, -447, -1398, 227, -546, 474, 1072, -1297, 446, -174}
}
, {{-10822, 2460, 127, 1622, 846, 1995, 2888, 1295, 1875, 651, -168, 596, 2918, 758, -333, 3704}
, {-7121, -1721, -1967, 1220, -4644, -8595, -1517, 2455, 1472, -4813, -5316, 382, -1422, -3944, -1254, -6285}
}
, {{-5760, 2153, -10912, -501, 1513, -1842, -5423, -2317, 1313, 2108, -6004, 1128, 635, 474, 96, 2377}
, {-722, -8523, -2967, 81, -7768, 5905, 70, 871, -131, -1963, 5683, -664, -741, -8424, 95, -6871}
}
, {{2128, 343, -2320, -1125, -198, 504, 74, 1356, -1326, -1936, 160, 2502, -1000, -1690, 127, 799}
, {2614, -4, -826, 627, -3037, -2719, -1894, 734, -1861, 1527, -1450, 1633, 56, 535, 1750, -1851}
}
, {{-1299, 824, 326, 1705, 60, 14236, -841, -1563, -143, 1908, 750, -886, 2940, 2118, 347, 1612}
, {3646, 938, 4185, -94, -940, 5908, 305, 1012, -2495, -267, -3320, -1956, 1996, -609, 505, 456}
}
, {{-5523, -4856, 88, 825, -2621, 6299, 5506, -1451, 1448, 458, 5070, -490, 926, -4240, -756, -3164}
, {-707, 1167, -8973, -1271, 2380, -4065, 843, 1078, -670, 729, -6039, -1234, -125, 1688, -268, 2359}
}
, {{-641, -2464, -6593, 1718, -5034, -10264, -275, 305, -1566, -4114, -3254, 1864, 2778, -4164, 1540, -8705}
, {-6532, -57, -15058, 565, -463, 852, 1260, 763, 1285, 1143, -529, 579, 2144, 1211, 655, 287}
}
, {{1511, -405, 1139, 789, -2361, -3149, 536, -1514, 255, -10, -1106, -1399, -1436, -2177, -1678, -501}
, {-529, -210, 914, 2611, -3240, -753, 1672, -2603, -1138, -3533, -2310, -833, -748, -3685, 1372, 264}
}
, {{-563, -677, 1189, 908, -2312, -2247, -546, 438, 1439, -915, 21, -755, 2026, -2374, -1441, -1122}
, {-2127, 290, -1684, -1800, -869, -1525, -708, -2384, -410, -1882, -164, 1948, -1933, 1375, 1377, 229}
}
, {{4113, 1459, 2585, -1867, -1849, 400, 1287, -2063, 1803, 2286, -8546, -1446, 407, 90, 317, -670}
, {-3439, 1472, 3993, 1720, 1885, -4229, 1360, 786, 2042, 1897, 3262, -76, 1278, -626, -1273, 2191}
}
, {{-513, -2338, 1271, -596, -1128, 639, -1351, 1626, -2228, -729, -920, 2350, 1929, -1013, 618, -138}
, {-1934, -2516, -1595, 426, 343, 1291, 1917, -1094, -462, -2829, -2462, 1703, -937, -276, 906, -1593}
}
, {{-2621, 1421, 4762, 104, 1360, -1452, -551, -1015, -52, 554, -8028, -2216, -1752, -609, 1395, 2305}
, {-7139, 1127, 716, 1430, -1200, -4029, 2064, -1562, -995, 1419, -8755, -1948, 269, -1293, 1856, 1602}
}
, {{-1199, -1207, -809, -1491, -881, -42, 582, -2104, 555, -2726, -2000, 268, 1121, -2480, -1184, -1586}
, {1456, 733, 269, -730, 888, -303, -483, 134, 743, 206, -1794, 319, -1010, -610, -1309, -2244}
}
, {{-22, 661, -1770, 1024, 826, -8729, -3251, -2018, -485, -2109, -5858, 1813, -69, -3107, 400, -47}
, {-9616, 1491, 1080, -691, 806, -5124, 255, 931, -2317, 213, -13162, 1909, -158, 1639, -397, 3099}
}
, {{-1211, -3746, -8899, 588, -4127, -2485, -3946, -1280, -954, -5916, 6266, 1060, -1105, -4711, 1074, -3544}
, {1947, -4105, -5998, 1562, -3777, -2076, -9663, -630, -1759, -6622, 6048, -1047, 2756, -6190, 154, -5319}
}
, {{4647, -1576, -1992, -89, -551, 1542, -1575, -2839, 410, -1659, 5531, 119, 2121, -4850, -974, -798}
, {16587, -571, -6064, -1325, -2289, 2104, -576, -2271, -1511, 860, 337, -1513, -179, -5479, 902, -1705}
}
, {{-7631, -1970, -4187, -693, -2575, 6059, -2159, -35, 41, -492, -6328, -2120, -3083, -1237, -286, -2207}
, {-3224, 1426, -389, -1330, 2160, 18245, 118, -76, 615, 3393, 584, 282, -575, 866, -1184, 1479}
}
}
;

#undef INPUT_CHANNELS
#undef CONV_FILTERS
#undef CONV_KERNEL_SIZE
#undef CONV_GROUPS