/**
  ******************************************************************************
  * @file    weights/conv1d.cc
  * @author  Pierre-Emmanuel Novac <penovac@unice.fr>, LEAT, CNRS, Université Côte d'Azur, France
  * @version 1.0.0
  * @date    24 march 2020
  * @brief   Template generating plain C code for the implementation of Convolutional Neural Networks on MCU
  */

#include <stdint.h>

#define INPUT_CHANNELS    32
#define CONV_FILTERS      32
#define CONV_KERNEL_SIZE  2
#define CONV_GROUPS       1


const int16_t  conv1d_23_bias[CONV_FILTERS] = {547, 477, -363, -227, 658, 354, 36, -1212, -654, 2433, 1049, -1265, -780, -620, -335, -567, -340, -146, -122, -102, -219, 636, -276, -699, -256, 142, -586, -886, 242, 183, -262, -782}
;

const int16_t  conv1d_23_kernel[CONV_FILTERS][CONV_KERNEL_SIZE][INPUT_CHANNELS / CONV_GROUPS] = {{{-24, 1450, 160, -98, 146, -1793, 1062, 1292, 1384, -263, -1819, 339, -1540, 653, -943, 1050, -546, -289, -760, 923, -1721, 1575, 1130, 607, -729, -694, 1059, 91, 959, -1156, -1000, -1254}
, {388, 825, 859, 64, 441, 61, -181, 867, -477, -2449, -242, 324, 1265, -333, -870, 971, 265, -1429, -2888, 271, -1156, 1436, 73, -3229, 556, 242, -718, -38, 1363, -1271, -342, 386}
}
, {{-548, 329, 552, 400, -320, 1167, 2965, 943, 32, 348, 1170, -1289, 1765, -105, 1127, 1148, -258, -202, 2742, 1193, 357, 1481, 66, 4908, -690, 1154, 914, -586, 343, 1191, 1063, 214}
, {-215, -2131, -863, 324, 12, -865, -886, -327, -1800, -5357, -1458, -895, -2792, 276, -1776, -460, -231, -266, -2359, 719, -3667, 1510, -2662, 3692, 303, -958, -4336, 156, -815, 201, -999, -811}
}
, {{-18, -1483, 729, 1180, -620, 1641, -874, -43, -203, -4320, 2258, 131, -2202, -418, 1927, -1222, 822, 209, -4377, 368, -3489, -903, 652, 1351, -89, 1641, -774, -542, -147, -1035, 875, 1976}
, {646, 56, -452, 1372, 231, -1377, -466, 143, 1740, -1597, -3101, -152, -2338, 705, -2600, 1904, -333, 1731, 385, 1826, -1933, 1410, 124, 9109, 121, -1747, -1887, -208, -467, -1560, -4013, -2228}
}
, {{615, -590, 738, -879, 183, -1817, 247, -683, 361, -660, -549, 79, -809, 634, -1239, 79, 542, -263, -676, -91, -246, -355, -319, -1407, 153, -894, -1037, -930, -289, 589, -1536, -1742}
, {20, 703, -561, -302, 793, -660, -220, 704, -634, -344, -912, -628, 440, -397, -1111, -260, 14, 1173, -309, 950, -1190, 366, -48, -647, 392, -1192, -302, -939, 396, 1038, -932, -648}
}
, {{-477, 269, -552, -299, -250, -1410, 696, 1118, 1070, -1343, -1997, -343, -2460, -263, -829, 572, -61, -530, 891, 321, -1645, 1202, 595, -3391, 306, -768, 910, -13, 1145, 182, 150, -1779}
, {353, 678, 109, 494, 444, -1063, 60, 1486, 1447, -790, -301, -589, -1555, -267, -995, -246, 446, -35, 215, 886, -1277, 2094, -132, -2629, 344, -1363, 1152, 794, 940, -383, -999, -1173}
}
, {{841, 441, 131, 540, -58, -737, 1661, 1858, -357, -4216, 47, 558, -392, 148, -172, -1822, 627, 463, -2964, 135, -5836, 929, -93, -8040, -821, -545, -1368, -647, -752, 1361, -157, -596}
, {-497, 505, -331, 469, -591, -1067, 3775, 70, -205, -172, -519, 227, 2602, -707, -724, -2465, -274, 1199, -1442, -748, -648, 2937, -484, -6163, 124, -833, -704, 196, -467, 1948, -499, 1326}
}
, {{-358, 766, -188, -897, -632, 1984, -2185, 604, 1598, 1592, 833, 497, -244, 19, 1509, 59, -208, -931, -2652, -1172, 476, -1267, 1100, -3965, 495, 578, 1029, -304, -424, -1237, -59, 2124}
, {-782, -81, 169, -201, -139, 396, -3599, 1263, -196, 1494, 970, -408, -2400, -113, 1487, -185, 1067, 70, -837, -701, -25, -691, 988, -4961, -219, 654, 11, 424, -1213, 196, 1679, 1027}
}
, {{294, 229, 427, -217, -483, -1185, 1338, 831, 2476, -3713, -1519, -175, -46, -282, -515, 1261, 117, 1188, 2408, 2987, -478, 1297, 376, 10122, 842, -802, 1339, 144, -81, -1964, -801, -483}
, {626, -1045, -200, 1258, -374, 1516, -2055, 1452, 1539, -3367, 968, 235, -2086, 96, 1188, -654, 125, -983, 241, 1225, -1087, 1116, 1363, 3632, -193, 1671, 822, 189, -176, -1557, 1128, 681}
}
, {{747, -838, 235, 407, -658, -630, -272, -417, -416, 875, -921, -304, -559, 461, -224, -510, 115, -102, 417, -1277, 851, 58, -732, 289, 602, -406, -736, 356, -623, 320, 145, -1433}
, {-715, -196, -158, -400, 456, -61, -809, 691, 300, -713, -955, 886, 4, -154, -515, -465, -675, -707, 585, -817, -245, 219, -746, -810, 575, -406, -358, -284, -175, -544, -339, -1298}
}
, {{-616, 169, 266, -479, 255, -1065, -1039, 21, -416, 2082, -871, -569, -1124, -793, 656, -221, -562, 480, -1196, 510, -489, 2730, -1601, -9215, 316, -265, -1027, 78, 1580, 807, 255, 1491}
, {220, 995, 190, -602, -455, -407, 2427, 802, -221, -986, -429, 745, 357, -3, 780, 692, -119, 618, 1108, 1389, -410, 1838, -463, 2791, -236, -205, -608, 237, 1205, 1929, -713, 829}
}
, {{-836, 118, -796, 1097, -815, -3745, 2429, 230, -4, -1799, -3943, -543, -150, -456, -3413, -3849, -703, -155, 1743, -3261, -3441, 1830, 799, -4323, 641, -5592, 3599, -207, -207, 898, -4271, -397}
, {14, 265, -50, -275, 283, -224, 2181, 1093, -1177, -1965, 211, -438, -212, 370, -160, -4845, 384, -1318, 1077, -4255, -2734, -2341, -494, -3106, -297, 255, 4037, 203, 70, -331, -552, 863}
}
, {{-276, -609, 711, -604, -267, -1767, -497, -237, -532, 631, -1163, 325, -1059, -241, -1481, -1482, 636, -84, 755, -118, -40, -1375, 35, -1580, -374, -391, -925, -622, -498, 119, -1250, -1335}
, {-508, 941, 712, -349, -258, -1036, -597, 728, 847, 536, -1859, 76, -87, -316, -1165, -753, -521, 277, -754, -34, -28, 424, 880, -576, 155, -966, 988, -348, -640, -289, -402, -363}
}
, {{-786, -515, -54, 587, -590, 368, -629, -205, 310, 552, -1017, 836, 543, 635, -346, 155, 401, -830, -252, 237, -569, 287, -1112, 32, -363, -618, -961, -278, 285, -367, -890, 52}
, {802, -756, -777, 677, 592, -494, -492, -185, 360, 15, -1127, -245, -35, -14, 516, 62, 361, -1374, -407, -1165, 588, -1124, -1128, 268, 746, -739, 57, -821, -559, 843, -569, -156}
}
, {{240, -806, 748, -226, -625, -1259, -347, 323, 292, -714, -543, -575, 40, -332, 56, -1057, 110, 90, -322, -1344, 173, 598, 272, -789, 579, -880, 278, -569, 602, -216, -1295, -1351}
, {-679, -856, -219, 845, 225, -915, -1399, -559, 84, -509, -285, 216, 247, 83, -401, -913, 204, -238, 871, 388, 246, -103, 758, 22, 497, -1373, 153, -610, -14, -618, -864, -1087}
}
, {{-26, -640, -465, 12, -754, 467, -959, -294, -476, -575, -272, 395, -209, 93, -943, -785, 632, 514, -154, -772, -781, -162, 72, -848, -788, -90, 470, 720, -203, -661, 43, -289}
, {185, -589, 413, -762, -547, -48, -1054, 863, -781, -475, -649, -575, 188, -489, -967, 661, -376, 429, -49, -162, -206, -403, -318, -957, -257, 180, 766, -924, -454, 357, 504, 6}
}
, {{-89, 126, -186, 628, -13, -657, -1457, 624, 801, -483, -497, -959, -239, 698, -2002, 198, 758, 1033, -202, 725, -295, 527, 371, -517, -73, -990, -818, -556, 2, -134, -1938, -1187}
, {514, -586, 73, 703, -150, -572, -1006, 475, 221, -520, -1244, -611, -658, -869, -1181, -735, 383, 694, 320, 566, -1253, -840, -935, 285, -74, -1243, -829, 439, -561, -751, -1669, -545}
}
, {{-811, -2765, 277, -1124, -100, -597, 2309, -2194, -851, 1221, -2353, 61, 3466, 671, -2013, 796, 533, -73, -80, 910, 1892, -5940, 22, 434, -300, 95, -606, 17, 360, 388, -2127, -216}
, {-404, 266, -838, 154, 481, -869, -3132, 788, 235, -178, -367, 664, -2390, -660, -1076, -238, 540, -39, 573, 1109, -1979, 4115, 951, 148, 173, 739, 1092, -623, 841, -2953, -96, -813}
}
, {{-607, -101, -182, 476, 241, 2012, -1075, 741, 285, -4992, 2037, 454, -1769, -558, 878, -629, -837, -151, -1557, 205, -5785, 1930, -355, 3859, 801, 1509, 111, -382, 1058, -1677, 1833, 2131}
, {-447, -778, 559, 1464, -228, -3429, -4058, 529, -569, 2690, -3865, 533, -5784, 80, -3903, 1197, -374, 843, 68, 2448, -1587, 1595, 102, 5538, -717, -2545, -676, -758, 387, -55, -3266, -1833}
}
, {{-496, -84, 695, 1254, -416, 2389, -671, 914, 1105, -4091, 1724, -260, -2301, -1105, 1948, 617, -532, -948, -2298, 177, -4361, 871, -185, 3165, -83, 2532, 663, 730, 135, -585, 1355, 1533}
, {-820, 1, -483, 1289, -391, -3442, -4157, 53, 908, 2501, -2756, 837, -5340, 603, -3710, 717, 39, 701, 2099, 2247, -1486, 1725, 129, 7714, 246, -3858, -136, 215, -244, -553, -2599, -2936}
}
, {{122, -22, 29, -360, -235, 2211, -1428, 675, -391, 1794, 1981, -870, -1330, 279, 1696, -1152, 1299, 1085, -2414, -507, 2071, -1007, -769, -1215, -443, 285, -1767, 611, -266, -355, -510, 1211}
, {-557, 390, -255, 220, 116, 2203, -1473, 825, -28, 1558, 862, 776, -924, 702, 1184, -1042, -112, 244, 1815, -738, -901, -333, -230, -2648, 127, 1224, 733, -400, 247, 330, 1512, 1107}
}
, {{619, 568, -64, 80, 1143, 1867, -1305, 18, -991, 840, 1591, -900, 25, 125, 1215, -464, -276, 396, -3229, -780, 1901, -612, 404, -1414, -654, 1124, 289, 224, -802, 558, 976, 288}
, {-226, 162, 263, -190, -633, 1132, -2420, -631, -1064, 395, 1591, 152, -1042, 751, 1715, -650, 1352, 471, 824, -622, -483, 156, -303, -2367, 244, 1586, 979, -618, -1214, 577, 1115, 1453}
}
, {{-648, -20, 13, 268, -820, -3407, -1383, 224, 955, 368, -2715, -790, -1818, -496, -1350, 2250, -191, -499, -226, 2530, 2279, -575, 786, 2639, 122, -2074, 256, 681, 303, -1315, -1307, -2660}
, {-819, 318, 149, 1712, 169, 1475, -1171, 416, 873, -1913, 1254, 607, -1868, -293, 1199, 349, -742, -424, -2586, 987, -3508, -1389, -174, 33, -642, 689, -513, -485, 248, -1662, 1044, 49}
}
, {{-160, 117, -790, -631, 395, -1034, 70, -67, -1140, -79, 167, 24, -921, 244, -832, -148, -422, -991, 876, -1089, -395, -714, -1100, -107, -59, 702, -692, 594, 616, 405, -26, -963}
, {-218, -630, 650, -703, 206, -518, -943, -9, 312, -574, -682, 206, -977, -174, -766, -174, 61, -1163, -281, -691, 520, -880, -1049, -222, -309, -678, -270, -54, 467, -540, -1267, -567}
}
, {{-221, -376, 750, -371, -717, -1151, 37, -384, 361, -358, -485, -6, 88, 581, -282, -2495, -548, -683, -395, -1860, -388, -25, 140, -1765, 525, -988, -315, 573, -492, -95, 621, -62}
, {257, -333, -826, -202, 794, -776, -19, 350, -164, -1072, 37, 30, -388, 459, -416, -2029, 685, -1245, -1052, -1843, -298, 174, 1053, -1512, 599, 152, 701, -862, 399, -856, -793, 14}
}
, {{-832, -243, -438, 708, -406, -447, -1128, -785, -244, -231, -526, 286, 47, 804, -347, -551, -137, 186, -1031, 332, 547, -654, -820, -1042, -235, -326, -703, 71, -236, 73, -111, 68}
, {-478, -312, -943, 497, -705, -759, -374, 114, -326, -1214, -1134, 368, -156, 891, -651, 47, 773, -64, -960, -551, -681, 593, 243, -234, -211, -631, -717, -1076, 418, -1073, -453, -704}
}
, {{173, 191, 448, -406, 871, 2104, -2120, 133, 1541, -3876, 1290, 241, -2554, 201, 918, -1735, 1366, 108, -2177, -1107, -225, -671, 194, -414, 608, 496, 3386, -10, -659, -685, 933, 854}
, {-400, -496, 531, -907, 552, 1843, -2391, 705, -45, 380, 1299, -519, -949, -231, 1474, -108, 384, 17, -669, -1158, 1154, -626, -416, -3113, -165, 1358, 1772, 284, -1029, 447, 1295, 325}
}
, {{423, -348, -67, 413, -296, 394, -912, -1183, -493, 140, 1167, -226, -777, 63, 90, -190, -451, 591, -406, 1140, 1311, -2136, 231, 679, -118, 395, -599, -775, -545, -106, 44, 447}
, {103, -576, 447, 204, 546, 1079, -2340, -967, -4199, 3229, 1753, 179, -482, 161, 1498, -1086, -100, 253, -146, -1329, -90, -585, -613, -1692, 413, 944, -883, 1214, 453, -1134, 441, 731}
}
, {{670, 616, -359, -1188, -881, -1391, -1474, -1551, -1932, 853, -363, -289, -961, 221, -937, -1841, -205, -2889, -3155, -1991, 685, 2348, -2523, -4792, -599, 629, -7302, 445, 257, 2427, 556, -1114}
, {763, 646, -911, -766, 372, 968, 561, 736, 881, -1547, 1740, -1596, 248, -818, 1819, 1451, 106, 1115, 894, 3043, -1933, 310, -781, 3912, 128, 370, -3787, 650, 42, -192, 1482, 965}
}
, {{-143, -914, -630, 948, 927, -1955, -1534, -422, 1711, -3494, -2605, -546, -2059, 89, -1333, 1051, -806, 867, -1457, 1930, -138, 572, 618, 6220, -224, -1449, -1701, 622, 1149, -2408, -1627, -1715}
, {860, -1093, -272, 1957, -465, 952, -852, -824, 754, -2323, 1445, -360, -1800, -511, 1050, -77, -549, -720, -1608, 1400, -2376, -713, 614, 4861, -295, 1506, -1003, -189, 1025, -1763, 1265, 922}
}
, {{-423, 469, 115, 199, 581, 921, -2418, 1575, 327, -5178, 1259, 722, -1026, 556, 2059, 235, 236, 246, -1187, -58, -281, -1017, -612, -3358, 573, 1001, 866, 940, -21, 1326, 1365, 180}
, {384, 1136, -79, -821, 657, 1483, -3038, 665, 768, -2023, 1505, 18, -2533, -20, 2033, -672, 767, 13, -1897, -1207, -3484, -1257, 41, -3740, -656, 89, -1449, 556, -397, 118, 337, 1562}
}
, {{429, -1229, -511, -88, 559, -443, -871, -869, -1060, -1504, -905, -536, -106, -607, 517, -1379, -57, 222, -1195, -358, -696, -1339, 124, -1686, 127, 631, -1181, 107, -602, -455, -706, -1263}
, {-146, -354, 315, 467, 230, 86, -629, -694, -664, -170, -323, -189, 309, 713, 606, -782, 146, -1126, -562, -1136, -363, -638, -333, -832, 634, 43, -1276, 651, -45, -82, -719, -478}
}
, {{-789, -41, -51, -746, 601, -422, -1461, 527, -1587, -1283, -1167, 111, -1224, 553, -1357, -186, 516, -569, -523, -353, -526, 136, -330, -1581, 388, -293, -963, -546, 760, 284, 425, -877}
, {-171, -1523, 339, 404, 504, -398, -1263, -1616, -1297, -674, -109, -52, -929, 733, -703, -394, 639, -759, -1091, -1476, -400, 76, -675, 473, -696, -140, -315, 716, -831, -18, -1700, -1434}
}
}
;

#undef INPUT_CHANNELS
#undef CONV_FILTERS
#undef CONV_KERNEL_SIZE
#undef CONV_GROUPS