/**
  ******************************************************************************
  * @file    weights/conv1d.cc
  * @author  Pierre-Emmanuel Novac <penovac@unice.fr>, LEAT, CNRS, Université Côte d'Azur, France
  * @version 1.0.0
  * @date    24 march 2020
  * @brief   Template generating plain C code for the implementation of Convolutional Neural Networks on MCU
  */

#include <stdint.h>

#define INPUT_CHANNELS    16
#define CONV_FILTERS      32
#define CONV_KERNEL_SIZE  2
#define CONV_GROUPS       1


const int16_t  conv1d_34_bias[CONV_FILTERS] = {-246, -31, -191, -94, -247, -21, -328, -246, -108, -102, -170, -18, -230, -160, -246, -43, -488, -485, -247, 3, -505, -246, -246, -101, -148, -67, -488, -246, 36, -66, -247, 389}
;

const int16_t  conv1d_34_kernel[CONV_FILTERS][CONV_KERNEL_SIZE][INPUT_CHANNELS / CONV_GROUPS] = {{{-7, -945, -824, 741, -805, -1015, -834, 68, -992, 239, -400, -556, -980, 962, -567, 185}
, {557, -734, 47, -781, -606, 278, 321, -472, -331, -91, -835, -405, -58, 144, 529, -441}
}
, {{-142, 1005, -689, 871, 1369, -1224, 204, -584, -2895, 1614, -944, 420, 354, -684, -659, 1034}
, {637, 1509, 301, 627, 1100, -1385, -610, 1260, -3831, 1206, -487, 657, -176, -199, 231, -709}
}
, {{566, -77, -302, -105, -609, 824, 381, -757, -371, -826, -322, 34, 736, 63, -296, -530}
, {449, -801, -480, -759, -804, 1007, -1198, -1246, -275, -487, -232, -673, -537, -245, -383, 499}
}
, {{471, 539, 734, 274, 526, 1179, -661, -448, -920, -510, -384, 565, 379, -1150, -362, -1038}
, {391, -316, -633, -917, 265, -540, -722, -119, -552, 1100, -436, -715, 873, -1035, -1262, -71}
}
, {{-251, -338, -1014, -986, 122, -413, 505, -653, -829, 10, 92, -451, 699, 372, -253, -28}
, {-1130, 458, -183, -149, -1113, -380, -163, 329, -9, -404, 749, -160, 547, -807, -311, 518}
}
, {{841, 5, -6, 994, 557, -1682, 489, 103, -2697, 1751, 698, 355, -473, -1218, 1360, -193}
, {172, 1420, -514, 549, -992, -1333, 205, -591, -3689, 2183, -64, 764, 142, -949, 34, 815}
}
, {{1198, -279, 479, -309, 2, -103, 537, -648, 60, 129, -576, -849, -396, 653, -717, -705}
, {181, -937, 824, -351, 457, -27, -382, 52, -127, 907, 495, -148, 750, 550, 160, 504}
}
, {{242, 758, 669, -592, 236, -306, -991, -842, -661, -326, -523, 201, 143, 281, -242, 274}
, {524, 600, 71, 755, -615, 569, -26, -611, -717, -246, 821, 397, 806, -654, -945, -1001}
}
, {{-929, 446, -1007, 1494, 445, -2556, -464, 1880, -2832, 2280, -465, -442, 802, -2890, 1145, -7}
, {316, 452, -14, 2047, -605, -1912, -1327, 1038, -2672, 864, 725, -425, 872, -4146, 731, -654}
}
, {{136, 681, 675, 1343, 1314, -1668, -1632, 915, -2681, 2056, -970, 1710, 723, -1711, 1334, -950}
, {-926, 714, 323, -84, 1220, -2091, -154, 1308, -3509, 1652, 485, 758, 84, -2494, 862, 325}
}
, {{684, 429, 715, 11, -809, 608, -514, 1203, 1213, -634, 589, 311, 437, 446, 6, 815}
, {-583, 998, -190, -785, 951, 807, -147, 1285, 127, 284, 656, -729, 638, -258, -225, 15}
}
, {{-659, 1117, 766, -935, -352, -2947, 39, -242, -3046, 1289, 956, -641, -614, -448, -306, -6}
, {1308, 1590, -591, 1079, 647, -2190, 277, 451, -2918, 2202, 823, 504, -718, -86, 1828, 261}
}
, {{-904, 279, 447, -524, -936, -883, 624, -56, 733, -906, 830, -904, 677, -273, -871, -488}
, {-918, 649, -412, 148, 432, -818, 870, -647, 525, -870, 432, -794, -666, -619, -428, -37}
}
, {{-176, 143, -810, -968, 927, -606, 330, 709, 942, -840, 404, 77, 995, -1233, -621, 211}
, {-283, -60, 1053, -943, 370, -871, -768, 63, -700, 975, -222, 278, 405, 32, -583, -411}
}
, {{-1019, -930, 108, -337, -271, 260, -1117, -651, 779, -683, 213, -24, -29, -19, 623, -1012}
, {-992, -82, 584, -773, -788, 146, -221, -90, 326, 324, 621, 357, 590, -273, 357, 163}
}
, {{100, -478, -818, 708, 1292, -1870, 212, 142, -3545, 2767, 1048, 652, 133, -166, 846, 457}
, {-610, 823, 104, 1076, -892, -2716, -987, -751, -2474, 1755, 796, 684, -523, -1287, -236, 1173}
}
, {{-837, 79, -538, 44, 461, -290, -1098, 662, 1025, -1138, 242, 630, -767, 686, -724, 629}
, {-242, -1237, 584, 641, 977, 576, -98, 775, -1237, 425, 553, 1353, -663, -2089, 311, -978}
}
, {{-602, 634, -814, 323, -268, 99, -932, -850, 831, -54, 554, 58, -694, -659, -649, -505}
, {778, -522, 907, -529, 1509, -554, 1112, 808, -4, -1059, -652, 113, -743, 263, 740, 955}
}
, {{463, 448, 868, -1484, -763, -1106, -1064, 69, -161, 20, 262, 556, 220, 398, -902, -557}
, {-12, 13, 385, -860, -936, 142, -120, 93, 164, 23, -144, 98, 265, -449, -757, 67}
}
, {{-573, -267, -30, -85, 974, -803, -1150, 422, -426, -1362, -315, -1467, -804, 356, -804, 529}
, {-102, 383, 79, -788, 1337, -2627, -942, -136, -2000, 2608, -911, 346, -635, 646, 1179, 856}
}
, {{-251, 607, -57, 640, -1128, 1323, 641, 831, 2394, -321, 612, -879, -536, 2353, 187, 405}
, {88, 267, 498, -527, -1311, 1068, 462, 571, 2043, -667, 842, 524, -763, 1315, -197, -761}
}
, {{-612, 664, 286, -1166, -84, -845, 210, 348, -188, -831, -1052, -956, 683, -550, 567, -1034}
, {837, -353, -351, -732, -75, 804, -689, -199, 669, 57, -547, 590, 689, -611, -452, -696}
}
, {{-66, 175, 86, 634, -240, -919, 25, 139, -845, -441, 502, -969, -204, 475, -350, -346}
, {483, -1076, 566, 230, -815, 539, -416, 16, 516, -125, 318, -95, 415, -313, 26, 354}
}
, {{1198, 362, -737, -415, 203, -3030, -601, 1126, -2097, 2084, -754, -1242, 227, -202, 1122, -661}
, {-455, 1014, -48, 1726, 383, -1799, 449, 908, -2469, 3214, 936, 819, 550, 220, 1689, 262}
}
, {{418, 1959, 54, 1475, -132, -2394, -720, 1524, -3356, 1608, -823, -444, -62, -1500, 733, 760}
, {-58, 1384, -14, 1148, 199, -1475, 596, -101, -2675, 2680, -377, 800, -877, -716, 1705, 193}
}
, {{-69, 1093, 794, 74, -206, -2164, -2099, 433, -2081, 3288, 150, -251, -283, -1102, -180, -490}
, {-526, -16, -868, 931, 596, -3269, 76, 1178, -3457, 2976, -1053, -264, -934, -610, 940, -719}
}
, {{-687, 763, -1036, 101, -82, 663, -57, -1, 1938, 987, -601, 877, -414, 1554, -236, 582}
, {589, 391, -478, 22, -454, 358, -199, -1115, 448, -68, -446, -781, -168, -16, -425, -491}
}
, {{-966, -641, -47, -778, -822, -243, 131, -927, 689, 436, -361, -145, -321, -410, -205, 586}
, {-383, -90, 753, 636, 412, -1058, 577, -615, -58, -874, 668, -440, 285, -1037, -636, 866}
}
, {{40, -429, -72, 427, 1357, -2181, -646, -478, -1603, 1800, 72, 35, 255, -631, -517, 145}
, {99, 452, 253, 187, 1416, -3076, 101, 952, -3111, 2514, 591, 510, 185, -117, -558, -327}
}
, {{210, 1055, 527, 753, -472, -2803, 182, 998, -3487, 2690, 897, 601, 261, -1278, 892, -376}
, {-706, -450, 743, 826, 983, -2657, -762, 229, -2630, 712, 444, -278, -284, 203, 671, -672}
}
, {{-38, -252, 613, -25, 685, 71, 145, 239, -606, 317, -47, -676, 217, -919, -144, 840}
, {-131, -1087, 595, 561, -831, 626, -1373, -337, 473, -333, -227, 125, 352, 382, 340, 413}
}
, {{941, -1782, 146, -1203, 656, 138, -1709, -1219, -243, -437, 389, 1171, -108, 1106, -875, 526}
, {800, -1394, -113, -842, -155, 578, -354, -958, -1712, -1257, 901, 1027, 809, -550, -324, -368}
}
}
;

#undef INPUT_CHANNELS
#undef CONV_FILTERS
#undef CONV_KERNEL_SIZE
#undef CONV_GROUPS