/**
  ******************************************************************************
  * @file    weights/conv1d.cc
  * @author  Pierre-Emmanuel Novac <penovac@unice.fr>, LEAT, CNRS, Université Côte d'Azur, France
  * @version 1.0.0
  * @date    24 march 2020
  * @brief   Template generating plain C code for the implementation of Convolutional Neural Networks on MCU
  */

#include <stdint.h>

#define INPUT_CHANNELS    64
#define CONV_FILTERS      64
#define CONV_KERNEL_SIZE  2
#define CONV_GROUPS       1


const int16_t  conv1d_51_bias[CONV_FILTERS] = {-3986, -1960, -1987, -332, 342, -1230, -494, 329, -2235, -2298, -602, -1587, 936, 559, 738, 298, 576, -2888, -1166, -1968, 2598, -639, -318, -331, -2578, -130, 491, -576, -286, -501, -162, 275, 1712, -1475, -880, -3478, -580, 6, -2553, -1324, 220, 416, -1962, -4649, -1089, 419, -870, -221, -705, -647, -1529, -474, -651, -1191, -1158, -1170, 2246, -863, -1109, 1825, -504, 1512, -274, -2954}
;

const int16_t  conv1d_51_kernel[CONV_FILTERS][CONV_KERNEL_SIZE][INPUT_CHANNELS / CONV_GROUPS] = {{{-768, 49, -1199, -51, -222, 692, -456, -1019, -3595, -4500, 1202, 154, 973, -1003, -1082, -1851, -636, -20, 225, -747, 431, 16, 990, 357, -201, 390, -1782, -599, 691, 1655, 5284, -896, -1151, -753, 350, 325, 2156, 791, 303, -2100, 1064, 968, -567, -263, -515, -702, -4036, -354, 1465, 78, 1984, -1793, -219, -10920, 896, -1918, -601, -52, -1798, 1405, 124, 1362, -89, -968}
, {-730, -1005, 2611, 2391, -949, 1688, 3869, 1272, -2245, 1130, 460, -1512, 2978, -192, 2636, 1342, -673, 2082, 1430, 1755, 1312, -1671, -113, 1797, -1096, 953, -2559, 2246, -1248, 683, 3511, -567, 936, -482, 179, -135, 1361, -2586, 819, 2747, -415, -1056, 701, -1784, 810, 187, -2503, -971, 233, -159, -300, -2905, -693, -9465, 514, -1508, -1303, -171, 440, 387, -399, 495, -144, 1941}
}
, {{307, 325, -1828, -819, 737, -3, -1113, 213, -1785, 67, -967, -504, -260, -1155, -1897, -1567, 897, -1266, 303, -2255, -2198, -2, 493, 335, -768, 834, -392, -322, -157, -834, -753, 319, -1503, 569, 404, 327, -1802, -1165, 773, -1465, 306, -677, -2598, -143, -2306, 570, -2432, -1071, -57, -804, -1119, -702, 1238, -3425, -887, 192, 638, -1441, -831, -683, -166, 182, 588, 236}
, {-685, -645, -2559, -808, 462, -1112, -1665, 864, -1091, 970, -1093, -120, -166, -641, 437, -1960, -509, -485, -1095, -1075, -178, 1137, 1040, 330, -1141, 1161, -487, -576, -811, -1049, -1591, -650, -923, -915, -331, -745, -1083, 87, 43, -1498, 1056, 479, -1010, -1220, -2223, 777, -586, 923, -47, -692, -946, 37, 590, 530, 320, -1035, 1022, -408, -662, -329, -766, 518, -220, -377}
}
, {{-758, 245, -792, -1249, -248, -1296, -1430, 556, -1747, -2142, -3252, 374, -2076, 1191, -283, -1502, 402, 782, 620, -1438, -1244, -701, 957, -1726, 1171, -868, -839, -198, 867, -768, -3069, -597, -3016, -1093, 793, 567, -3025, -369, -330, -10, -280, 557, -4419, 168, -3048, 973, -2119, 402, -875, 115, -1374, -2356, 443, -621, -148, -543, 265, -988, 714, 994, -1258, -644, 786, -870}
, {-545, -1148, -1629, -2958, 925, 790, -630, -95, -2316, -3418, -3262, -403, -1773, -782, -1046, -2430, 250, -343, -126, 620, -2408, 13, -1099, -1070, -711, -659, -967, -658, -985, -477, -2069, 924, -1303, -1004, -535, -841, -2219, 184, -338, -227, 963, -1141, -4460, -1527, -1572, -1, -3950, 372, -888, 929, -506, -2376, 980, -391, -1117, -1285, -758, 556, 103, -936, -360, 727, -382, -209}
}
, {{-1233, -269, -1080, -104, -1379, -351, -377, -63, 181, -765, -686, -274, -149, -304, -1635, -196, 298, 583, 701, -775, -1237, 238, -333, 721, -1136, 1186, 136, -547, -415, -576, -639, -232, -1414, 991, -624, -256, -888, -1484, 785, -1022, -662, -173, -689, -1039, 253, 552, 823, -424, 3, -804, 695, -1026, -1109, 519, -954, 553, 783, 380, -564, -770, 805, 672, -324, 323}
, {388, 229, -811, -899, 682, 794, 125, -645, -994, -1863, -233, 1456, 867, 1527, -786, -729, 546, -1279, -727, -1770, -348, 847, 1151, -683, 658, 89, -1039, -901, -336, 87, 1331, -301, -1016, -565, -776, 1514, 358, -75, -1161, 43, 1120, 818, -1339, -546, -1326, -882, -1233, 306, 236, 919, 1165, 985, -1213, -474, 288, 389, 761, -902, 1019, -636, -239, 357, 957, -464}
}
, {{82, 773, 1412, 1308, -1499, -2373, -3467, 639, 1613, 1, -1148, 99, -2346, 345, -382, 1457, -1205, -52, 59, 519, -2753, 242, 800, -184, 92, -773, -44, 1402, 1037, -1971, -1611, -178, 490, -463, 552, 528, 613, -1250, 473, -735, 574, 1052, -435, 247, 579, 599, 65, 360, -261, 836, 320, 2, -812, -58, -1187, -926, -1414, 1061, 608, -366, 423, -14, -1111, -671}
, {-174, 900, 90, 1053, 508, -1684, -1165, -352, -4314, 542, -4565, -492, -3829, 963, 385, 1146, 367, -441, -884, 627, -3127, -257, 692, 512, 1671, 0, -166, 2646, 1333, -2436, -1712, 1022, -352, -142, -1027, -569, -929, -3005, 731, 694, 733, 683, -4392, -197, 1212, -660, -4835, 1306, 1762, -1051, 630, -6551, -250, -2879, 25, 754, 425, -187, -382, -362, -673, -858, 947, -1016}
}
, {{-751, 563, -1357, -2793, -170, -1265, 125, -165, 257, -758, -3241, -703, -2322, 415, -266, -2810, 878, 780, 465, -966, -1013, 910, 576, -1374, 445, 738, 26, -643, -1143, -1085, -3239, -547, 595, 119, 597, -377, -3074, 791, 404, -1801, 257, -722, -3653, -1447, -2706, -1037, 577, -334, -1200, -604, -564, -1114, -62, 1265, 527, 459, 920, 580, 211, -582, 570, 1231, 686, 433}
, {-1472, 767, -1493, -430, 140, -875, -2490, 620, -192, -1522, -1963, 425, -1308, -301, -1854, -1654, -383, 161, 1032, -849, -2206, -1094, -369, -71, -1092, -529, -251, -1800, -1063, 34, -996, -76, -110, 1246, 919, 359, -1082, -1602, 1460, -1224, -822, -79, -3517, -638, 434, 817, -1283, -593, -566, 418, 142, 547, -259, -170, 569, -1502, -72, 316, -729, -279, -1227, 797, -1216, 644}
}
, {{521, -1286, -1536, 426, -1206, 332, -995, -316, -856, -552, -1352, -629, -773, -12, 651, -1274, -611, 461, -136, -1106, -540, 74, 1181, 610, -118, 300, -230, -1336, -268, 243, -1081, 1012, -1313, 419, -1137, 365, -1017, 254, -389, -1671, 1032, -984, 441, -525, -1217, -429, -808, -402, -368, -3, -937, -429, 563, 237, -1154, -1419, 953, -506, 306, -721, 787, -546, -458, 770}
, {481, 297, -1394, 198, 913, -60, 211, -665, -136, 54, -23, -783, 546, -1140, -1438, 456, 649, 808, -1176, -2084, -151, 170, 245, -135, 949, 462, -272, -1919, 164, 73, -315, -745, -1369, -970, 125, -821, 705, 333, 275, -273, -503, 596, 37, 200, -1263, -785, -96, 940, 178, 22, -1125, 753, 957, -573, -447, -1312, 799, -601, -1465, -402, 943, -953, 944, 882}
}
, {{419, 481, 1214, -933, 474, -1711, -904, -64, 1422, 459, -3367, -13, -1030, 1213, -1947, 221, -2422, -802, 453, 1038, -3694, 1124, 296, 2, 2045, -169, 825, 1535, -719, -684, 253, -435, -601, 635, -238, 1541, 165, 153, -535, 555, -103, -898, -2316, -654, 928, -9, 5051, -496, 157, 184, 963, -448, 201, 2772, -295, 839, 587, 1319, -1224, 580, 452, -239, 1191, 278}
, {1466, -699, 1651, 1166, 235, -1592, -2190, -1152, -5054, 1138, -6956, 922, -2944, 271, 1141, 516, -1668, -273, 749, 589, -4799, -1295, 312, -749, -210, -1530, 954, 2298, -615, -460, -1465, -615, -425, -245, 360, 72, -1282, 1580, -1016, 670, 547, 905, -4784, 528, 1100, -38, -2404, -601, 1936, 706, 337, -5462, -349, -1328, -444, -1162, 430, 1443, -283, -833, 1497, -529, -976, 295}
}
, {{-958, 750, -2970, -969, -62, -543, -988, 183, -1583, -2384, -3129, 297, -838, -634, -2361, -2361, -1581, 258, -1337, -296, 517, 1213, -1066, -1598, 103, -408, -1060, -750, -15, 147, -1301, 720, -1594, 1050, -274, 217, -4241, -388, -174, 1599, -1125, -164, -1967, 548, -2647, -1601, -2854, -324, -651, -597, -891, -3553, -567, -2976, -595, -1396, 546, 213, -1219, 527, -638, 22, -1555, -58}
, {830, -1399, -1427, -2489, 1211, -260, -1505, 255, -3054, -1210, -3185, -656, -666, -498, -1989, -1866, -1527, -357, 145, 684, 0, -137, -1087, 562, 639, 236, -864, 202, -1570, -1165, -555, -1101, -3416, -329, 93, 181, -2276, -117, -723, 189, 1302, 843, -2935, -243, -261, 708, -1237, 130, -1046, 892, 1097, -3433, -1216, -1756, -390, -1331, -919, -661, -438, -921, -545, -525, 153, 380}
}
, {{-993, 6, -1019, -1445, 933, 833, -5290, 13, -2165, -624, -926, -778, -2187, 49, -948, -2892, 1310, -1032, 576, -173, -2364, -1149, 95, -773, 269, 159, 2071, -358, 281, -330, -835, -797, -1650, 995, 304, -1276, -2707, -1293, 592, -1582, -1113, -397, -1942, 403, -837, -317, -616, 1255, 2515, 653, 712, -1551, -614, -4999, -251, -339, 987, -925, 783, -925, 671, 55, -761, 892}
, {-612, -1170, -2412, -2228, -41, -148, -1600, 586, -1903, 817, -2569, -526, -3918, -634, 660, -1902, 762, -1474, 775, -1355, -554, -1240, 926, -41, -553, -941, 992, -2449, -1176, 903, -1036, -741, -2281, 475, 1089, -734, -2165, -170, 1082, -1716, -350, 511, -2344, 72, -1785, 1143, -945, -711, 2165, 284, 344, 793, -1028, -2654, 238, -834, 255, -1757, -506, -267, -1135, 580, -321, -737}
}
, {{411, 850, -1644, -205, -737, 965, -1198, -1050, -917, -2588, 189, -806, -437, -741, 1046, -302, -329, -1241, -384, -1762, -494, -787, -617, -676, 408, 331, 1189, -1565, 186, -898, -1106, 277, -934, 831, -963, 933, -3224, 984, -968, -1952, -1071, 1178, 2, -897, -1614, 818, -1192, 937, -834, -526, -1248, 349, -502, -47, -279, 892, 886, 746, 235, -503, 970, 683, 1247, -107}
, {-913, -735, 976, -987, -141, 430, -312, 387, -748, -312, -247, -26, -476, 647, -1719, -998, -1077, -1224, -302, -1176, -131, 49, -989, -977, -27, -108, -400, -2048, -1175, 584, -739, -477, 110, -238, -93, -1171, -1161, 896, 629, -1863, 710, -1020, 557, -224, -2074, 415, -162, 870, 66, 416, -1021, -697, -620, -1039, -855, -291, 627, -561, -1048, 107, -722, 485, 231, 349}
}
, {{-255, -551, -398, -2199, -713, 905, 363, 1330, -964, -4529, -1679, 623, -1762, -887, -376, -3913, 759, -700, -756, -2480, -783, -536, 756, 826, 995, -278, 972, -2288, -854, -195, 223, 1155, -2730, -14, -1011, -61, -1022, -1679, 939, -3660, 1178, 715, -2287, -381, -5297, 30, -404, -535, -323, 547, 638, -1607, 627, -115, -718, -552, -510, -295, 1401, -117, -440, -1196, -914, 661}
, {-425, -1080, -3349, -2413, 1405, -711, 420, 998, -46, -1659, -2003, -1257, -2535, -1571, -197, -3947, 772, 632, 361, -3376, 362, -1259, -843, -326, 614, 1055, -40, -2226, -946, 79, -3705, 464, -1452, -611, 983, -922, -2611, -1045, 169, -4361, -961, 507, -3469, 775, -2241, 129, 353, 688, -257, 456, -394, 277, 751, -264, 883, -501, 198, -1341, -317, -115, -86, -924, 231, 1299}
}
, {{-466, 138, 762, 303, -454, -1320, -3163, 1001, -5473, -1265, -7877, -827, -3326, 134, 319, 677, -424, 493, 515, 2264, -3819, 91, 698, -2263, 946, -725, -206, 1371, -800, -1307, -2280, -150, 596, 680, -1025, 596, -361, -1661, 893, 1431, -172, -824, -7539, -1465, 236, 370, -1477, 1710, 1893, 25, -848, -3166, -1165, -634, -948, 845, 32, 621, -210, 293, -999, -857, -396, -1661}
, {164, -837, -1233, 1030, 524, -2388, -2629, 1324, -3263, 936, -4838, 285, -3170, -334, -1206, -358, 1321, 484, -129, 1974, -2544, 611, 487, -755, 252, 331, -248, 556, 630, -2255, -1054, -482, 140, 2, 186, 628, 637, 308, -588, 1938, -509, -857, -4630, -1326, 1433, -1050, -4255, 352, 1278, 1127, -1083, -4159, 367, -3145, -1215, -945, -902, 516, -246, 413, -669, -1826, -48, -956}
}
, {{1127, -1108, -2105, -6345, -1050, -768, -603, 525, 2614, -3565, -1252, 956, -897, -1160, -2314, -120, -466, 3, -544, -5817, 910, -138, -502, -912, -184, 347, 406, -3490, -849, 1894, -5653, -947, -13590, 310, 502, -646, -11106, 65, -314, -6851, -1074, -1129, -492, 349, -6043, -1186, 1923, -1026, -1047, -549, -1092, 2493, -666, -393, -41, -556, 854, -1252, -495, -917, -51, -459, 158, 148}
, {438, -592, 1164, -5483, -2262, 1107, 536, -586, 1399, -3068, -871, 1212, -1972, -346, -6100, 8684, -1104, -910, 1155, -7215, 98, -477, -1129, -831, -19, -1297, -1522, -9622, -702, 1254, 2883, 1223, -11162, -159, 2, -858, -2770, 828, -14, -6902, -160, -275, -274, -2478, 2313, 748, 1709, 520, -978, -605, 1236, 1348, 883, -740, -1008, 329, 840, 174, -517, -1072, 1121, -400, 911, 977}
}
, {{-1839, 509, 1810, 1707, 1218, 98, -1603, -479, -290, 5499, 2301, 873, 4137, 997, -2361, 3795, -1568, 1209, -1034, 1085, 2028, -102, -847, 1756, -1100, 707, 299, -4465, 834, -1656, 8099, 1146, 63, -449, 512, -263, 2748, -951, 957, -61, -210, 736, 3694, -16, 1240, -1027, 1397, -1832, 707, 1049, 336, -7371, 369, -4230, 691, 1412, -1225, -710, -695, -817, -1113, 1952, 1080, 1453}
, {545, 182, -1862, -3534, -479, 1810, -2379, -489, -8457, 4036, 2653, 710, 3635, -92, 36, -4006, -64, -130, -1481, -1806, 689, 917, 114, -25, -161, 749, 734, -863, -1008, -2609, 3178, -261, -3616, -600, 64, 466, -2816, -662, 435, -786, 773, 78, 2132, 985, -1600, 1051, -3010, -750, -506, 400, -1305, -10134, 16, -4159, -1075, -478, -78, -1216, -702, 475, -1333, 2848, 1205, -755}
}
, {{1281, -731, 1258, 1876, -687, -2276, -4421, -43, -1012, -222, -4490, -938, -3343, 371, 485, -544, 998, -491, -123, 1776, -3738, -174, 912, 294, 1928, -931, -515, 1492, 905, -1160, -1665, 260, -610, -443, -1437, 1390, 801, -1192, 701, 2339, -862, 690, -3426, 1122, 488, 519, 2005, 1588, -166, 514, -19, -519, 677, 1450, -446, 698, 177, 881, -674, 114, 70, -1472, -1820, -40}
, {664, 225, 716, 1163, -103, -965, -2381, -457, -2637, 1380, -2879, -662, -2926, -1422, 1060, 433, -218, -353, -1459, 1345, -1934, -1349, -453, 817, 1055, -483, -134, 2734, 642, -857, -1423, -845, 230, 810, 385, -818, -348, -1237, -300, 2229, -329, 84, -3011, 203, 1183, -1019, -4182, 1749, -17, -870, 936, -4853, -270, -5296, 533, 732, 1337, -117, 216, 306, -1581, -1553, 420, 946}
}
, {{663, -131, -4534, -2197, 1076, 675, 9552, 64, 6419, 2577, 3807, -809, 1911, 270, -1946, 1277, 875, 1069, 1180, -871, 7256, 395, 941, -906, 1458, -371, 1417, -1803, 63, 638, -4011, -442, 4274, 410, 287, -1048, -1233, -140, 13, -246, 821, 824, 5729, 866, 969, -982, -3314, 842, 1719, 25, -147, 4264, 1056, -3107, -745, 683, 382, -111, 709, -955, 554, -1464, -602, 18}
, {1140, -160, -1860, -2113, 1736, -518, 3109, 806, 1794, -4083, 2709, -544, -1163, 379, -1173, -316, 1320, 45, -396, -2133, 1443, -267, 228, -1235, 573, 836, 548, 321, -695, 626, 3222, 737, 2231, -1084, 20, -1447, -1039, 166, -129, -1256, -890, 352, 3852, 487, 492, -1352, -2155, 514, 569, 1111, 23, 4108, -583, -987, 235, 814, -913, 601, -939, -54, 672, -1734, -272, 386}
}
, {{-671, 220, 126, -322, -1264, -304, -1062, 1048, -542, -3134, -1496, -614, 719, -1036, -1794, -4097, 667, -420, -364, -2115, 1784, 1162, 749, -2, -889, -310, -1102, -2789, 174, 297, 1977, -218, -5855, -524, -721, 662, -406, -229, -1158, -1595, 399, -45, -2179, -996, -4824, -1066, -2081, -1141, -1006, -656, -547, -3453, 1114, -2792, -153, -850, -832, -1470, -389, 257, 856, -909, 1113, -1096}
, {-1375, 324, -2275, -1542, -1099, -448, -3715, -1052, -962, 794, -2382, 449, -258, -1154, -1284, -2947, 965, -305, -1093, -2734, -2071, -202, -815, 174, -919, 405, -1041, -2269, -989, 73, -2413, -1122, -4217, -1021, 828, -1643, -1969, -1445, -1043, -2423, -1006, -1194, -3863, -576, -2603, 1160, -2638, -339, 203, -20, 266, -3441, -858, -2520, 593, -166, -707, -61, -101, -1006, -134, 487, 498, 57}
}
, {{328, -192, -1387, 263, 332, -464, -1510, 636, 186, -1723, 277, -596, -1438, -1141, -427, -427, -664, -462, -985, -1206, -1434, 268, -922, -982, 126, -184, -782, 108, 498, -721, 382, -709, -1688, -836, 856, -1235, 17, -1652, 433, -1331, 605, 772, -1270, 943, -648, 2, -1597, 469, 917, 210, 650, -1372, 596, -1982, -1155, -880, 1015, 50, -719, -180, 1226, 225, -534, -223}
, {-986, -397, -1226, -1246, -875, 637, 804, -18, -1001, -85, 73, -917, -286, 298, -2323, -1335, -171, -999, 866, -1135, 1185, -856, -984, 845, 149, -981, 472, -1611, -934, -534, -489, 173, -218, -117, 72, 236, -659, -43, -811, -1592, -449, 415, -660, 170, -202, 276, -125, -1206, -805, -1254, -742, 77, 373, -431, -222, 209, -280, -330, 1237, -453, 793, -517, -947, -894}
}
, {{-79, -970, -1560, 1605, -1234, -2845, -7739, 346, -155, -3444, 1063, 889, 4972, 1040, 242, 5519, -729, -1479, 605, 1413, 4605, 555, 1141, -620, -2120, 1031, 1130, 794, -782, -1121, 7987, -1117, 758, 612, -908, -996, 3542, -1533, -233, 1895, -1033, -471, -1187, 164, 3319, -1097, -5487, -413, 998, 266, -883, -4729, -495, -2765, -1138, -1558, -967, -64, 1370, -162, 642, 1704, -143, -721}
, {1117, -217, 2974, -3145, 399, -468, -15889, -547, -7209, 11653, 8000, -1479, 15238, 864, -1769, -4385, 2132, -1559, -1022, -2917, 1837, -44, 56, 314, -124, 284, 1267, -6413, -926, -2050, 8249, -363, -6337, 300, 107, -917, -5183, -1045, 402, -3233, 632, -823, 8401, 2036, -2848, 970, -5881, -472, 6721, -880, -1499, -10903, 370, -7471, -1055, 148, -1827, -597, 70, -732, 164, 2366, 226, -616}
}
, {{-644, 780, 480, -4310, -1487, 1844, -866, 428, 6437, 3058, -3623, -74, -15828, 1517, -1605, 2638, 1702, -1050, 768, -1588, -18484, -616, 835, 523, -1181, 463, 940, -1613, -8, 1530, 1708, 1386, -7167, -1097, 645, 868, -1880, 3492, 466, -562, 297, -980, -329, -423, 243, 1504, 2489, 1222, -2181, 1284, -1573, 7604, 41, 2811, -1076, 97, 1108, 1040, 1283, -1040, 340, 685, 798, 240}
, {-527, 1172, -1927, -8555, -1596, 1907, -1389, -995, 3515, -1177, 1078, -251, -5427, -420, 450, -2043, 435, -795, 744, -1732, -10522, -260, -1032, 713, -997, 250, 851, 644, 729, 247, -3657, 656, -7509, -965, 340, 925, -6532, 1443, 1349, 1022, -905, -359, 703, -1646, -3711, 454, 1996, -433, -72, 588, -618, 3210, -767, 82, 249, -204, -1151, -15, 660, -830, 892, -463, 1396, 122}
}
, {{-910, 1299, -1400, -1479, 887, -575, 231, -842, -793, -1519, -804, 279, 399, -348, -1300, 139, -974, 439, -439, 374, -512, 174, 166, -1670, 1132, -491, -898, -1568, 924, -829, -1646, 759, -1119, -976, -705, -903, -83, -1119, -649, -1715, -649, -796, 812, 1284, -923, 270, -2606, 720, -2169, -47, 1542, -2199, 668, -749, 1218, 462, 146, -708, 1189, -1186, -1047, -1030, 511, 1573}
, {-409, -218, -1363, -667, -615, 178, -802, 1159, -2806, -1657, -685, -1156, 747, 227, -367, -1101, -1014, -939, -1021, 531, 435, 239, -832, 716, -232, -1030, 958, -1545, -780, -1144, -91, 1019, -923, -871, -492, 1223, 253, 107, -882, -2124, 423, -496, 602, -684, -233, 564, -1786, 1034, 989, -145, 1200, -750, -1032, -858, -266, -1014, -811, 483, 660, 399, 302, 190, -1335, -342}
}
, {{-1065, 762, 80, -772, -1243, -559, 347, -1002, -886, -674, 279, -1055, -46, 86, -1349, -956, 1180, 434, 551, -3047, -1202, -1599, -195, -1207, -865, 859, 695, -1106, -1384, 780, -283, 751, -1267, -69, -584, -1050, -416, -693, -114, -1368, -375, -37, -641, -1259, -2381, -443, -401, -468, -778, -579, -1151, -1106, 1252, -1489, 625, -343, -119, 768, -883, -483, 594, 852, 26, -80}
, {1212, -989, -623, -852, 373, 341, 52, -670, -911, -1463, -1638, 173, -1078, -800, -735, -899, 313, -694, 680, -1079, -331, 549, 792, -629, -1202, -624, 295, -791, 39, 85, -1343, -172, 40, 1091, 383, -505, 153, 1330, -765, -2204, -1088, -1084, -75, 41, -1067, -343, -1598, 805, 568, -930, -1154, -2180, -1083, -38, -1153, 464, -523, 186, -572, -1009, 727, -942, 244, 109}
}
, {{787, 506, 164, -1126, 720, -49, -150, 170, -172, -1599, -1614, -1035, 686, 823, -679, -782, 129, 1221, 115, -1780, 537, -1020, 437, -603, 483, 849, 1086, -995, -571, 370, -944, 1270, 759, -996, 1195, 456, -344, 15, -497, -27, -406, -1046, -844, -645, -1961, -1213, 287, -6, -926, 84, 445, -586, 565, -766, 1049, 349, -579, -82, -1256, 414, -711, -527, 280, 647}
, {-301, 1035, -1372, -1856, -6, -484, 472, -282, -25, -735, -1066, -332, 959, -1518, -2283, 127, -1135, 177, -1355, -1252, -77, 633, 1292, -186, -365, -438, 831, -539, -128, -1178, 104, -1310, -176, 888, 901, 168, -1665, -31, 1140, -287, -1057, -644, -1550, -156, -9, -1096, 243, 703, 92, -1021, 428, -987, 343, -1271, -1168, -1010, -597, 505, 1050, 1230, 366, -1161, -1014, 1283}
}
, {{548, -1190, -4714, -2610, 879, -2504, -5280, -374, 1078, 3191, -1963, 67, -7836, -453, -6743, 2193, 553, -323, -1069, -3860, -10718, -992, 1350, 738, 124, 414, 40, -6599, 883, -3108, -5953, 516, 5201, -1115, -404, 630, -774, 652, 12, -3912, 1081, -402, -1162, -1472, -500, -1177, -611, 154, 418, 60, 190, 953, -131, -1013, 89, -348, 75, -1002, 444, 916, 784, -2656, -903, -949}
, {2016, 1071, 847, -1318, -1041, -1126, -2651, -753, 68, 4969, -6984, 733, -9819, 74, 2735, -4293, 323, -306, -520, 1992, -5543, 1242, 895, -463, 386, -1839, 1448, 4690, -832, -1520, 630, -495, -6996, 1169, -826, -1069, -2830, -688, -434, 3051, -1001, 717, -8836, 679, -1040, 808, 1089, -743, 1011, -39, 1205, 1555, -209, 2060, 1073, -1193, 836, -943, -806, -198, 478, -1230, -716, -201}
}
, {{-147, 42, -1474, -12, -685, 37, -436, -1014, -855, 193, -1270, -467, 828, -998, -1609, 62, 787, 330, 402, -1464, -481, 999, 1018, -649, -60, 898, -1001, -1685, -1404, -992, -1441, 156, 305, -404, 531, -70, -1208, -151, 50, -363, -580, -701, -80, -1223, -1311, -588, -817, 425, -65, 225, 110, -763, -83, -1016, 1194, 766, -655, -1547, -438, -42, -675, -331, -709, 129}
, {-178, -604, -254, -1194, -863, -643, -1061, 1222, -405, -753, -1199, -1267, 947, -1366, -810, -1201, 566, -1274, 44, -316, 59, 564, 1112, 306, 40, 544, 88, 175, -328, 757, -1156, -319, -416, 303, 973, 418, -375, 278, -974, -1280, 1027, -118, 638, 120, -1071, -231, -1418, 57, -648, 974, 1358, -145, 719, -1491, -195, -157, 358, 188, -702, 1097, -926, -1050, 806, 744}
}
, {{1329, -466, 1358, 1298, -897, -1293, -4242, 729, -1680, -825, -3535, 985, -3172, 595, 595, 981, -1089, 1134, -1230, 1637, -3140, 683, -774, 439, 2137, -1416, 1490, 1852, 1247, -1172, -2090, 1439, -770, -792, -734, 1767, -284, -1305, 233, 1074, 771, -628, -2839, 971, -164, -828, 1298, -482, 39, 372, -624, 1260, -822, -1464, -1075, -1364, -107, -623, 491, -601, 357, -2241, 746, 1085}
, {762, -401, 111, 1709, -70, -969, -2137, 1169, -2127, 1361, -579, 1047, -3110, -229, 1938, 161, 690, -615, -850, 1659, -1548, -192, 999, -1440, 1417, 483, 1326, 1324, 667, -538, -1416, 1201, 126, -1002, -733, 665, 683, 58, -564, -151, -1186, 1001, -736, -111, 1446, -649, -2280, 816, -1535, -266, -998, -3477, 1043, -3012, 522, -1120, 797, 133, -476, -292, -372, -1648, -180, 844}
}
, {{217, 977, -1451, -401, 59, -1381, 351, 866, -1568, -703, -117, -51, -160, -548, -1546, -501, -1286, -816, -1414, -44, -536, -780, -586, -1611, 694, -19, -258, -979, -1081, 864, -525, 253, -91, -558, -193, 200, -572, -1430, -68, 255, 636, -734, 0, -642, -1002, 833, -942, -339, -928, 3, -1049, -382, 124, -1374, 473, -713, -1022, -520, -315, -839, 148, -1247, -520, -1161}
, {-456, -817, -428, 514, -460, -2, 412, 554, -1431, -765, -516, -335, -1455, 772, -508, -1393, -307, 393, -747, -2647, 209, 107, -781, -1109, -1055, 1027, 226, -1043, 210, 1081, -1519, 855, 77, -243, 283, 303, -1556, 599, 1072, -2065, -767, -296, -880, -831, 48, 899, 362, 646, -941, 1336, -1161, -1054, 767, 234, -1007, -1258, 726, 183, -497, 26, -901, -162, 154, 273}
}
, {{898, -904, -5, -173, 283, 762, 9, -1282, 31, 557, 81, -801, 218, -191, -777, -1697, -337, 29, 687, -1235, -579, 711, -740, -322, -1086, -106, -188, -1775, -1644, 632, -1070, 146, -153, -1062, 980, 639, -177, -1721, 903, -2946, 590, 416, -732, 562, 426, 28, -595, -322, -1275, 1019, -628, -374, 947, -2315, -418, -70, 572, -1603, -134, 229, -1265, -1161, -232, -869}
, {-1197, -292, -530, -138, 34, -532, -23, -422, -239, -1272, 186, -1258, 306, -500, 432, -998, 1268, 38, 404, -2489, -478, -203, 857, 552, -541, 545, -703, -1618, 84, -703, -10, -1166, -1508, 33, -566, -1358, -524, 25, 309, -2218, -1125, -965, -1209, -46, -2, -961, -880, 942, 57, 758, 1069, -1528, -94, -1562, -175, -718, -604, -550, -390, -1540, -811, -1043, -1266, 147}
}
, {{-271, -1279, -314, -501, -639, 198, -1952, -1021, -2183, -1395, 658, -12, -427, 1257, -4, -976, 7, -1422, 813, 754, -1037, 1199, 489, 155, 119, 457, -1534, -572, 27, -477, -71, 169, -81, 856, 1181, -517, -545, -107, 793, -1433, -419, 681, 165, -919, -1187, 157, -375, 1190, -1154, 133, -1008, -466, 611, -1512, 1047, 18, -468, -312, -690, 95, -840, 1155, -256, 684}
, {-216, 1356, -1365, 369, 839, 620, -442, -615, -1127, -773, 107, 646, 138, -592, -369, -1920, -781, -174, 455, -1438, -919, -1169, 415, 1115, -841, -445, 228, -370, 792, 481, -909, -248, 877, 134, 747, 1244, 86, -2222, 1046, -2775, -996, -646, -1433, -1310, -1689, -247, 122, -1196, -825, 385, -744, -1019, 654, -433, -1160, 548, -803, 1150, 767, 496, 797, -472, 256, 461}
}
, {{-627, 84, -842, -1607, 839, -653, -113, 311, -663, -1181, -748, -1258, -1061, -124, 418, -1358, -857, -443, -1344, -907, -1535, -1111, 736, 724, -150, -1185, -427, 12, 294, -726, -854, -483, -1404, -355, -1718, 724, 854, -1033, -109, -325, 114, -131, -861, -418, -1053, 488, -1521, -735, 925, -797, -748, 729, 158, -1504, 1123, 588, 289, 689, 392, 433, -332, -537, -121, 635}
, {556, 282, -430, -739, -970, 379, -780, -115, 578, 766, -226, -899, -938, -648, -367, -1264, -98, 973, -929, -2616, -196, 122, 1122, -547, -836, -1638, -161, -49, 237, -205, -733, -103, 690, 617, 228, -464, 269, 736, 169, -2224, -180, 833, -1459, 825, -1356, 157, -228, 1124, 182, -176, -400, -1324, 823, -536, -1096, 10, -906, 899, 828, -1280, 263, -1627, -1166, 259}
}
, {{-649, -856, 2133, -541, 559, 22, -2961, -252, -886, -1437, -3572, -630, -2248, 687, -259, 727, 619, -725, -1165, 359, -2712, -801, -235, 394, 2145, -1611, 160, 2013, -1252, 151, -2078, 7, -208, -1229, -1004, 395, 1197, -1019, 258, 2040, -37, -326, -2456, -74, 191, -470, 708, 601, 1310, -1133, 430, -3147, 1097, 194, -1023, -1062, -275, 848, 723, 516, -1124, -2260, -666, -439}
, {2177, -615, 314, 615, -831, -1293, -3627, 1170, -6930, 938, -4401, 697, -2697, -401, -718, 214, 65, -84, -956, 699, -3764, -440, 114, 571, 266, -441, 208, 2112, 273, -1147, -972, 1065, -372, -108, -1071, 655, -556, -722, -551, 1699, -686, -266, -2036, -845, 1306, 548, -9026, -8, 2196, -121, 636, -3790, -423, -3359, -573, -846, 78, -979, 903, -736, 499, -1927, 349, 494}
}
, {{423, -597, -685, 517, 859, -749, -1231, 678, -13084, -4829, -9298, 729, -5113, 385, -1061, 736, -2660, -64, 1125, -322, -2991, 840, 275, 802, 723, 202, 1288, -900, -826, -2390, -2066, 686, 1840, 166, 148, 90, -76, -993, -855, 810, -678, -950, -8307, -48, 1275, -1481, -3070, 127, -796, -60, 1040, -3482, -164, -402, 980, 730, -1113, 992, 602, -470, -871, -354, -577, -1141}
, {55, -346, -1062, 631, 27, -822, -8040, 590, 2515, -4512, 8123, -1298, 4011, -1130, -4278, 1809, -1648, 76, 569, -658, -4541, -724, 574, -558, -669, 242, 160, -4804, 553, -2520, 757, 189, 2486, 622, -1180, -787, 2868, -1343, -858, -367, 704, 933, 7202, -1151, 564, -163, -6918, 1091, -606, 954, 721, -6434, 850, -5656, -718, 702, -474, -1465, 771, -363, 398, -373, -1707, 554}
}
, {{-2072, -957, 1318, 1546, 732, 1780, 442, -559, -6265, 2780, 2683, -262, 2917, 942, -40, 1388, -22, -745, -1179, 1860, 2383, 463, -859, -851, -1123, -1836, -997, 681, -364, 1798, 5923, 951, 3782, 577, 333, 560, 4844, -1628, 849, 1612, 67, -79, 1282, -1129, 1509, 78, -677, -183, -644, 1046, 1627, -6146, -561, -14178, 206, 262, -1275, 1237, -1464, 587, 587, 427, 14, -593}
, {-864, -706, -2864, -1049, 1065, 553, -994, -1104, -3804, 1258, -2504, 615, -852, 196, 381, -2344, 1332, 392, -928, -2010, 471, 456, -1100, -374, -210, 454, -781, -245, -842, 1297, -575, -530, 1141, 482, -808, -197, -1045, -1755, 196, -1774, 305, 757, -2646, -1861, -934, -597, -358, 6, -4160, -910, 436, -4175, -354, -10158, -911, -484, 1195, -79, 10, -483, 412, 1162, -1312, -1884}
}
, {{-1146, -912, -1568, -391, -215, 483, -706, 218, 593, -953, -1961, -631, -160, -608, -1167, -1189, 1018, -1297, -1034, -2432, -1818, -471, -808, 468, -283, -896, 140, -1609, -472, -716, -1331, 971, -1241, 733, 933, 65, -1302, 60, 569, -1987, 361, -1008, -1212, -1037, -1554, -765, -371, 242, -333, 1312, 453, -978, 888, -916, -474, 223, -632, -202, -591, -1330, 1225, 710, 550, -218}
, {-495, -1095, -2335, -646, -341, 25, 327, 149, -1320, -1637, -1806, 713, -472, -1212, -2697, -879, -505, -137, 269, -728, -819, 140, 0, -330, 125, -566, 355, -266, -344, 860, -437, -934, -423, 799, 871, -596, -273, -1158, -120, -2058, 1161, 697, -1912, 138, -422, -1249, -802, -760, -871, -852, 754, 272, -501, -802, 724, -963, -2, -976, 743, 872, 1125, -66, -15, -814}
}
, {{-2550, 605, 2384, 2879, -990, -460, 11992, 531, 4700, -1502, 1803, 1056, 5248, -1157, 494, -1650, 1602, -333, 545, 62, 7030, -1232, -576, -220, -695, 124, -437, 1954, 256, 1429, 3603, 641, -1465, 878, 958, -166, 433, 537, -446, 918, 1319, 801, 2958, -1280, -283, -508, -1981, -136, 2030, -368, -437, 3882, 500, -2067, 158, 331, -1203, 468, -1295, -736, -315, -829, -77, 595}
, {1616, -924, -1184, 1633, -796, -333, 5571, 1093, -4457, -3034, -2327, 889, 2507, 731, -336, -3092, -1177, -397, -613, 1531, 2446, 753, -36, -51, -1409, 105, 98, 787, -27, 521, -1684, -385, 757, 615, -234, -549, 1281, 525, -400, 365, 2, 903, -1794, -1036, -811, 438, -7589, -1430, -2764, 394, -589, -1875, 134, -5595, 619, 955, 108, 52, 137, 23, -693, 66, -755, 366}
}
, {{-3, 1179, 169, 14, 491, -689, 1179, -818, -207, -783, -474, -525, -1076, -367, -1560, -2168, -902, -353, 1038, -2026, -592, 493, 853, -370, 958, 1082, 235, -1546, 532, 178, -822, -200, -289, -652, 618, -770, -1361, -309, -757, -1789, 550, -485, -1907, -237, -1100, -373, -2005, -517, 259, -1149, 313, -286, 221, -195, 302, 478, -698, -968, -606, 274, -829, -1055, -497, 283}
, {207, 1073, -1969, 818, -576, -1193, 1177, -1074, -1011, -855, -2275, 586, -1143, 197, -974, -501, 323, -528, -623, -2681, 355, 1012, 217, -1409, 781, 1203, -705, -1671, 444, -248, -1504, -736, -785, -176, -267, -175, -1262, 734, 1064, -2613, -811, -506, -1784, 281, -1721, 623, -2015, -388, -1095, 485, -234, -1725, 1034, -288, -347, -625, -460, -587, 81, 36, -1211, 1086, 1196, 917}
}
, {{977, -431, -2547, -5555, -344, -614, -2437, 611, 851, 2105, -3178, -120, -2329, -127, -5311, -790, -1165, -284, -985, -1979, -4753, -187, 1025, 946, -834, 371, 2384, -8884, 1063, -1555, 2044, 599, 956, 1208, 394, -40, -1510, -2055, -856, -607, -945, 248, -2591, -1933, -2221, 572, -1035, -378, 95, -1202, 1224, -3496, 540, -1763, 650, -1330, -273, -834, -713, -966, 1016, -913, 772, 88}
, {562, 539, 1588, -1882, -1259, 482, 4032, 901, 2768, -2828, -558, -1116, 1363, 244, -652, -1590, -1747, 229, -281, -6436, 2712, -479, -1286, -40, 216, 1316, 2289, -5938, -420, 1155, 599, -138, -8722, -958, -731, -788, -2273, 2643, 798, -6311, -1243, 1288, -109, 1607, -1966, 802, 2606, -1144, 733, 243, -440, 1512, -818, 4922, -755, -350, -1081, -569, -578, -1139, -711, -212, -28, -1286}
}
, {{559, 1037, 1543, 690, 44, 1229, -4204, -461, 948, -7427, -19553, -13, -9839, -411, -2898, 2887, -811, 91, -978, 880, -7273, -1182, 64, 704, -333, 372, -287, -1251, -1143, 737, -2483, 200, 3903, 791, -1459, -822, 3050, 3479, -1167, -1227, -623, 950, -18347, -154, 1871, -1421, 2247, 872, 832, 1037, -446, 1905, 785, 3034, -785, 501, 1249, 789, -172, 152, -1459, -667, 938, -384}
, {1306, -312, -649, -594, -1018, 1881, -4878, 676, -6283, 3084, -9093, -1599, -973, 895, 2148, -6209, 222, 1118, -170, 1047, -1553, 209, 612, -1625, -65, -78, -918, 1999, -973, 1527, -4303, -511, -1022, 166, 362, 298, -1030, 642, 1019, 2434, -1264, 500, -11129, -1362, -1600, -1104, -5460, 19, -1597, 958, 1548, -3139, -325, -3241, -122, -1394, 1163, -1170, 1024, -468, -1533, -78, -853, 430}
}
, {{-690, 1189, -2629, -3616, -36, -679, 3071, -826, 295, -3095, 684, -792, 2750, 108, -585, -669, 1166, -1747, 782, -1770, 1869, -776, -439, 451, -834, -1027, 1637, -3633, 1618, -1115, -3246, -1279, -4759, -967, 81, -728, -3077, -1444, 921, -3312, 915, -781, -764, -99, -3571, -496, -1216, 291, 616, -916, 340, -980, 779, -3055, -321, -460, 480, -741, -1123, 147, -352, 874, -931, 1068}
, {-1139, -223, -517, -3527, 783, 547, 3317, -230, 2935, -5741, 587, 625, 2067, -287, -3380, -1775, -68, -1197, -403, -5786, 1439, -1135, -841, -1024, -318, -196, 2039, -1869, 437, 2444, -2840, -629, -9333, 424, 1313, 638, -8210, 157, 688, -4755, 1045, 1135, -1097, -1138, -2000, -450, 3658, -209, -573, 276, 178, 1654, -1173, 1105, 1064, -135, -547, -110, 1097, -171, -64, 976, -1076, -1055}
}
, {{-989, -466, 1762, -443, 1232, 665, -6508, 880, -2240, 5340, -2134, 1329, -2964, -1028, -3742, 3807, 223, -1249, -478, -68, -4073, -1308, -578, 1045, -2141, -679, 1912, -7283, 747, -885, 6164, -476, 356, -1098, 312, 689, 2013, -2292, -497, -1178, -437, -859, -2607, 1457, 1557, -238, 2403, -1229, -50, -115, -474, -2482, 85, -5801, 1184, -873, 1222, -428, -1057, -1516, 1001, 1125, 487, 62}
, {294, -1230, -1459, 842, -1269, 184, 1110, 1041, -4809, -1221, 549, 1203, 3716, -798, 738, -567, 548, 640, 616, 458, 2420, -542, 158, 494, -1088, 118, 751, -3303, 170, -2406, 1763, 992, -514, -924, 659, -1290, 555, 107, -84, -1421, 75, 633, -881, 545, 874, 1069, -4529, -708, -5196, 315, -810, 1795, -151, -3952, 1001, 641, 749, -726, -792, 377, 720, 2255, 1245, -405}
}
, {{271, 325, 1054, 474, -113, -276, -3458, -517, -3304, -86, -3845, -503, -3435, 327, -668, -126, 899, 183, 203, 2306, -2935, -1402, -267, 109, 1345, 520, 1397, -223, 436, -228, -1232, 540, 185, 394, -134, 1226, 694, -474, -1341, 2496, 785, -334, -3687, -418, 123, -764, 891, 1787, 1068, 459, -877, -3476, 407, 182, -797, 279, -479, -3, -942, 1649, -1153, -394, -224, -416}
, {850, -704, -504, 222, 507, -1824, -1742, -151, -6152, 177, -8023, 324, -4793, -1039, 245, 766, 1331, 1473, 1417, 1929, -3801, -677, -162, -459, 923, -698, 1198, 1624, 105, -1571, -977, 35, -1369, 1129, 601, 477, -238, -114, -91, 2034, -1153, 975, -6902, -700, 778, -561, -2659, -427, -159, -769, -779, -5041, -763, 230, 1250, -368, 1018, -881, 636, -291, -433, -1056, -373, -1485}
}
, {{-949, 727, 2060, 1572, -716, 1367, 1297, -784, -2750, 7130, 2245, -1263, 3768, -1554, -2009, 3916, -439, -646, -219, 1652, 673, 214, 559, -851, -808, -1059, -7, -3584, -342, 628, 5593, 643, 2017, -1214, 22, -261, 3737, -1622, 18, 2418, -597, -284, 3327, -914, 3318, -1624, -1017, -331, -450, 493, 1159, -6285, 1199, 4995, 504, -471, 97, 184, 556, 1139, -1545, 1543, -290, 579}
, {-1265, -578, -1718, -2887, 576, 2284, -2036, 1002, -8857, 3311, 341, -948, 1918, 532, -298, -1688, 1106, 125, -863, -1771, 534, -23, 117, -876, -907, -610, -1010, -2842, 255, -1501, 706, -1125, -3456, -584, 1246, -62, -3903, 792, -1145, -1687, -71, 934, 150, -743, -2077, 839, -4559, -457, -3221, -80, 884, -9908, 56, -651, 67, -1027, 1819, 780, 424, -533, 143, 977, 346, -1007}
}
, {{469, 278, -1071, -4321, -341, -466, -1531, 1258, 3568, -7763, -7508, 576, -6622, -187, -4169, -3918, -64, 1170, -103, -3379, -4755, -466, -146, -565, -268, 306, 2714, 843, -583, 5048, -3000, -519, 112, 408, -64, 631, -4975, 3329, 835, -2629, -1179, -1036, -7141, -156, -1138, 240, 2070, -1171, 1000, -1074, 61, 2742, -325, 1461, -221, 227, 59, -78, 860, 1391, 681, 2484, 1035, -1203}
, {1204, -1135, -5248, -1303, 156, -735, -1153, 886, -1686, -5659, -4873, 1459, -2455, 1121, -7848, -3035, 236, -972, -243, -5770, -2460, 581, -559, -440, -2053, -752, -357, -6508, 1213, 3206, -4034, -962, -4483, -12, 837, 20, -1062, 2584, -435, -5855, -674, 108, -4456, 363, 617, -418, -1189, -1175, -1231, 927, 329, -46, 884, -351, -469, 668, 475, -240, 647, -3, 812, -270, -292, 734}
}
, {{237, 262, -1328, -1426, -680, -770, 1031, -751, -27, -2044, -701, 78, -1415, -1442, -2745, -1389, -735, 638, -144, -686, 326, -639, 409, -31, 1068, 237, -523, -970, -1583, -15, -2705, 190, 55, 214, 586, 811, -1621, 171, -701, -1200, 927, 1130, -359, 479, -1292, -118, -514, 200, -1111, 959, 527, -656, -293, -1514, -248, -1013, -600, 50, -378, 164, 108, -410, 698, 379}
, {1061, -413, -2332, -1150, -638, 48, 71, -1144, -2077, -2456, -490, -1196, -371, -241, -3317, -1569, -327, -845, -183, -2572, -848, -1566, -801, -1353, 2, 213, -930, -1896, -619, -396, -1635, 48, -1762, -485, -1467, -1159, -946, 1169, -1056, -826, -437, -1135, -912, -707, -959, -1507, -63, 87, -728, 872, 341, -745, 646, -1062, -818, 328, -396, -448, -68, -1037, 484, -620, 534, 194}
}
, {{269, 1124, -1305, 1665, 1028, 36, -1599, 40, -2659, 1642, 4367, -1140, 3715, -54, -3112, 2844, -2005, -1095, 160, 273, 1347, 405, -783, -91, -464, -5, -228, -3077, 513, -1397, 7128, -1033, 1167, 154, -1315, 221, 2849, -240, 127, -38, 1084, -55, 3908, 389, 3045, 362, -6201, -551, 245, -1148, -105, -7924, 881, -3192, 673, 234, -2089, 1473, -29, -733, 611, 1286, 10, 1570}
, {649, 120, -1781, -2637, -303, 1913, -4735, -1158, -8896, 4828, 2848, 106, 4374, 177, 270, -3567, 1915, -375, -1382, -1763, 376, -541, 672, 824, -1285, -1414, 29, -4270, 69, -671, 2122, 350, -2456, -428, -771, 1315, -3049, -1771, 860, -2984, 626, -635, 3018, -748, -2493, 682, -4350, -792, 1233, -866, 38, -10663, -1025, -2808, -479, -75, -341, 767, -247, 592, 1193, 3092, 1279, 208}
}
, {{-727, 879, 1572, -141, -892, -501, -2405, 632, -5605, 1101, -4507, 485, -3516, -300, 1683, -1981, 2184, -461, -527, -206, -1892, 311, 839, 471, -1725, -1058, 2218, -424, 199, -879, -2426, 357, -1469, 1219, 1072, 1055, -4626, -2919, 260, 231, 1274, -225, -4595, 2539, -1463, -1102, -5046, -198, 5664, 1115, 669, -2877, 25, -6359, -296, -723, -468, -33, -100, -248, -730, -780, 395, -644}
, {-1531, -566, -1356, -2241, -1209, -1394, -1933, 691, -1304, 3111, -1487, 397, -1135, 192, -1163, -777, 1928, 28, 913, -1759, -876, 719, 1023, -796, -1667, -1090, 1582, -842, -905, 763, -572, 866, -3192, 712, 528, 426, -2582, -240, 604, -617, -1015, -879, -1486, 769, -1265, -393, -4032, 534, -302, 418, -1067, -2594, 809, -2518, -869, -334, 701, 405, -491, 78, -86, -1788, 375, -1132}
}
, {{956, -968, -943, -1134, 561, 711, 895, 1152, -894, -785, -919, 688, 133, -378, 133, -1417, 1260, -598, -1188, -697, -1503, -1161, 996, -1268, -113, 244, 592, -1036, -19, -982, -6, 1308, -860, 836, 511, 562, -958, -1173, -462, -1165, 137, 552, -1147, 619, 287, 228, -1375, 340, -322, 122, 795, -217, 25, 117, 54, -344, 439, 158, 348, 48, -718, 376, -695, 923}
, {-891, 403, -1536, -1486, -758, 413, 478, -1071, -174, -1111, 220, 283, 744, -1484, -453, -1422, 1317, 344, 822, 244, -1124, -858, 14, -153, -860, 637, -710, -537, 439, -330, -7, -216, -149, 241, -1095, -472, -653, 848, 16, -12, 879, 319, 386, -108, -1249, 73, -451, 749, 126, 90, -146, 217, 831, -414, 321, -97, 689, 723, -1053, 1177, -1616, -1111, -1061, -899}
}
, {{-1209, 75, -1171, 21, 17, -969, 158, 385, -2180, -716, -542, 250, -1759, 453, -1217, -1714, -438, -108, 1158, -902, -1122, 723, -288, -180, -622, -1046, -246, -1442, 871, -1046, -346, 494, -1287, -1126, 892, 962, -1865, 810, 1066, -1193, -720, -961, -1372, -171, -20, 1142, -1094, -1158, -1039, -609, -1220, 142, -1041, 527, 339, -1020, -948, 541, 459, 786, 1268, -6, -327, -1040}
, {318, -1155, -1658, -969, 689, 473, -848, 647, -1347, -246, -1227, 617, -1517, 798, -242, -818, 168, -164, 566, -1718, -561, 648, -827, 619, -311, 370, -1140, -1851, 630, -386, -2053, -336, 105, 1010, 829, 586, -2083, -913, -815, -1229, -383, -1163, -1179, -906, -747, -523, 1156, 312, -849, -657, 305, -769, 990, -270, -651, -110, 452, -475, 963, -196, -400, -123, 1123, 286}
}
, {{590, -1325, -1144, -1412, 1125, 578, -1498, -1153, -1061, 594, -988, -871, -304, -18, -1472, -3547, 1979, -214, 847, -1716, 71, 1107, 790, -1604, 907, 968, 919, -3132, -59, -1028, -1946, -839, -1152, 640, -800, 1337, -1621, 381, -553, -2787, 353, -125, 798, -163, -494, 1111, -1713, 437, 490, -303, -903, -2835, -486, 123, -763, -135, -363, 269, -755, -1058, 1165, -1064, 1224, 1202}
, {-118, 739, -1825, -1672, 1163, -1025, -836, -1241, -1064, -15, -380, 322, 632, -289, -585, -1637, 865, -1358, 466, -1075, 472, 49, 869, -1337, 499, 1042, -587, -3014, -799, -356, -1620, 170, -1841, 281, -307, -623, -1538, 412, 557, -1441, 657, 111, -1377, -255, 495, -1167, -2974, -634, 1898, -60, -1290, -2010, 923, -3070, 798, 713, -165, -1358, 261, -732, -644, 591, -396, -785}
}
, {{-633, -1030, -617, -1109, -650, -143, 242, -95, -3966, -2605, -2302, 186, -1800, 473, -603, -1650, 688, 657, 61, -1923, -1042, 740, -100, -127, 1325, -593, -1139, 666, 315, 585, -1677, -144, -2178, -1250, -1188, 934, -174, 389, 892, -3048, 1196, -539, -1905, -619, -1272, 615, 615, 580, 107, -911, -1219, -4259, 364, 240, -231, -604, 855, -601, 24, 1095, -807, 257, -427, 744}
, {71, 895, 794, -1435, -477, -832, 1076, -680, -3135, -1469, -2363, 1089, -2165, -705, -1508, -442, 761, -845, 181, -430, -1046, 1011, 457, 814, -685, -1065, 314, -896, 889, 435, 213, -993, -2230, 1107, 1130, 975, -762, 1146, -334, -130, 102, 282, -2554, 1420, -651, 368, -9, -941, 354, -1073, 631, 19, 506, 2140, -314, -1034, -497, 780, -91, -222, 635, 15, -995, 679}
}
, {{-797, -341, -1184, 202, 750, -208, -378, 202, -1048, -1227, -34, 497, -131, -501, -1452, 507, 195, -1209, 1227, -1566, -946, -514, 978, -987, -211, -230, 809, -465, 1411, 262, -674, 369, 70, 537, -584, -154, -1131, -64, -775, -1542, 757, 1141, 223, 209, -228, 1046, -717, 1194, -1354, 965, 698, -414, 212, -912, -327, 262, -270, -682, 936, 535, 1181, -904, 1102, -545}
, {888, -644, -908, 123, 281, -1144, 35, -664, -514, -55, -816, 1014, 173, -765, -354, -562, -308, -1094, 890, -1924, -1797, -357, 86, -1043, -867, 1377, 547, -1110, 1024, -1001, 492, 155, -1202, 187, -113, 909, 388, -1565, -723, -774, 114, -810, -705, -423, -1646, 300, 142, 225, 568, -194, -393, -948, 745, -562, -1108, 258, -174, 199, -246, -1230, 1014, -1105, -337, 88}
}
, {{238, -458, -1290, -1455, -483, -380, -639, 143, 920, -878, 448, -634, 488, 1153, -2319, -1707, 553, -830, -887, -625, -823, 682, 51, -428, -653, 227, -834, -1827, 190, -182, -791, 485, -1652, -512, 1092, 388, -972, -130, 905, -737, 844, 251, -120, -1499, -1177, -843, -614, -673, -620, 934, 1029, -234, -603, -56, -537, -913, 763, -1094, 283, 526, -1092, -153, -983, 322}
, {748, 682, -2517, -541, -157, 355, -1112, 291, 113, -1777, -1941, -1153, -1832, -591, -1118, -1459, -451, -619, 958, -1982, 512, 1050, 329, -1506, -586, -805, 1103, -1381, -1287, -243, -206, -235, -370, 287, -1236, -1319, -743, -1189, 395, -806, -376, -1063, -923, 164, -1501, 707, -1330, 492, -28, 251, 108, -887, -249, 407, -948, -12, -558, -1155, -154, 567, 717, 717, 444, -1097}
}
, {{-750, 769, -941, -138, 1216, -726, -2288, 353, 577, -2950, -448, -750, -231, 328, -140, -2056, 1353, 721, 813, -1056, -1304, -866, -135, -556, 55, 498, 503, -363, 762, 133, 590, 332, -552, 394, 136, 313, 763, 655, 1049, -2064, 914, -469, -616, -556, -468, -458, 494, -1149, 883, -169, -297, -2791, -1069, -1745, 17, -680, 1200, 335, -246, -196, -41, 1003, -1282, 867}
, {57, -803, -1918, -936, 50, 705, -484, 955, -1380, -420, -2232, -1613, 549, 110, -3358, -2052, -951, 1563, 1136, -1495, 1821, 47, 865, 699, -69, -1012, -1171, -3044, -643, 333, -3304, 211, -1040, -737, -1274, -1520, -1637, -259, -614, -2727, -313, 748, -2409, -71, -1108, -167, -455, 618, -849, 571, 331, -434, 1012, 759, -368, 439, 738, -1331, 972, 1341, -268, -726, 976, 336}
}
, {{-357, 423, -1634, -73, -1058, -672, -1419, -153, -2829, -93, -443, -1179, -161, -609, -531, -1396, -1292, 532, -631, -1129, -689, 591, 39, 484, 957, 273, 736, -507, 751, 247, -768, -1056, -1215, 999, 324, 636, 416, 524, 368, 181, -548, 1288, 317, -1278, -1071, 790, -672, -661, -1392, 357, -1060, -2588, 1188, -1405, 948, -1487, 1204, -1472, -798, -1046, -947, 1110, 144, -717}
, {-38, 571, -1785, -986, 831, -335, -823, 377, -1079, -56, 789, -755, 488, 103, -1291, 262, 220, 236, -658, -185, -214, 57, -1001, -1114, -340, 558, -621, 216, -593, 562, -741, 116, -1397, -831, 773, 208, -1366, -767, 281, -331, -1035, 660, -1102, -792, 400, -375, -24, 846, -370, 730, -1109, -390, -1036, -307, 713, -594, 817, 16, 201, -1254, -770, 1073, -307, -366}
}
, {{-506, -892, -583, 152, -912, 989, 12, 1020, -1494, -896, -888, -266, -251, -778, -1527, 1059, 227, -155, -1150, -954, 547, -910, -361, -1864, -276, -1087, 1199, -1534, 717, 1049, -511, -453, -1493, -989, 1064, -240, -383, -427, -1137, -520, 232, -523, -2101, 548, 793, 527, -259, 423, -153, -618, -685, -502, 861, -1360, -407, -135, -471, -392, -1009, 1396, 570, 345, 70, -490}
, {942, 995, -101, -1438, -1035, -303, -137, -1092, -120, -1821, -904, 642, -537, 100, -1705, -1220, 280, 71, -1597, 392, 793, -483, -217, 29, 1388, -776, -1170, -632, 1190, 912, 253, -59, -1448, -951, -752, -13, -1245, 299, -1341, -225, 938, -760, -1343, 224, 76, -1535, -943, 1100, -1292, -319, -409, -920, 1108, -317, -437, -883, -1179, -978, 461, 1111, -813, 537, -1022, -71}
}
, {{1127, -1145, -7057, 386, 758, -268, -5470, -733, -4201, -365, 1457, -270, 274, -961, -6306, 1034, -2111, 1545, 621, 688, -1560, -49, -650, -1699, -872, -1404, 410, -2382, -840, 223, -5068, -105, 4709, -789, 1142, -529, 1140, -1924, -893, 38, -48, -1184, 2817, -2033, 2184, 749, -13524, 157, -303, -557, -727, -2518, 109, -16370, 300, -1030, -259, -1094, -789, 1077, 87, -908, -773, -1350}
, {-337, 940, -5256, -213, -193, 18, 304, 399, -7599, -2598, -2086, -351, -7155, -1294, -4273, 1839, -1792, -348, 700, 1002, -1671, -1373, 657, -396, -1189, 22, 1507, 2780, -1139, 860, -5037, 613, 4347, 146, -430, -90, 1273, 533, 267, -101, -397, -1023, -1974, -912, 2622, -1204, 5042, 1374, -880, -101, -179, -637, -186, -3554, 798, -308, 142, 672, 455, -92, 103, -1453, 659, -53}
}
, {{-1026, 238, -895, -1623, -1145, -1032, -1015, 495, 231, -68, -69, -301, -1106, -316, -444, -1470, 1026, -416, 910, -1865, 136, 189, -639, 424, -514, 168, 19, -178, 744, 143, 635, -1026, -632, -373, 756, -1019, -890, 730, 590, -993, 855, -156, -101, 0, 195, 169, -1032, -1008, 789, 161, -1071, 815, -534, 38, -494, -439, -365, 79, 746, -1232, -519, 519, 887, 67}
, {139, -216, -287, -1874, 837, -680, 1121, -1145, -670, -1474, 85, -583, 1043, 854, -1427, -1607, 188, 557, -1139, -377, -163, -648, -324, 189, 1221, 278, 103, -1878, 1162, 446, -1361, 1123, -1668, 516, 801, -135, -1278, -974, 948, -247, -1154, -333, 1051, -237, 124, 771, 1026, 539, -488, -246, 824, -1779, 1149, 1575, -989, -428, -1253, -579, -107, 1007, -135, -561, -238, 610}
}
, {{165, 1090, -1886, -450, -819, -236, -2671, -641, -732, -229, -1685, 873, -51, 405, -184, -1021, -210, 48, -390, -2168, -652, 718, 962, -260, -916, 791, 84, -1370, 1077, -759, 1054, 1231, -47, -785, -419, -1209, -660, 13, 155, -1353, -465, 250, -210, -658, -1721, -554, -1718, -1063, 11, -315, 1250, -1517, 237, -2049, 863, -776, -1200, -214, 697, 499, 877, -1049, -208, -116}
, {422, 803, -614, -2634, -1013, 612, -1936, -237, -2323, -1580, -614, 675, -99, -19, 163, -1155, 325, -1488, 820, -3043, -1126, -86, 186, 814, -998, 1202, 912, -312, 214, -296, -1068, -485, -1526, -767, 604, 600, -2182, 64, -378, -2893, -728, -1119, -444, -1200, -3512, -623, -2434, -183, -1143, -383, 847, -1825, 1016, -1829, 24, 736, -1076, 222, 16, -825, -632, 190, 964, -1270}
}
, {{547, 30, -2196, -276, -339, -862, 163, -934, -366, -3175, 2080, -762, -313, 1042, -1192, -1279, 282, 1292, -598, -1522, 801, -392, -432, 535, 363, -267, 128, -1686, 566, 2497, -5126, 770, 92, 677, 26, 512, -3144, -1495, 911, 11, 916, 605, -366, -1483, -1132, 970, 432, 408, 887, 1040, -380, 1097, 1115, 123, -372, -660, 857, 712, -1850, -1152, -449, 416, 159, 1259}
, {564, -146, -3057, -1345, 306, 851, 1996, -498, 2534, -1910, 2131, 1037, 1463, 101, -2565, -2448, -1488, -326, 338, -2836, 680, -185, 120, 37, 22, 386, 1909, -1631, 480, 3694, -7844, 1161, -4066, -1113, 64, 110, -6495, 1095, -601, -5206, 9, -581, 1548, -832, -10, 528, 2481, -466, -126, -176, -617, 2144, -977, 1427, 379, -225, 531, -271, -1836, 222, -937, -221, -512, 422}
}
, {{-1045, 143, -274, -1626, -452, -353, -248, 319, 117, -656, 884, 332, -927, 1038, -136, -1770, -182, -190, 298, -120, -980, -692, -668, 278, -436, 235, 1019, -1409, 398, 969, -284, -732, -2223, 1097, 869, -1520, -185, -697, -670, -913, 370, -459, -1532, -112, -796, -24, -1109, 637, -1274, -471, -656, -1787, -651, -381, 316, -1616, 634, 377, 562, -633, 223, -1135, -1139, -556}
, {-506, 184, -160, -212, -863, 674, -815, 945, -9, -267, -698, -1386, -485, 305, -315, -137, -240, 396, 171, -1061, 704, -425, 50, -375, -1143, 1255, -938, -785, 1182, -457, -2090, 272, -1150, 310, 220, 450, -2005, -408, 1035, 430, 368, 346, -1327, -1555, -1456, -937, 435, 1180, -27, 270, -1035, -708, -1239, -1380, 551, -1564, -749, -490, -39, 698, -265, -826, -683, 574}
}
, {{324, 165, -415, -683, 1287, 1445, 1132, -374, 2013, 238, 1246, 529, 1588, -1470, 1926, -1674, 2084, -217, 304, 774, 1761, 254, 348, -626, -479, 1223, 1448, 2472, -1122, 2465, -4173, -1097, -729, -807, -618, -863, -2746, -1470, -1166, 469, -226, -650, 1715, -940, 1834, 222, 1214, -999, -1063, 1156, -680, 2048, -626, 157, -913, 189, 952, 101, -473, 821, -214, 2229, -868, -156}
, {-1083, 1080, -1344, -4641, 796, -174, 3103, 1183, 2650, -3642, 1353, -426, 2092, 773, -6725, -3591, -1566, 888, -1298, -4958, 2739, -281, -240, -22, -1329, 611, 1257, -4889, -64, 3333, -5003, -1003, -6208, 592, 1211, 579, -4501, 478, 542, -5943, -1087, -1086, -34, -731, 368, -1279, 4075, -970, 391, 87, -853, 4943, -417, 45, 1085, 1388, 55, -433, -1225, 131, -598, 1844, 693, 524}
}
, {{-1035, 367, -1500, -383, 1183, -478, -1191, 822, -141, -1058, -1400, 75, 801, 552, -200, 569, -334, -1406, 197, 270, 569, -1184, 786, 495, -234, -774, -572, -342, -509, -284, 212, -787, -1755, -19, -239, -312, -964, 977, -41, 328, -361, 985, -761, -473, -1208, -720, -160, 103, -1399, 1218, -27, -434, 768, 419, 347, -870, -862, 434, -144, 677, -124, -612, -132, 773}
, {1006, -1162, -1705, -24, -597, -338, -1128, -457, -450, -525, -238, 767, -906, -994, -471, -806, 1404, 692, -1118, -388, -471, -1087, -438, -1589, -1142, 46, 27, -1674, 349, -38, 6, -564, -27, -494, 778, -107, -1230, -603, -123, -654, 692, 1236, -1087, -803, -620, 53, 738, -1209, -1128, -287, 5, -196, -685, -1028, -1235, -1138, 617, 32, -103, 38, 719, 1145, 696, -6}
}
, {{1262, -305, -5364, -11948, -1143, 703, 3573, -999, -2012, -8654, 179, -479, 833, 857, -4362, -8336, -944, -849, -337, -7136, -648, -135, -140, 252, -72, -668, 2072, -6215, -209, 2469, -7421, 207, -7431, 662, -1483, -1810, -10511, -1039, -515, -8341, -787, 462, 30, -1124, -7383, 430, -1292, 746, 799, -822, -18, -2041, -443, -552, -734, 766, -1119, 326, 1140, 1345, -1312, 396, 434, 1893}
, {42, -777, -1648, -1906, 756, 3008, 1696, 42, 387, 7663, 1628, -940, -43, -555, 1612, -4479, 2693, -148, -699, 682, -5300, 120, -531, -59, 113, 311, 437, 118, -1299, 1415, 268, 1029, -1953, -630, 754, -83, -4069, 667, 1138, 198, 125, -1229, 1757, -395, -1407, -1574, 667, -258, -678, -376, 226, 5947, -634, 4170, 539, -340, 232, -142, 1331, -709, -136, -1401, -1236, 559}
}
}
;

#undef INPUT_CHANNELS
#undef CONV_FILTERS
#undef CONV_KERNEL_SIZE
#undef CONV_GROUPS