/**
  ******************************************************************************
  * @file    weights/fc.cc
  * @author  Pierre-Emmanuel Novac <penovac@unice.fr>, LEAT, CNRS, Université Côte d'Azur, France
  * @version 1.0.0
  * @date    24 march 2020
  * @brief   Template generating plain C code for the implementation of Convolutional Neural Networks on MCU
  */

#include <stdint.h>

#define INPUT_SAMPLES 224
#define FC_UNITS 3


const int16_t dense_17_bias[FC_UNITS] = {-4928, 7666, -3711}
;

const int16_t dense_17_kernel[FC_UNITS][INPUT_SAMPLES] = {{198, 290, 2260, 5355, -1911, 101, -6643, -514, -392, 1661, -5876, -1387, 69, -2413, -3440, 117, -106, 4236, -505, -106, 1100, 224, -1264, 494, -4754, 1135, 1199, 400, 6119, 653, -147, 3314, 2568, 481, 74, 5245, -747, 555, -9538, -42, 1776, -861, -5780, -764, -1122, -6445, -1235, 177, -1128, 2544, 202, -823, -246, 127, 1145, -722, -1799, 2635, 679, -464, 5486, 147, 650, 5822, 1845, -280, 270, 7017, -557, -958, -9268, 115, 378, 196, -3916, -768, 2542, -7800, -2281, 2085, 1381, 717, -143, -801, 1445, -422, -608, -854, -2201, 1159, -334, -1315, 11748, 597, 249, 2223, 2192, -171, 633, 4345, -856, 762, -8832, 102, -814, 1820, -3436, -1850, -1074, -3719, -3179, -1142, -131, 363, 429, -289, 1398, 1091, 315, 643, -1600, 827, -1682, 83, 5492, -75, -1080, 5802, 1992, 940, 2330, 6665, -1595, -1482, -6704, -614, 3925, 218, -7286, -2052, -361, -2062, -3175, 1654, 600, 2044, -606, -49, 671, -446, 1094, 484, -268, 1820, 1445, 944, 131, 149, -1306, 4287, -664, -1536, 1597, 4093, -1912, 933, -9394, -141, 438, 1136, -4561, 501, -381, -1044, -3917, -811, -485, 1023, 848, 682, 1915, -1130, -396, -251, -278, 2163, -1391, -694, 10740, 445, -1566, 2949, -285, 743, 1666, 8266, -1952, 35, -7237, -1422, 3586, -999, -6235, -1854, 898, -4754, -4582, 813, 624, 2428, 7, 52, 1102, 1182, -20, -646, -2902, 3948, -1270, -962, 5153, -496, 950, 2291}
, {1813, -730, 57, -5319, 3024, 432, -962, 56, -7584, -4288, 58, 172, 1021, 3571, -2226, 1419, 609, -2326, -1527, -322, 2036, -1570, 367, -733, 6160, 3438, -516, 204, -3648, -1076, -181, -2214, 3347, 655, -105, -2729, -135, 162, 2639, -27, -5541, -2050, 1631, 1496, 1872, 7338, -3633, -421, -239, -354, 361, 112, 1712, 743, -1419, -703, -165, 3675, -1269, -810, -1838, -502, -17, -6786, 2164, -426, -1938, -1493, 2002, 761, 2284, 1537, -4692, -594, -1294, 216, 1097, 2023, -1257, -547, 95, -1314, -1275, 674, 340, -1307, -236, 1246, 3584, 3247, -14, 113, -220, -702, -1445, -5224, 2816, -856, -620, 550, 1203, 815, 1695, 563, -3797, -4195, 2797, 2370, -330, 4080, -1998, 303, -1952, -665, 366, -20, -2622, 326, -23, 373, 1012, 2485, 655, -153, 3040, 130, -727, -5836, 6128, 277, -2352, -726, 370, 845, -211, -71, -3762, -1203, 807, 1931, 1045, 4466, -278, 664, -1060, -1994, 845, 315, 648, -934, 781, 493, 1626, 4093, -1568, 386, 5180, -1341, 893, -4001, 3470, -1414, -244, -2041, 2683, -1438, 1554, 174, -5183, -2030, -2402, 2226, 1674, 4671, 112, -890, -1131, -1517, 426, -314, -1466, -484, 102, 291, 2502, 2286, -428, -745, -2935, 1260, -197, -3063, 3795, -843, -1989, -3827, 1215, 927, -1442, 148, -8203, -2324, -1114, 49, -1108, 6105, -592, -11, -1719, -1792, 277, -1478, -3612, -313, 273, -1032, 2403, 4136, -2542, 29, -1585, -96, -722, -4129}
, {-2974, 453, 1429, -506, -180, 1481, 6206, -1231, 7504, 2842, 4860, -548, -1117, -1889, 5913, -1698, 236, 158, -134, 1120, -544, 114, -195, 337, -2471, -4471, 112, -248, -4204, -416, 1121, -1595, -6678, 397, 2651, -291, 1485, 1091, 4478, -1269, 4072, 419, 6006, 1918, 1119, -4615, 4384, 412, 1645, -2195, 1308, 225, -342, 1636, 692, -184, 719, -4501, 348, 826, -3711, 368, -158, 715, -2499, 1490, 2422, -4824, -703, 3, 5604, 622, 3974, 2601, 6547, 27, -573, 3176, 4620, -335, -119, -498, 879, -371, 475, 397, 1435, 1163, -2772, -5830, 1575, -543, -8931, 1339, -463, 2243, -4402, -557, 1692, -3805, 852, 1781, 4748, -56, 1815, 1876, 1508, -1230, 698, -3961, 4617, 163, 465, 1992, -676, 537, 1118, -652, 1257, -70, -961, -4415, 513, -223, -7455, -1368, 1369, -229, -5623, -672, 2888, -5036, 1857, -409, 4184, -1317, 1431, -60, 6908, -195, -306, -3023, 2631, -159, -46, 1616, 1539, 360, 1315, 1079, 104, 346, -865, -5242, 636, 200, -6196, -1646, 812, -1289, -3143, -428, -156, -1915, 1553, 177, 6541, -676, 1202, 1, 4207, -1098, 545, -6924, 1134, -934, 1867, -43, 28, 1238, -1218, -826, 1549, -1067, -2999, -4539, 549, 629, -5278, -426, -412, 1379, -5122, 1718, 909, -3174, 1224, 430, 5233, -529, 2792, 1958, 7507, -231, -415, -4740, 3254, 1041, 1106, -2011, -401, 781, 2556, -88, -670, 275, 764, -7064, -89, 752, -1997, 223, -178, -2157}
}
;

#undef INPUT_SAMPLES
#undef FC_UNITS