/**
  ******************************************************************************
  * @file    weights/fc.cc
  * @author  Pierre-Emmanuel Novac <penovac@unice.fr>, LEAT, CNRS, Université Côte d'Azur, France
  * @version 1.0.0
  * @date    24 march 2020
  * @brief   Template generating plain C code for the implementation of Convolutional Neural Networks on MCU
  */

#include <stdint.h>

#define INPUT_SAMPLES 224
#define FC_UNITS 3


const int16_t dense_16_bias[FC_UNITS] = {2313, 1569, -3962}
;

const int16_t dense_16_kernel[FC_UNITS][INPUT_SAMPLES] = {{1025, 9579, 778, -1489, -537, -4557, 782, -2924, 721, 3994, 460, 1128, -3869, 700, 1425, -1024, -38, -1068, -1999, 1161, -2713, -809, -784, -2969, -237, 2799, -418, -353, -724, 644, 657, -524, 1111, 11983, -256, 564, -1240, -11013, 62, -4264, 716, 2989, -1703, 2348, -2306, -462, -84, -1374, 487, 1224, -2006, 601, -1364, -36, 1543, -2339, -1367, 619, 1099, -246, -101, -647, 149, -232, 1107, 8705, 892, 783, 672, -14394, -433, -870, 500, 1456, -1034, 378, -3841, 745, 345, -910, -1705, 1248, -861, -984, -2657, 3, 264, -3310, -309, 1610, 846, 405, 966, -324, -1006, -348, 25, 10515, -750, 232, -210, -8602, -665, -1864, 41, 237, -104, 1024, -1458, 67, 305, -2498, 234, 554, -335, 1431, -1636, -1565, -1012, -2085, -583, 757, 826, 306, 158, -1550, -19, 337, 633, 9463, 254, -352, -1264, -8298, 764, -1843, 133, 1661, 721, 2369, -1809, -68, -1068, -4779, -34, -1101, -617, -857, -1270, 176, -1567, -1049, 920, -369, -299, -938, 199, -1254, 10, -901, 848, 8664, -513, -1334, -1102, -7569, -367, -2228, 322, 1490, 505, 625, -2273, 313, 838, 164, -341, 609, -177, 1326, -2128, -889, -553, 670, -319, -982, -288, 210, 542, -459, 1226, 46, 850, 9770, -61, 795, 574, -11579, -78, -4757, 949, 3290, 497, 1060, -3411, -238, 1174, -7198, -681, -895, 176, -1170, -2011, -1545, 186, -436, -976, 418, 753, -2201, 256, 254, 1224, -124}
, {-2460, 9468, -324, -204, -267, -8, 17, 1670, -1064, -3066, -319, 906, 3836, -747, -1196, -35, 1246, 3, 1381, -1526, 6784, -1252, -870, 2450, -882, -395, 386, 938, 1271, 624, -2912, -311, -1173, 6235, -1112, 728, 230, 2845, 568, -311, 593, -2508, -855, 516, 4638, -16, -1273, -2958, -98, -543, -1083, 160, 4900, -611, -406, 2129, -515, -2527, -105, -64, 364, -1755, -1026, -1401, -2633, 8719, -699, 230, 340, 2477, -1091, 624, 269, -3067, 520, 1717, 2590, -1626, -1791, -2554, -1068, -230, 157, -413, 5042, 33, -2077, 682, 977, -161, -274, 691, -160, 411, -1090, -345, -1478, 8356, -1030, -1305, -1298, 1935, 177, 2034, -1170, -3215, -79, 1675, 3944, -914, -1623, 1681, 193, 1345, 1765, -1983, 4747, -264, 216, 1397, -943, -6, -181, 358, 8, 421, -2651, 124, -164, 7373, 1141, 502, -633, 4598, 52, 2403, 697, -2811, -1004, -778, 4830, -408, -2129, 1386, 984, 1165, 1449, 407, 4387, -217, -806, 2174, 177, -703, -406, -1029, 242, -571, -1450, 1219, -210, 9123, 454, 156, 317, 1739, 289, 2650, 761, -3130, -1124, 1675, 2956, -40, -1710, 3101, -156, -1115, 535, -356, 5552, 19, -1677, -531, -1433, 376, 531, 955, 195, -849, -2640, -383, -3552, 10695, 339, -1355, 776, 2298, 686, 1535, -756, -2783, 578, 712, 5114, -159, -3403, -1340, -585, 613, -168, -927, 6284, -995, -811, 261, 904, -1441, -1257, 662, 603, 625, -3107, -1344}
, {2206, -22344, -1215, -878, 83, 5592, -728, 1206, 99, 724, 320, -1011, -2232, 819, 501, 2973, 832, 816, 2019, 1031, -4812, 423, 947, 614, -77, -637, -1796, 497, -457, 615, 1812, 1163, 741, -24512, 190, -597, -810, 3191, -1342, 1116, 1309, 1454, 461, -1863, -5169, -446, 959, 2538, 68, -1340, 1866, 79, -3441, -704, -2384, 884, 403, 1263, -809, 827, -756, -204, 629, 47, 1147, -26806, -460, 374, 1324, 7199, 1315, 220, 65, -100, -464, -1002, -3005, -243, -358, 4795, 1468, 673, 1526, -396, -4570, -327, 1675, -2547, -448, -1134, -1844, -775, -191, 233, 2995, -897, 956, -23973, -1026, 125, 143, 4916, 997, 1, 1167, 1575, -803, -1563, -3554, 77, 1171, 3302, -660, 1082, -77, 1127, -4581, -294, -369, -698, 308, 1661, -1104, 928, 540, -87, 3275, 173, 206, -19895, 565, 1247, 1406, 3191, 944, 976, 508, -422, -355, -1938, -2536, 1248, 1491, 3313, 1025, -152, 2681, 184, -4458, -283, 332, -832, -805, -91, -346, 345, -490, 1149, 2831, 179, 849, -24161, -548, 761, 163, 4022, 909, -814, -648, 208, -5, -742, -1021, 216, 959, -1694, 599, -403, 909, -276, -4563, 727, -2207, 1353, 517, 626, -617, -67, -1710, 756, 1213, 308, 869, -25773, -207, 383, -658, 6628, 411, 1247, -183, 1221, 1185, -1860, -5681, 632, 177, 5471, 421, -76, 1196, 759, -7341, 1886, -1641, -2189, 32, -1639, 470, -614, -1329, -284, 2780, 337}
}
;

#undef INPUT_SAMPLES
#undef FC_UNITS