/**
  ******************************************************************************
  * @file    weights/fc.cc
  * @author  Pierre-Emmanuel Novac <penovac@unice.fr>, LEAT, CNRS, Université Côte d'Azur, France
  * @version 1.0.0
  * @date    24 march 2020
  * @brief   Template generating plain C code for the implementation of Convolutional Neural Networks on MCU
  */

#include <stdint.h>

#define INPUT_SAMPLES 192
#define FC_UNITS 3


const int16_t dense_12_bias[FC_UNITS] = {-1859, 4117, -2989}
;

const int16_t dense_12_kernel[FC_UNITS][INPUT_SAMPLES] = {{-2643, 1377, 1035, -389, -34, 1572, 1150, 2465, 1172, 952, 1383, -597, 141, 5167, 1474, 1208, -5537, 993, 42, 9141, 4534, 656, 229, -562, 310, 1269, -1197, -997, 663, 204, 206, 882, 2091, -3284, -1942, -4539, -47, 167, -2003, 940, 6, 1197, 3605, 1580, 1839, 2409, -1249, -2009, 39, 1516, -2591, 432, -921, 1480, -123, -1111, 1534, -1673, 654, -455, 140, -1471, 522, -3722, -3599, -1007, 1639, 643, -661, -1673, -873, -1025, -118, 50, -952, -1821, 1780, 3684, 2855, -333, -4059, 998, 366, 7440, 4454, -635, 90, 1052, -1643, 353, -942, -149, -619, -305, -65, -129, 2604, -2095, -260, -2464, -630, 1013, -1875, -945, 1504, 1377, 3124, 5433, 1605, 3117, 1034, 179, 1187, 3086, 216, 735, -1825, 1427, 1549, -344, -683, -906, 734, 113, -992, -2140, 765, -7579, -3610, 2259, 745, -10, 165, -472, 565, -405, 1044, 1690, -895, 235, 2298, 3332, 2351, 70, -5867, 4556, -504, 7649, 4482, 411, 642, 379, -1380, -1421, -742, 266, 121, -75, 691, 1605, 2783, -2545, 153, -5142, 1357, 5296, -1941, 2152, 2515, 1880, 2475, -185, 2079, 1564, 980, 570, 940, 1198, -1713, 941, -1, 1289, 369, 1355, 1110, -1702, 638, -1836, 158, -3156, 478, -163}
, {4259, -1011, -1498, 1432, -1408, -629, -176, -960, -313, 941, -495, 2635, -2391, -533, 3367, -1558, 1268, 1291, 2028, 621, -2661, 133, -156, 1061, -4871, -882, -2068, -724, 1182, 720, -485, -1986, -3870, 3203, -220, 2565, 339, 3361, -679, 1157, 748, -869, 5146, -1940, 262, 869, -1362, -558, -519, -650, 2050, 520, -271, 716, 38, -1298, -4721, -591, -427, 3700, -2035, 3010, 746, 8533, 3291, 108, -840, -261, -2110, -547, 1037, -1278, -28, -617, -960, 2517, -1763, -635, 1982, -1383, 1634, -2107, 256, -387, -1674, 169, 591, 15, -3981, 1597, -1693, -279, 254, -364, -463, -468, -3952, 3148, 876, 1018, 917, 449, 1847, 3016, 3706, -860, 3697, -8811, -1924, 2741, 2732, 115, -606, -3003, -1436, 1405, 650, -1155, 789, 298, -2497, 330, -396, 2831, 56, 4223, -135, 2730, 2879, -788, -2873, -997, -897, -547, -500, -1915, -190, 1168, 406, 611, -2097, 355, 678, -1617, 1736, -2081, -187, 19, 93, -1084, 1184, 527, -2997, 177, -2084, 239, 70, 338, 1403, -1587, -2776, 4619, -375, 1096, -842, -2652, 3689, 120, 679, -1784, 5277, 1611, -48, 1341, 36, 1406, 104, 265, -1146, 280, 1161, 1108, -179, 866, -4108, -203, -546, 2913, 197, 2701, 209, 741}
, {-2447, -2, 559, -1846, 1108, 326, 317, -269, 167, -459, -691, -1990, 620, -5594, -3732, 2123, 4047, 114, 282, -9668, -2539, -939, -254, 536, 7152, -1285, 127, -1253, 251, -296, 2019, 2223, 1632, -3279, -897, 632, 571, -4087, 4359, -4116, -3916, 1462, -8689, 1557, 1126, -6720, -127, -524, 452, 658, 2221, -1291, -497, 350, -1482, -795, 4542, -522, -1547, -2932, 448, -5526, -267, -6610, -116, 75, 340, -1241, 2170, -60, 566, 1042, -187, -2460, 40, -1284, -250, -2973, -6796, 1619, 3299, 2350, 161, -9114, -3285, 257, 338, 469, 4130, -271, 464, 481, 173, 189, 35, 374, -787, -3357, 603, 189, 42, 509, -1292, -1516, -4178, 997, -9549, 92, -828, -5867, -755, 88, 118, -1765, -1569, 491, 143, -636, 106, 950, 4571, 28, -990, -2018, 1163, -4039, 40, 4962, -1260, 2517, 287, 433, -561, -2084, 88, 1676, 498, -2216, -231, -2507, 285, -4069, -5247, 1697, 2737, 2353, -1720, -9565, -569, 722, 1175, 262, 4104, 1170, 458, -64, -590, 1219, -78, 751, 873, -2244, 939, 1454, 699, -153, -3097, -997, -3308, 167, -7642, -2232, 1157, -5828, -1523, 1375, 15, -1252, -1487, 559, 150, 1734, 175, 314, 2516, -18, -71, -5449, -1085, -2796, -60, -1767}
}
;

#undef INPUT_SAMPLES
#undef FC_UNITS